package com.actelion.research.orbit.imageAnalysis.components.icons;

import java.awt.*;
import java.awt.geom.*;
import java.awt.image.BufferedImage;
import java.io.*;
import java.lang.ref.WeakReference;
import java.util.Base64;
import java.util.Stack;
import javax.imageio.ImageIO;
import javax.swing.SwingUtilities;
import javax.swing.plaf.UIResource;

import org.pushingpixels.neon.api.icon.ResizableIcon;
import org.pushingpixels.neon.api.icon.ResizableIconUIResource;

/**
 * This class has been automatically generated using <a
 * href="https://github.com/kirill-grouchnikov/radiance">Photon SVG transcoder</a>.
 */
public class browser_wipp_Address_Book implements ResizableIcon {
    private Shape shape = null;
    private GeneralPath generalPath = null;
    private Paint paint = null;
    private Stroke stroke = null;
    private Shape clip = null;
    private Stack<AffineTransform> transformsStack = new Stack<>();

    

	private void _paint0(Graphics2D g,float origAlpha) {
transformsStack.push(g.getTransform());
// 
g.setComposite(AlphaComposite.getInstance(3, 1.0f * origAlpha));
transformsStack.push(g.getTransform());
g.transform(new AffineTransform(0.003367003286257386f, 0.0f, 0.0f, 0.003367003286257386f, 0.1464646429521963f, -0.0f));
// _0
g.setComposite(AlphaComposite.getInstance(3, 1.0f * origAlpha));
transformsStack.push(g.getTransform());
g.transform(new AffineTransform(1.0f, 0.0f, 0.0f, 1.0f, -28.832000732421875f, -49.244998931884766f));
// _0_0
g.setComposite(AlphaComposite.getInstance(3, 1.0f * origAlpha));
transformsStack.push(g.getTransform());
g.transform(new AffineTransform(1.0f, 0.0f, 0.0f, 1.0f, 0.0f, 0.0f));
// _0_0_0
g.setComposite(AlphaComposite.getInstance(3, 1.0f * origAlpha));
transformsStack.push(g.getTransform());
g.transform(new AffineTransform(1.0f, 0.0f, 0.0f, 1.0f, 0.0f, 0.0f));
// _0_0_0_0
shape = new Rectangle2D.Double(-27.874000549316406, 99.42900085449219, 335.80999755859375, 246.72000122070312);
paint = new Color(19, 21, 22, 255);
g.setPaint(paint);
g.fill(shape);
paint = new Color(19, 21, 22, 255);
stroke = new BasicStroke(0.19711f,0,0,4.0f,null,0.0f);
shape = new Rectangle2D.Double(-27.874000549316406, 99.42900085449219, 335.80999755859375, 246.72000122070312);
g.setPaint(paint);
g.setStroke(stroke);
g.draw(shape);
g.setTransform(transformsStack.pop());
g.setComposite(AlphaComposite.getInstance(3, 1.0f * origAlpha));
transformsStack.push(g.getTransform());
g.transform(new AffineTransform(1.0f, 0.0f, 0.0f, 1.0f, 0.0f, 0.0f));
// _0_0_0_1
if (generalPath == null) {
   generalPath = new GeneralPath();
} else {
   generalPath.reset();
}
generalPath.moveTo(-34.745f, 93.571f);
generalPath.lineTo(-34.745f, 337.361f);
generalPath.lineTo(116.05501f, 337.361f);
generalPath.lineTo(116.045006f, 337.361f);
generalPath.curveTo(125.175f, 332.16098f, 134.29501f, 337.681f, 143.46501f, 332.481f);
generalPath.curveTo(152.91501f, 337.681f, 162.35501f, 332.16098f, 171.85501f, 337.361f);
generalPath.lineTo(301.065f, 337.361f);
generalPath.lineTo(301.065f, 93.571f);
generalPath.curveTo(189.145f, 93.572f, 77.225006f, 93.572f, -34.744995f, 93.572f);
generalPath.lineTo(-34.749996f, 93.572f);
generalPath.closePath();
shape = generalPath;
paint = new Color(192, 193, 197, 255);
g.setPaint(paint);
g.fill(shape);
paint = new Color(126, 131, 135, 255);
stroke = new BasicStroke(1.8252f,0,0,4.0f,null,0.0f);
if (generalPath == null) {
   generalPath = new GeneralPath();
} else {
   generalPath.reset();
}
generalPath.moveTo(-34.745f, 93.571f);
generalPath.lineTo(-34.745f, 337.361f);
generalPath.lineTo(116.05501f, 337.361f);
generalPath.lineTo(116.045006f, 337.361f);
generalPath.curveTo(125.175f, 332.16098f, 134.29501f, 337.681f, 143.46501f, 332.481f);
generalPath.curveTo(152.91501f, 337.681f, 162.35501f, 332.16098f, 171.85501f, 337.361f);
generalPath.lineTo(301.065f, 337.361f);
generalPath.lineTo(301.065f, 93.571f);
generalPath.curveTo(189.145f, 93.572f, 77.225006f, 93.572f, -34.744995f, 93.572f);
generalPath.lineTo(-34.749996f, 93.572f);
generalPath.closePath();
shape = generalPath;
g.setPaint(paint);
g.setStroke(stroke);
g.draw(shape);
g.setTransform(transformsStack.pop());
g.setComposite(AlphaComposite.getInstance(3, 1.0f * origAlpha));
transformsStack.push(g.getTransform());
g.transform(new AffineTransform(1.0f, 0.0f, 0.0f, 1.0f, 0.0f, 0.0f));
// _0_0_0_2
if (generalPath == null) {
   generalPath = new GeneralPath();
} else {
   generalPath.reset();
}
generalPath.moveTo(-14.167f, 94.529f);
generalPath.lineTo(-14.167f, 327.549f);
generalPath.curveTo(-14.167f, 327.549f, 74.441f, 326.58902f, 115.053f, 328.509f);
generalPath.curveTo(155.703f, 330.469f, 143.473f, 333.42902f, 143.473f, 333.42902f);
generalPath.curveTo(143.473f, 333.42902f, 129.973f, 330.46902f, 165.973f, 328.509f);
generalPath.curveTo(201.973f, 326.589f, 292.263f, 327.549f, 292.263f, 327.549f);
generalPath.lineTo(292.263f, 94.52901f);
generalPath.lineTo(292.263f, 94.52801f);
generalPath.curveTo(292.263f, 94.52801f, 202.293f, 92.840004f, 166.433f, 94.20901f);
generalPath.curveTo(130.563f, 95.62401f, 142.933f, 100.09901f, 142.933f, 100.09901f);
generalPath.curveTo(142.933f, 100.09901f, 156.25299f, 95.62401f, 115.513f, 94.20901f);
generalPath.curveTo(74.764f, 92.840004f, -14.166992f, 94.52801f, -14.166992f, 94.52801f);
generalPath.lineTo(-14.163992f, 94.52801f);
generalPath.closePath();
shape = generalPath;
paint = new Color(66, 73, 76, 255);
g.setPaint(paint);
g.fill(shape);
g.setTransform(transformsStack.pop());
g.setComposite(AlphaComposite.getInstance(3, 1.0f * origAlpha));
transformsStack.push(g.getTransform());
g.transform(new AffineTransform(1.0f, 0.0f, 0.0f, 1.0f, 0.0f, 0.0f));
// _0_0_0_3
if (generalPath == null) {
   generalPath = new GeneralPath();
} else {
   generalPath.reset();
}
generalPath.moveTo(-19.505f, 83.123f);
generalPath.curveTo(-19.368f, 163.93f, -19.230999f, 244.733f, -19.049f, 325.59302f);
generalPath.curveTo(-19.049f, 325.59302f, 75.399f, 324.63303f, 116.05101f, 326.59302f);
generalPath.curveTo(156.66101f, 328.51303f, 143.47101f, 333.433f, 143.47101f, 333.433f);
generalPath.curveTo(143.47101f, 333.433f, 130.97101f, 328.513f, 166.97101f, 326.59302f);
generalPath.curveTo(202.931f, 324.63303f, 287.381f, 325.59302f, 287.381f, 325.59302f);
generalPath.curveTo(287.251f, 244.78302f, 287.11102f, 163.97302f, 286.931f, 83.12302f);
generalPath.lineTo(286.931f, 83.126015f);
generalPath.curveTo(286.931f, 83.126015f, 202.841f, 81.39201f, 166.97101f, 82.807014f);
generalPath.curveTo(131.061f, 84.17502f, 143.47101f, 88.64702f, 143.47101f, 88.64702f);
generalPath.curveTo(143.47101f, 88.64702f, 156.80101f, 84.17502f, 116.05101f, 82.80702f);
generalPath.curveTo(75.309006f, 81.39202f, -19.508987f, 83.12602f, -19.508987f, 83.12602f);
generalPath.lineTo(-19.503988f, 83.12602f);
generalPath.closePath();
shape = generalPath;
paint = new Color(255, 255, 255, 255);
g.setPaint(paint);
g.fill(shape);
paint = new Color(126, 131, 135, 255);
stroke = new BasicStroke(1.8252f,0,0,4.0f,null,0.0f);
if (generalPath == null) {
   generalPath = new GeneralPath();
} else {
   generalPath.reset();
}
generalPath.moveTo(-19.505f, 83.123f);
generalPath.curveTo(-19.368f, 163.93f, -19.230999f, 244.733f, -19.049f, 325.59302f);
generalPath.curveTo(-19.049f, 325.59302f, 75.399f, 324.63303f, 116.05101f, 326.59302f);
generalPath.curveTo(156.66101f, 328.51303f, 143.47101f, 333.433f, 143.47101f, 333.433f);
generalPath.curveTo(143.47101f, 333.433f, 130.97101f, 328.513f, 166.97101f, 326.59302f);
generalPath.curveTo(202.931f, 324.63303f, 287.381f, 325.59302f, 287.381f, 325.59302f);
generalPath.curveTo(287.251f, 244.78302f, 287.11102f, 163.97302f, 286.931f, 83.12302f);
generalPath.lineTo(286.931f, 83.126015f);
generalPath.curveTo(286.931f, 83.126015f, 202.841f, 81.39201f, 166.97101f, 82.807014f);
generalPath.curveTo(131.061f, 84.17502f, 143.47101f, 88.64702f, 143.47101f, 88.64702f);
generalPath.curveTo(143.47101f, 88.64702f, 156.80101f, 84.17502f, 116.05101f, 82.80702f);
generalPath.curveTo(75.309006f, 81.39202f, -19.508987f, 83.12602f, -19.508987f, 83.12602f);
generalPath.lineTo(-19.503988f, 83.12602f);
generalPath.closePath();
shape = generalPath;
g.setPaint(paint);
g.setStroke(stroke);
g.draw(shape);
g.setTransform(transformsStack.pop());
g.setComposite(AlphaComposite.getInstance(3, 1.0f * origAlpha));
transformsStack.push(g.getTransform());
g.transform(new AffineTransform(1.0f, 0.0f, 0.0f, 1.0f, 0.0f, 0.0f));
// _0_0_0_4
if (generalPath == null) {
   generalPath = new GeneralPath();
} else {
   generalPath.reset();
}
generalPath.moveTo(-7.3226f, 87.686f);
generalPath.curveTo(-7.1857f, 164.7f, -7.0488997f, 241.716f, -6.8663f, 318.736f);
generalPath.curveTo(-6.8663f, 318.736f, 66.775696f, 318.736f, 105.2937f, 320.69598f);
generalPath.curveTo(118.0237f, 324.25598f, 130.7537f, 327.866f, 143.4737f, 331.46597f);
generalPath.curveTo(156.5237f, 327.90598f, 169.5737f, 324.30597f, 182.62369f, 320.69598f);
generalPath.curveTo(216.71368f, 318.736f, 283.46368f, 318.736f, 283.46368f, 318.736f);
generalPath.lineTo(283.46368f, 87.68599f);
generalPath.lineTo(283.46368f, 87.68199f);
generalPath.curveTo(283.46368f, 87.68199f, 215.98367f, 84.48799f, 182.08368f, 88.36599f);
generalPath.curveTo(148.17368f, 92.19899f, 142.93369f, 102.05599f, 142.93369f, 102.05599f);
generalPath.curveTo(142.93369f, 102.05599f, 142.43369f, 92.19899f, 103.73369f, 88.36599f);
generalPath.curveTo(65.09169f, 84.48799f, -7.3163147f, 87.68199f, -7.3163147f, 87.68199f);
generalPath.lineTo(-7.318915f, 87.68199f);
generalPath.closePath();
shape = generalPath;
paint = new Color(66, 73, 76, 255);
g.setPaint(paint);
g.fill(shape);
g.setTransform(transformsStack.pop());
g.setComposite(AlphaComposite.getInstance(3, 1.0f * origAlpha));
transformsStack.push(g.getTransform());
g.transform(new AffineTransform(1.0f, 0.0f, 0.0f, 1.0f, 0.0f, 0.0f));
// _0_0_0_5
if (generalPath == null) {
   generalPath = new GeneralPath();
} else {
   generalPath.reset();
}
generalPath.moveTo(-11.247f, 70.393f);
generalPath.curveTo(-11.11f, 151.2f, -10.973f, 232.00299f, -10.79f, 312.863f);
generalPath.curveTo(-10.79f, 312.863f, 66.776f, 311.903f, 105.29f, 313.863f);
generalPath.curveTo(118.020004f, 319.703f, 130.75f, 325.59302f, 143.47f, 331.47302f);
generalPath.curveTo(156.52f, 325.63303f, 169.57f, 319.75302f, 182.62f, 313.86304f);
generalPath.curveTo(216.70999f, 311.90305f, 279.53998f, 312.86304f, 279.53998f, 312.86304f);
generalPath.curveTo(279.39996f, 232.05304f, 279.25998f, 151.24304f, 279.11996f, 70.393036f);
generalPath.lineTo(279.11996f, 70.396034f);
generalPath.curveTo(279.11996f, 70.396034f, 216.51996f, 68.20603f, 182.61996f, 72.03903f);
generalPath.curveTo(148.71997f, 75.87103f, 143.46997f, 85.72603f, 143.46997f, 85.72603f);
generalPath.curveTo(143.46997f, 85.72603f, 142.96997f, 75.87103f, 104.27997f, 72.03903f);
generalPath.curveTo(65.634964f, 68.20603f, -11.2500305f, 70.396034f, -11.2500305f, 70.396034f);
generalPath.lineTo(-11.24703f, 70.396034f);
generalPath.closePath();
shape = generalPath;
paint = new Color(255, 255, 255, 255);
g.setPaint(paint);
g.fill(shape);
paint = new Color(126, 131, 135, 255);
stroke = new BasicStroke(1.8252f,0,0,4.0f,null,0.0f);
if (generalPath == null) {
   generalPath = new GeneralPath();
} else {
   generalPath.reset();
}
generalPath.moveTo(-11.247f, 70.393f);
generalPath.curveTo(-11.11f, 151.2f, -10.973f, 232.00299f, -10.79f, 312.863f);
generalPath.curveTo(-10.79f, 312.863f, 66.776f, 311.903f, 105.29f, 313.863f);
generalPath.curveTo(118.020004f, 319.703f, 130.75f, 325.59302f, 143.47f, 331.47302f);
generalPath.curveTo(156.52f, 325.63303f, 169.57f, 319.75302f, 182.62f, 313.86304f);
generalPath.curveTo(216.70999f, 311.90305f, 279.53998f, 312.86304f, 279.53998f, 312.86304f);
generalPath.curveTo(279.39996f, 232.05304f, 279.25998f, 151.24304f, 279.11996f, 70.393036f);
generalPath.lineTo(279.11996f, 70.396034f);
generalPath.curveTo(279.11996f, 70.396034f, 216.51996f, 68.20603f, 182.61996f, 72.03903f);
generalPath.curveTo(148.71997f, 75.87103f, 143.46997f, 85.72603f, 143.46997f, 85.72603f);
generalPath.curveTo(143.46997f, 85.72603f, 142.96997f, 75.87103f, 104.27997f, 72.03903f);
generalPath.curveTo(65.634964f, 68.20603f, -11.2500305f, 70.396034f, -11.2500305f, 70.396034f);
generalPath.lineTo(-11.24703f, 70.396034f);
generalPath.closePath();
shape = generalPath;
g.setPaint(paint);
g.setStroke(stroke);
g.draw(shape);
g.setTransform(transformsStack.pop());
g.setComposite(AlphaComposite.getInstance(3, 1.0f * origAlpha));
transformsStack.push(g.getTransform());
g.transform(new AffineTransform(1.0f, 0.0f, 0.0f, 1.0f, 0.0f, 0.0f));
// _0_0_0_6
if (generalPath == null) {
   generalPath = new GeneralPath();
} else {
   generalPath.reset();
}
generalPath.moveTo(3.4455f, 72.036f);
generalPath.lineTo(3.4455f, 306.966f);
generalPath.curveTo(3.4455f, 306.966f, 67.915504f, 305.776f, 104.275505f, 312.85602f);
generalPath.curveTo(140.64551f, 319.966f, 143.4655f, 330.466f, 143.4655f, 330.466f);
generalPath.curveTo(143.4655f, 330.466f, 150.0455f, 319.966f, 181.61551f, 312.85602f);
generalPath.curveTo(213.18552f, 305.77603f, 275.6055f, 307.966f, 275.6055f, 307.966f);
generalPath.curveTo(275.46548f, 229.356f, 275.3355f, 150.696f, 275.1955f, 72.03601f);
generalPath.lineTo(275.1955f, 72.03201f);
generalPath.curveTo(275.1955f, 72.03201f, 210.1755f, 68.83801f, 178.46548f, 72.67001f);
generalPath.curveTo(146.70549f, 76.50301f, 142.87549f, 97.17201f, 142.87549f, 97.17201f);
generalPath.curveTo(142.87549f, 97.17201f, 141.32549f, 76.50301f, 105.14549f, 72.67001f);
generalPath.curveTo(68.9155f, 68.83801f, 3.4454956f, 72.03201f, 3.4454956f, 72.03201f);
generalPath.lineTo(3.4409957f, 72.03201f);
generalPath.closePath();
shape = generalPath;
paint = new Color(66, 73, 76, 255);
g.setPaint(paint);
g.fill(shape);
g.setTransform(transformsStack.pop());
g.setComposite(AlphaComposite.getInstance(3, 1.0f * origAlpha));
transformsStack.push(g.getTransform());
g.transform(new AffineTransform(1.0f, 0.0f, 0.0f, 1.0f, 0.0f, 0.0f));
// _0_0_0_7
if (generalPath == null) {
   generalPath = new GeneralPath();
} else {
   generalPath.reset();
}
generalPath.moveTo(-2.4404f, 59.625f);
generalPath.curveTo(-2.3035f, 140.43f, -2.1667f, 221.245f, -2.0298998f, 302.08502f);
generalPath.lineTo(-2.0298998f, 302.09503f);
generalPath.curveTo(-2.0298998f, 302.09503f, 68.9201f, 299.90503f, 105.2901f, 306.97504f);
generalPath.curveTo(141.6501f, 314.09503f, 143.4701f, 330.47504f, 143.4701f, 330.47504f);
generalPath.curveTo(143.4701f, 330.47504f, 151.0501f, 314.09503f, 182.62009f, 306.97504f);
generalPath.curveTo(214.20009f, 299.90503f, 269.77008f, 302.09503f, 269.77008f, 302.09503f);
generalPath.curveTo(269.63007f, 221.28503f, 269.5001f, 140.48503f, 269.36008f, 59.635025f);
generalPath.lineTo(269.36008f, 59.630024f);
generalPath.curveTo(269.36008f, 59.630024f, 210.78008f, 57.440025f, 179.02008f, 61.272022f);
generalPath.curveTo(147.26009f, 65.10502f, 143.47008f, 85.72802f, 143.47008f, 85.72802f);
generalPath.curveTo(143.47008f, 85.72802f, 141.92007f, 65.10502f, 105.70007f, 61.27202f);
generalPath.curveTo(69.51407f, 57.440018f, -2.4399261f, 59.63002f, -2.4399261f, 59.63002f);
generalPath.lineTo(-2.4403262f, 59.63002f);
generalPath.closePath();
shape = generalPath;
paint = new Color(255, 255, 255, 255);
g.setPaint(paint);
g.fill(shape);
paint = new Color(126, 131, 135, 255);
stroke = new BasicStroke(1.8252f,0,0,4.0f,null,0.0f);
if (generalPath == null) {
   generalPath = new GeneralPath();
} else {
   generalPath.reset();
}
generalPath.moveTo(-2.4404f, 59.625f);
generalPath.curveTo(-2.3035f, 140.43f, -2.1667f, 221.245f, -2.0298998f, 302.08502f);
generalPath.lineTo(-2.0298998f, 302.09503f);
generalPath.curveTo(-2.0298998f, 302.09503f, 68.9201f, 299.90503f, 105.2901f, 306.97504f);
generalPath.curveTo(141.6501f, 314.09503f, 143.4701f, 330.47504f, 143.4701f, 330.47504f);
generalPath.curveTo(143.4701f, 330.47504f, 151.0501f, 314.09503f, 182.62009f, 306.97504f);
generalPath.curveTo(214.20009f, 299.90503f, 269.77008f, 302.09503f, 269.77008f, 302.09503f);
generalPath.curveTo(269.63007f, 221.28503f, 269.5001f, 140.48503f, 269.36008f, 59.635025f);
generalPath.lineTo(269.36008f, 59.630024f);
generalPath.curveTo(269.36008f, 59.630024f, 210.78008f, 57.440025f, 179.02008f, 61.272022f);
generalPath.curveTo(147.26009f, 65.10502f, 143.47008f, 85.72802f, 143.47008f, 85.72802f);
generalPath.curveTo(143.47008f, 85.72802f, 141.92007f, 65.10502f, 105.70007f, 61.27202f);
generalPath.curveTo(69.51407f, 57.440018f, -2.4399261f, 59.63002f, -2.4399261f, 59.63002f);
generalPath.lineTo(-2.4403262f, 59.63002f);
generalPath.closePath();
shape = generalPath;
g.setPaint(paint);
g.setStroke(stroke);
g.draw(shape);
g.setTransform(transformsStack.pop());
g.setComposite(AlphaComposite.getInstance(3, 1.0f * origAlpha));
transformsStack.push(g.getTransform());
g.transform(new AffineTransform(1.0f, 0.0f, 0.0f, 1.0f, 0.0f, 0.0f));
// _0_0_0_8
if (generalPath == null) {
   generalPath = new GeneralPath();
} else {
   generalPath.reset();
}
generalPath.moveTo(21.696f, 58.94f);
generalPath.curveTo(21.787998f, 138.65f, 21.924f, 218.41f, 22.060999f, 298.16f);
generalPath.curveTo(22.060999f, 298.16f, 70.562996f, 296.57f, 104.1f, 304.83002f);
generalPath.curveTo(137.59f, 313.13f, 143.79f, 327.55002f, 143.79f, 327.55002f);
generalPath.curveTo(143.79f, 327.55002f, 147.34999f, 313.13f, 176.42f, 304.83002f);
generalPath.curveTo(205.44f, 296.57f, 261.91998f, 298.16f, 261.91998f, 298.16f);
generalPath.curveTo(261.83f, 218.45001f, 261.68997f, 138.7f, 261.56f, 58.940002f);
generalPath.curveTo(261.56f, 58.940002f, 205.66f, 57.800003f, 176.42f, 61.496002f);
generalPath.curveTo(147.17f, 65.191f, 143.79f, 93.663f, 143.79f, 93.663f);
generalPath.curveTo(143.79f, 93.663f, 142.23999f, 65.191f, 108.88999f, 61.496002f);
generalPath.curveTo(75.58199f, 57.800003f, 21.695992f, 58.940002f, 21.695992f, 58.940002f);
generalPath.closePath();
shape = generalPath;
paint = new Color(66, 73, 76, 255);
g.setPaint(paint);
g.fill(shape);
g.setTransform(transformsStack.pop());
g.setComposite(AlphaComposite.getInstance(3, 1.0f * origAlpha));
transformsStack.push(g.getTransform());
g.transform(new AffineTransform(1.0f, 0.0f, 0.0f, 1.0f, 0.0f, 0.0f));
// _0_0_0_9
if (generalPath == null) {
   generalPath = new GeneralPath();
} else {
   generalPath.reset();
}
generalPath.moveTo(14.213f, 50.773f);
generalPath.lineTo(14.213f, 293.053f);
generalPath.curveTo(14.213f, 293.053f, 73.072f, 290.59302f, 105.29f, 299.173f);
generalPath.curveTo(137.5f, 307.703f, 143.47f, 327.553f, 143.47f, 327.553f);
generalPath.curveTo(143.47f, 327.553f, 146.9f, 307.703f, 174.78f, 299.173f);
generalPath.curveTo(202.7f, 290.59302f, 254.44f, 291.683f, 254.44f, 291.683f);
generalPath.curveTo(254.53f, 211.38301f, 254.62f, 131.08301f, 254.71f, 50.77301f);
generalPath.lineTo(254.71f, 50.77601f);
generalPath.curveTo(254.71f, 50.77601f, 202.88f, 48.58601f, 174.78f, 52.46401f);
generalPath.curveTo(146.70999f, 56.29701f, 143.47f, 85.72601f, 143.47f, 85.72601f);
generalPath.curveTo(143.47f, 85.72601f, 141.92f, 56.297012f, 109.89f, 52.464012f);
generalPath.curveTo(77.863f, 48.586014f, 14.212997f, 50.776012f, 14.212997f, 50.776012f);
generalPath.closePath();
shape = generalPath;
paint = new LinearGradientPaint(new Point2D.Double(50.53099822998047, 101.72000122070312), new Point2D.Double(143.50999450683594, 101.72000122070312), new float[] {0.0f,0.36863f,0.52941f,0.67843f,1.0f}, new Color[] {new Color(255, 255, 255, 255),new Color(255, 255, 255, 255),new Color(160, 163, 167, 255),new Color(255, 255, 255, 255),new Color(255, 255, 255, 255)}, MultipleGradientPaint.CycleMethod.NO_CYCLE, MultipleGradientPaint.ColorSpaceType.SRGB, new AffineTransform(2.586699962615967f, 0.0f, 0.0f, 2.586699962615967f, -116.5f, -75.06199645996094f));
g.setPaint(paint);
g.fill(shape);
paint = new Color(126, 131, 135, 255);
stroke = new BasicStroke(1.8252f,0,0,4.0f,null,0.0f);
if (generalPath == null) {
   generalPath = new GeneralPath();
} else {
   generalPath.reset();
}
generalPath.moveTo(14.213f, 50.773f);
generalPath.lineTo(14.213f, 293.053f);
generalPath.curveTo(14.213f, 293.053f, 73.072f, 290.59302f, 105.29f, 299.173f);
generalPath.curveTo(137.5f, 307.703f, 143.47f, 327.553f, 143.47f, 327.553f);
generalPath.curveTo(143.47f, 327.553f, 146.9f, 307.703f, 174.78f, 299.173f);
generalPath.curveTo(202.7f, 290.59302f, 254.44f, 291.683f, 254.44f, 291.683f);
generalPath.curveTo(254.53f, 211.38301f, 254.62f, 131.08301f, 254.71f, 50.77301f);
generalPath.lineTo(254.71f, 50.77601f);
generalPath.curveTo(254.71f, 50.77601f, 202.88f, 48.58601f, 174.78f, 52.46401f);
generalPath.curveTo(146.70999f, 56.29701f, 143.47f, 85.72601f, 143.47f, 85.72601f);
generalPath.curveTo(143.47f, 85.72601f, 141.92f, 56.297012f, 109.89f, 52.464012f);
generalPath.curveTo(77.863f, 48.586014f, 14.212997f, 50.776012f, 14.212997f, 50.776012f);
generalPath.closePath();
shape = generalPath;
g.setPaint(paint);
g.setStroke(stroke);
g.draw(shape);
g.setTransform(transformsStack.pop());
g.setComposite(AlphaComposite.getInstance(3, 1.0f * origAlpha));
transformsStack.push(g.getTransform());
g.transform(new AffineTransform(1.0f, 0.0f, 0.0f, 1.0f, 0.0f, 0.0f));
// _0_0_0_10
paint = new Color(126, 131, 135, 255);
stroke = new BasicStroke(1.8252f,0,0,4.0f,null,0.0f);
shape = new Line2D.Float(143.470001f,82.804001f,143.470001f,327.549988f);
g.setPaint(paint);
g.setStroke(stroke);
g.draw(shape);
g.setTransform(transformsStack.pop());
g.setComposite(AlphaComposite.getInstance(3, 1.0f * origAlpha));
transformsStack.push(g.getTransform());
g.transform(new AffineTransform(1.0f, 0.0f, 0.0f, 1.0f, 0.0f, 0.0f));
// _0_0_0_11
paint = new Color(0, 83, 153, 255);
stroke = new BasicStroke(2.7375f,0,0,4.0f,null,0.0f);
if (generalPath == null) {
   generalPath = new GeneralPath();
} else {
   generalPath.reset();
}
generalPath.moveTo(38.715f, 119.99f);
generalPath.curveTo(68.099f, 120.17f, 89.909f, 121.45f, 105.28999f, 123.909996f);
generalPath.curveTo(120.51999f, 126.38f, 128.54999f, 129.89f, 129.73999f, 134.68f);
shape = generalPath;
g.setPaint(paint);
g.setStroke(stroke);
g.draw(shape);
g.setTransform(transformsStack.pop());
g.setComposite(AlphaComposite.getInstance(3, 1.0f * origAlpha));
transformsStack.push(g.getTransform());
g.transform(new AffineTransform(1.0f, 0.0f, 0.0f, 1.0f, 0.0f, 0.0f));
// _0_0_0_12
paint = new Color(0, 83, 153, 255);
stroke = new BasicStroke(2.7375f,0,0,4.0f,null,0.0f);
if (generalPath == null) {
   generalPath = new GeneralPath();
} else {
   generalPath.reset();
}
generalPath.moveTo(38.67f, 143.21f);
generalPath.curveTo(68.05299f, 143.40001f, 89.863f, 144.67001f, 105.24f, 147.14f);
generalPath.curveTo(120.479996f, 149.65f, 128.51f, 153.16f, 129.7f, 157.91f);
shape = generalPath;
g.setPaint(paint);
g.setStroke(stroke);
g.draw(shape);
g.setTransform(transformsStack.pop());
g.setComposite(AlphaComposite.getInstance(3, 1.0f * origAlpha));
transformsStack.push(g.getTransform());
g.transform(new AffineTransform(1.0f, 0.0f, 0.0f, 1.0f, 0.0f, 0.0f));
// _0_0_0_13
paint = new Color(0, 83, 153, 255);
stroke = new BasicStroke(2.7375f,0,0,4.0f,null,0.0f);
if (generalPath == null) {
   generalPath = new GeneralPath();
} else {
   generalPath.reset();
}
generalPath.moveTo(38.67f, 170.27f);
generalPath.curveTo(68.05299f, 170.45f, 89.863f, 171.73001f, 105.24f, 174.19f);
generalPath.curveTo(120.479996f, 176.66f, 128.51f, 180.17f, 129.7f, 184.96f);
shape = generalPath;
g.setPaint(paint);
g.setStroke(stroke);
g.draw(shape);
g.setTransform(transformsStack.pop());
g.setComposite(AlphaComposite.getInstance(3, 1.0f * origAlpha));
transformsStack.push(g.getTransform());
g.transform(new AffineTransform(1.0f, 0.0f, 0.0f, 1.0f, 0.0f, 0.0f));
// _0_0_0_14
paint = new Color(0, 83, 153, 255);
stroke = new BasicStroke(2.7375f,0,0,4.0f,null,0.0f);
if (generalPath == null) {
   generalPath = new GeneralPath();
} else {
   generalPath.reset();
}
generalPath.moveTo(38.67f, 195.91f);
generalPath.curveTo(68.05299f, 196.1f, 89.863f, 197.37001f, 105.24f, 199.84f);
generalPath.curveTo(120.479996f, 202.3f, 128.51f, 205.86f, 129.7f, 210.61f);
shape = generalPath;
g.setPaint(paint);
g.setStroke(stroke);
g.draw(shape);
g.setTransform(transformsStack.pop());
g.setComposite(AlphaComposite.getInstance(3, 1.0f * origAlpha));
transformsStack.push(g.getTransform());
g.transform(new AffineTransform(1.0f, 0.0f, 0.0f, 1.0f, 0.0f, 0.0f));
// _0_0_0_15
paint = new Color(0, 83, 153, 255);
stroke = new BasicStroke(2.7375f,0,0,4.0f,null,0.0f);
if (generalPath == null) {
   generalPath = new GeneralPath();
} else {
   generalPath.reset();
}
generalPath.moveTo(38.67f, 257.6f);
generalPath.curveTo(68.05299f, 257.78f, 89.863f, 259.06f, 105.24f, 261.52002f);
generalPath.curveTo(120.479996f, 263.99002f, 128.51f, 267.50003f, 129.7f, 272.29f);
shape = generalPath;
g.setPaint(paint);
g.setStroke(stroke);
g.draw(shape);
g.setTransform(transformsStack.pop());
g.setComposite(AlphaComposite.getInstance(3, 1.0f * origAlpha));
transformsStack.push(g.getTransform());
g.transform(new AffineTransform(1.0f, 0.0f, 0.0f, 1.0f, 0.0f, 0.0f));
// _0_0_0_16
paint = new Color(0, 83, 153, 255);
stroke = new BasicStroke(2.7375f,0,0,4.0f,null,0.0f);
if (generalPath == null) {
   generalPath = new GeneralPath();
} else {
   generalPath.reset();
}
generalPath.moveTo(246.23f, 120.99f);
generalPath.curveTo(216.84f, 121.13f, 195.03f, 122.409996f, 179.66f, 124.869995f);
generalPath.curveTo(164.42f, 127.38f, 156.39f, 130.89f, 155.20001f, 135.64f);
shape = generalPath;
g.setPaint(paint);
g.setStroke(stroke);
g.draw(shape);
g.setTransform(transformsStack.pop());
g.setComposite(AlphaComposite.getInstance(3, 1.0f * origAlpha));
transformsStack.push(g.getTransform());
g.transform(new AffineTransform(1.0f, 0.0f, 0.0f, 1.0f, 0.0f, 0.0f));
// _0_0_0_17
paint = new Color(0, 83, 153, 255);
stroke = new BasicStroke(2.7375f,0,0,4.0f,null,0.0f);
if (generalPath == null) {
   generalPath = new GeneralPath();
} else {
   generalPath.reset();
}
generalPath.moveTo(246.23f, 146.41f);
generalPath.curveTo(216.84f, 146.59f, 195.03f, 147.87001f, 179.66f, 150.33f);
generalPath.curveTo(164.42f, 152.84f, 156.39f, 156.35f, 155.20001f, 161.1f);
shape = generalPath;
g.setPaint(paint);
g.setStroke(stroke);
g.draw(shape);
g.setTransform(transformsStack.pop());
g.setComposite(AlphaComposite.getInstance(3, 1.0f * origAlpha));
transformsStack.push(g.getTransform());
g.transform(new AffineTransform(1.0f, 0.0f, 0.0f, 1.0f, 0.0f, 0.0f));
// _0_0_0_18
paint = new Color(0, 83, 153, 255);
stroke = new BasicStroke(2.7375f,0,0,4.0f,null,0.0f);
if (generalPath == null) {
   generalPath = new GeneralPath();
} else {
   generalPath.reset();
}
generalPath.moveTo(246.23f, 168.95f);
generalPath.curveTo(216.84f, 169.12999f, 195.03f, 170.41f, 179.66f, 172.87f);
generalPath.curveTo(164.42f, 175.34f, 156.39f, 178.84999f, 155.20001f, 183.64f);
shape = generalPath;
g.setPaint(paint);
g.setStroke(stroke);
g.draw(shape);
g.setTransform(transformsStack.pop());
g.setComposite(AlphaComposite.getInstance(3, 1.0f * origAlpha));
transformsStack.push(g.getTransform());
g.transform(new AffineTransform(1.0f, 0.0f, 0.0f, 1.0f, 0.0f, 0.0f));
// _0_0_0_19
paint = new Color(0, 83, 153, 255);
stroke = new BasicStroke(2.7375f,0,0,4.0f,null,0.0f);
if (generalPath == null) {
   generalPath = new GeneralPath();
} else {
   generalPath.reset();
}
generalPath.moveTo(246.23f, 194.41f);
generalPath.curveTo(216.84f, 194.59f, 195.03f, 195.87001f, 179.66f, 198.33f);
generalPath.curveTo(164.42f, 200.79001f, 156.39f, 204.31f, 155.20001f, 209.1f);
shape = generalPath;
g.setPaint(paint);
g.setStroke(stroke);
g.draw(shape);
g.setTransform(transformsStack.pop());
g.setComposite(AlphaComposite.getInstance(3, 1.0f * origAlpha));
transformsStack.push(g.getTransform());
g.transform(new AffineTransform(1.0f, 0.0f, 0.0f, 1.0f, 0.0f, 0.0f));
// _0_0_0_20
shape = new Rectangle2D.Double(255.58999633789062, 153.27999877929688, 21.992000579833984, 22.51799964904785);
paint = new Color(241, 233, 0, 255);
g.setPaint(paint);
g.fill(shape);
paint = new Color(126, 131, 135, 255);
stroke = new BasicStroke(1.8262f,0,0,4.0f,null,0.0f);
shape = new Rectangle2D.Double(255.58999633789062, 153.27999877929688, 21.992000579833984, 22.51799964904785);
g.setPaint(paint);
g.setStroke(stroke);
g.draw(shape);
g.setTransform(transformsStack.pop());
g.setComposite(AlphaComposite.getInstance(3, 1.0f * origAlpha));
transformsStack.push(g.getTransform());
g.transform(new AffineTransform(1.0f, 0.0f, 0.0f, 1.0f, 0.0f, 0.0f));
// _0_0_0_21
shape = new Rectangle2D.Double(270.0799865722656, 182.5399932861328, 21.992000579833984, 22.51799964904785);
paint = new Color(42, 25, 112, 255);
g.setPaint(paint);
g.fill(shape);
paint = new Color(126, 131, 135, 255);
stroke = new BasicStroke(1.8262f,0,0,4.0f,null,0.0f);
shape = new Rectangle2D.Double(270.0799865722656, 182.5399932861328, 21.992000579833984, 22.51799964904785);
g.setPaint(paint);
g.setStroke(stroke);
g.draw(shape);
g.setTransform(transformsStack.pop());
g.setComposite(AlphaComposite.getInstance(3, 1.0f * origAlpha));
transformsStack.push(g.getTransform());
g.transform(new AffineTransform(1.0f, 0.0f, 0.0f, 1.0f, 0.0f, 0.0f));
// _0_0_0_22
shape = new Rectangle2D.Double(280.8699951171875, 210.44000244140625, 21.992000579833984, 22.51799964904785);
paint = new Color(0, 135, 59, 255);
g.setPaint(paint);
g.fill(shape);
paint = new Color(126, 131, 135, 255);
stroke = new BasicStroke(1.8262f,0,0,4.0f,null,0.0f);
shape = new Rectangle2D.Double(280.8699951171875, 210.44000244140625, 21.992000579833984, 22.51799964904785);
g.setPaint(paint);
g.setStroke(stroke);
g.draw(shape);
g.setTransform(transformsStack.pop());
g.setComposite(AlphaComposite.getInstance(3, 1.0f * origAlpha));
transformsStack.push(g.getTransform());
g.transform(new AffineTransform(1.0f, 0.0f, 0.0f, 1.0f, 0.0f, 0.0f));
// _0_0_0_23
shape = new Rectangle2D.Double(-42.03900146484375, 81.80500030517578, 21.992000579833984, 22.51799964904785);
paint = new Color(231, 116, 112, 255);
g.setPaint(paint);
g.fill(shape);
paint = new Color(126, 131, 135, 255);
stroke = new BasicStroke(1.8262f,0,0,4.0f,null,0.0f);
shape = new Rectangle2D.Double(-42.03900146484375, 81.80500030517578, 21.992000579833984, 22.51799964904785);
g.setPaint(paint);
g.setStroke(stroke);
g.draw(shape);
g.setTransform(transformsStack.pop());
g.setComposite(AlphaComposite.getInstance(3, 1.0f * origAlpha));
transformsStack.push(g.getTransform());
g.transform(new AffineTransform(1.0f, 0.0f, 0.0f, 1.0f, 0.0f, 0.0f));
// _0_0_0_24
shape = new Rectangle2D.Double(-34.20600128173828, 93.55500030517578, 21.992000579833984, 22.51799964904785);
paint = new Color(228, 113, 157, 255);
g.setPaint(paint);
g.fill(shape);
paint = new Color(126, 131, 135, 255);
stroke = new BasicStroke(1.8262f,0,0,4.0f,null,0.0f);
shape = new Rectangle2D.Double(-34.20600128173828, 93.55500030517578, 21.992000579833984, 22.51799964904785);
g.setPaint(paint);
g.setStroke(stroke);
g.draw(shape);
g.setTransform(transformsStack.pop());
g.setComposite(AlphaComposite.getInstance(3, 1.0f * origAlpha));
transformsStack.push(g.getTransform());
g.transform(new AffineTransform(1.0f, 0.0f, 0.0f, 1.0f, 0.0f, 0.0f));
// _0_0_0_25
shape = new Rectangle2D.Double(-25.39299964904785, 108.23999786376953, 21.992000579833984, 22.51799964904785);
paint = new Color(108, 72, 141, 255);
g.setPaint(paint);
g.fill(shape);
paint = new Color(126, 131, 135, 255);
stroke = new BasicStroke(1.8262f,0,0,4.0f,null,0.0f);
shape = new Rectangle2D.Double(-25.39299964904785, 108.23999786376953, 21.992000579833984, 22.51799964904785);
g.setPaint(paint);
g.setStroke(stroke);
g.draw(shape);
g.setTransform(transformsStack.pop());
g.setComposite(AlphaComposite.getInstance(3, 1.0f * origAlpha));
transformsStack.push(g.getTransform());
g.transform(new AffineTransform(1.0f, 0.0f, 0.0f, 1.0f, 0.0f, 0.0f));
// _0_0_0_26
shape = new Rectangle2D.Double(-8.750399589538574, 121.94999694824219, 21.992000579833984, 22.51799964904785);
paint = new Color(255, 215, 95, 255);
g.setPaint(paint);
g.fill(shape);
paint = new Color(126, 131, 135, 255);
stroke = new BasicStroke(1.8262f,0,0,4.0f,null,0.0f);
shape = new Rectangle2D.Double(-8.750399589538574, 121.94999694824219, 21.992000579833984, 22.51799964904785);
g.setPaint(paint);
g.setStroke(stroke);
g.draw(shape);
g.setTransform(transformsStack.pop());
g.setComposite(AlphaComposite.getInstance(3, 1.0f * origAlpha));
transformsStack.push(g.getTransform());
g.transform(new AffineTransform(1.0f, 0.0f, 0.0f, 1.0f, 0.0f, 0.0f));
// _0_0_0_27
shape = new Rectangle2D.Double(287.7099914550781, 239.19000244140625, 21.992000579833984, 22.51799964904785);
paint = new Color(63, 173, 56, 255);
g.setPaint(paint);
g.fill(shape);
paint = new Color(126, 131, 135, 255);
stroke = new BasicStroke(1.8262f,0,0,4.0f,null,0.0f);
shape = new Rectangle2D.Double(287.7099914550781, 239.19000244140625, 21.992000579833984, 22.51799964904785);
g.setPaint(paint);
g.setStroke(stroke);
g.draw(shape);
g.setTransform(transformsStack.pop());
g.setTransform(transformsStack.pop());
g.setTransform(transformsStack.pop());
g.setTransform(transformsStack.pop());
g.setTransform(transformsStack.pop());

}



    @SuppressWarnings("unused")
	private void innerPaint(Graphics2D g) {
        float origAlpha = 1.0f;
        Composite origComposite = g.getComposite();
        if (origComposite instanceof AlphaComposite) {
            AlphaComposite origAlphaComposite = 
                (AlphaComposite)origComposite;
            if (origAlphaComposite.getRule() == AlphaComposite.SRC_OVER) {
                origAlpha = origAlphaComposite.getAlpha();
            }
        }
        
	    _paint0(g, origAlpha);


	    shape = null;
	    generalPath = null;
	    paint = null;
	    stroke = null;
	    clip = null;
        transformsStack.clear();
	}

    /**
     * Returns the X of the bounding box of the original SVG image.
     * 
     * @return The X of the bounding box of the original SVG image.
     */
    public static double getOrigX() {
        return 0.0;
    }

    /**
     * Returns the Y of the bounding box of the original SVG image.
     * 
     * @return The Y of the bounding box of the original SVG image.
     */
    public static double getOrigY() {
        return 0.0;
    }

	/**
	 * Returns the width of the bounding box of the original SVG image.
	 * 
	 * @return The width of the bounding box of the original SVG image.
	 */
	public static double getOrigWidth() {
		return 1.0;
	}

	/**
	 * Returns the height of the bounding box of the original SVG image.
	 * 
	 * @return The height of the bounding box of the original SVG image.
	 */
	public static double getOrigHeight() {
		return 1.0;
	}

	/** The current width of this resizable icon. */
	private int width;

    /** The current height of this resizable icon. */
	private int height;

	/**
	 * Creates a new transcoded SVG image. This is marked as private to indicate that app
	 * code should be using the {@link #of(int, int)} method to obtain a pre-configured instance.
	 */
	private browser_wipp_Address_Book() {
        this.width = (int) getOrigWidth();
        this.height = (int) getOrigHeight();
	}

    @Override
	public int getIconHeight() {
		return height;
	}

    @Override
	public int getIconWidth() {
		return width;
	}

	@Override
	public synchronized void setDimension(Dimension newDimension) {
		this.width = newDimension.width;
		this.height = newDimension.height;
	}

    @Override
	public synchronized void paintIcon(Component c, Graphics g, int x, int y) {
		Graphics2D g2d = (Graphics2D) g.create();
		g2d.setRenderingHint(RenderingHints.KEY_ANTIALIASING,
				RenderingHints.VALUE_ANTIALIAS_ON);
        g2d.setRenderingHint(RenderingHints.KEY_INTERPOLATION,
                RenderingHints.VALUE_INTERPOLATION_BICUBIC);
		g2d.translate(x, y);

        double coef1 = (double) this.width / getOrigWidth();
        double coef2 = (double) this.height / getOrigHeight();
        double coef = Math.min(coef1, coef2);
        g2d.clipRect(0, 0, this.width, this.height);
        g2d.scale(coef, coef);
        g2d.translate(-getOrigX(), -getOrigY());
        if (coef1 != coef2) {
            if (coef1 < coef2) {
               int extraDy = (int) ((getOrigWidth() - getOrigHeight()) / 2.0);
               g2d.translate(0, extraDy);
            } else {
               int extraDx = (int) ((getOrigHeight() - getOrigWidth()) / 2.0);
               g2d.translate(extraDx, 0);
            }
        }
        Graphics2D g2ForInner = (Graphics2D) g2d.create();
        innerPaint(g2ForInner);
        g2ForInner.dispose();
        g2d.dispose();
	}
    
    /**
     * Returns a new instance of this icon with specified dimensions.
     *
     * @param width Required width of the icon
     * @param height Required height of the icon
     * @return A new instance of this icon with specified dimensions.
     */
    public static ResizableIcon of(int width, int height) {
       browser_wipp_Address_Book base = new browser_wipp_Address_Book();
       base.width = width;
       base.height = height;
       return base;
    }

    /**
     * Returns a new {@link UIResource} instance of this icon with specified dimensions.
     *
     * @param width Required width of the icon
     * @param height Required height of the icon
     * @return A new {@link UIResource} instance of this icon with specified dimensions.
     */
    public static ResizableIconUIResource uiResourceOf(int width, int height) {
       browser_wipp_Address_Book base = new browser_wipp_Address_Book();
       base.width = width;
       base.height = height;
       return new ResizableIconUIResource(base);
    }

    /**
     * Returns a factory that returns instances of this icon on demand.
     *
     * @return Factory that returns instances of this icon on demand.
     */
    public static Factory factory() {
        return browser_wipp_Address_Book::new;
    }
}

