/*
 *     Orbit, a versatile image analysis software for biological image-based quantification.
 *     Copyright (C) 2009 - 2016 Actelion Pharmaceuticals Ltd., Gewerbestrasse 16, CH-4123 Allschwil, Switzerland.
 *
 *     This program is free software: you can redistribute it and/or modify
 *     it under the terms of the GNU General Public License as published by
 *     the Free Software Foundation, either version 3 of the License, or
 *     (at your option) any later version.
 *
 *     This program is distributed in the hope that it will be useful,
 *     but WITHOUT ANY WARRANTY; without even the implied warranty of
 *     MERCHANTABILITY or FITNESS FOR A PARTICULAR PURPOSE.  See the
 *     GNU General Public License for more details.
 *
 *     You should have received a copy of the GNU General Public License
 *     along with this program.  If not, see <http://www.gnu.org/licenses/>.
 *
 */

package com.actelion.research.orbit.imageAnalysis.components.icons;

import java.awt.*;
import java.awt.geom.AffineTransform;
import java.awt.geom.GeneralPath;
import java.awt.geom.RoundRectangle2D;

import static java.awt.Color.CYAN;
import static java.awt.Color.MAGENTA;

/**
 * This class has been automatically generated using
 * <a href="http://ebourg.github.io/flamingo-svg-transcoder/">Flamingo SVG transcoder</a>.
 */
public class RestoreShapes implements org.pushingpixels.flamingo.api.common.icon.ResizableIcon {

    /**
     * Paints the transcoded SVG image on the specified graphics context. You
     * can install a custom transformation on the graphics context to scale the
     * image.
     *
     * @param g Graphics context.
     */
    public static void paint(Graphics2D g) {
        Shape shape = null;

        float origAlpha = 1.0f;
        Composite origComposite = g.getComposite();
        if (origComposite instanceof AlphaComposite) {
            AlphaComposite origAlphaComposite = (AlphaComposite) origComposite;
            if (origAlphaComposite.getRule() == AlphaComposite.SRC_OVER) {
                origAlpha = origAlphaComposite.getAlpha();
            }
        }

        java.util.LinkedList<AffineTransform> transformations = new java.util.LinkedList<AffineTransform>();


        // 

        // _0
        transformations.offer(g.getTransform());
        g.transform(new AffineTransform(1, 0, 0, 1, -79.62865f, -236.8761f));

        // _0_0

        // _0_0_0
        shape = new RoundRectangle2D.Double(85.92674255371094, 241.936767578125, 60, 64, 2.2460999488830566, 2.224179983139038);
        g.setPaint(new Color(0xE6E6E6));
        g.setStroke(new BasicStroke(2, 1, 2, 4));
        g.draw(shape);

        // _0_0_1
        shape = new RoundRectangle2D.Double(138.42942810058594, 252.01304626464844, 60, 64, 2.2460999488830566, 2.224179983139038);
        g.draw(shape);

        // _0_0_2
        shape = new RoundRectangle2D.Double(107.13995361328125, 297.26788330078125, 60, 64, 2.2460999488830566, 2.224179983139038);
        g.draw(shape);

        // _0_0_3
        shape = new GeneralPath();
        ((GeneralPath) shape).moveTo(179.62865, 268.8761);
        ((GeneralPath) shape).curveTo(179.05794, 268.5849, 178.48721, 268.29367, 177.91649, 268.00247);
        ((GeneralPath) shape).curveTo(177.91649, 267.94354, 177.9692, 267.85205, 177.91649, 267.82568);
        ((GeneralPath) shape).curveTo(177.81108, 267.77298, 177.68079, 267.82568, 177.56294, 267.82568);
        ((GeneralPath) shape).curveTo(177.50401, 267.82568, 177.42783, 267.86737, 177.38615, 267.82568);
        ((GeneralPath) shape).curveTo(177.3445, 267.78403, 177.42783, 267.69058, 177.38615, 267.64893);
        ((GeneralPath) shape).curveTo(177.3445, 267.60724, 177.25105, 267.69058, 177.2094, 267.64893);
        ((GeneralPath) shape).curveTo(177.16772, 267.60724, 177.25105, 267.51382, 177.2094, 267.47214);
        ((GeneralPath) shape).curveTo(177.16772, 267.43048, 177.09154, 267.47214, 177.03261, 267.47214);
        ((GeneralPath) shape).curveTo(176.90965, 267.47214, 176.21265, 267.5041, 176.14873, 267.47214);
        ((GeneralPath) shape).curveTo(176.07419, 267.43488, 176.04648, 267.33264, 175.97195, 267.29535);
        ((GeneralPath) shape).curveTo(175.92548, 267.27213, 175.35728, 267.29535, 175.26485, 267.29535);
        ((GeneralPath) shape).curveTo(174.67558, 267.29535, 174.08633, 267.29535, 173.49709, 267.29535);
        ((GeneralPath) shape).curveTo(171.96501, 267.29535, 170.43295, 267.29535, 168.90088, 267.29535);
        ((GeneralPath) shape).curveTo(168.13486, 267.29535, 167.36882, 267.29535, 166.60278, 267.29535);
        ((GeneralPath) shape).curveTo(166.5599, 267.29535, 166.07814, 267.28967, 166.07245, 267.29535);
        ((GeneralPath) shape).curveTo(166.03079, 267.33704, 166.11412, 267.43048, 166.07245, 267.47214);
        ((GeneralPath) shape).curveTo(165.98912, 267.55548, 165.8307, 267.43488, 165.7189, 267.47214);
        ((GeneralPath) shape).curveTo(165.5939, 267.51382, 165.4832, 267.59, 165.36536, 267.64893);
        ((GeneralPath) shape).curveTo(165.18857, 267.64893, 165.00836, 267.61426, 164.83502, 267.64893);
        ((GeneralPath) shape).curveTo(164.70581, 267.67477, 164.60646, 267.78403, 164.48146, 267.82568);
        ((GeneralPath) shape).curveTo(164.2163, 267.9141, 164.30469, 267.64893, 163.95113, 267.82568);
        ((GeneralPath) shape).curveTo(163.89844, 267.85205, 163.9775, 267.94977, 163.95113, 268.00247);
        ((GeneralPath) shape).curveTo(163.91386, 268.077, 163.84369, 268.13303, 163.77435, 268.17926);
        ((GeneralPath) shape).curveTo(163.55508, 268.3254, 163.28651, 268.38663, 163.06725, 268.5328);
        ((GeneralPath) shape).curveTo(162.99791, 268.579, 162.95981, 268.66336, 162.89047, 268.7096);
        ((GeneralPath) shape).curveTo(162.78084, 268.78265, 162.6301, 268.79318, 162.53693, 268.88635);
        ((GeneralPath) shape).curveTo(162.49525, 268.928, 162.57858, 269.02145, 162.53693, 269.06314);
        ((GeneralPath) shape).curveTo(162.49525, 269.1048, 162.40181, 269.02145, 162.36014, 269.06314);
        ((GeneralPath) shape).curveTo(162.31848, 269.1048, 162.40181, 269.19824, 162.36014, 269.2399);
        ((GeneralPath) shape).curveTo(162.27681, 269.32324, 162.08992, 269.15656, 162.00659, 269.2399);
        ((GeneralPath) shape).curveTo(161.96492, 269.28156, 162.04826, 269.37503, 162.00659, 269.4167);
        ((GeneralPath) shape).curveTo(161.96492, 269.45834, 161.87148, 269.37503, 161.8298, 269.4167);
        ((GeneralPath) shape).curveTo(161.78815, 269.45834, 161.85617, 269.54077, 161.8298, 269.59344);
        ((GeneralPath) shape).curveTo(161.79256, 269.668, 161.71196, 269.7113, 161.65305, 269.77023);
        ((GeneralPath) shape).curveTo(161.59412, 269.82916, 161.53519, 269.8881, 161.47626, 269.94702);
        ((GeneralPath) shape).curveTo(161.24055, 270.1827, 160.97739, 270.39383, 160.76915, 270.6541);
        ((GeneralPath) shape).curveTo(160.63643, 270.82, 160.56583, 271.0342, 160.4156, 271.18445);
        ((GeneralPath) shape).curveTo(160.32243, 271.27762, 160.17168, 271.28815, 160.06206, 271.36124);
        ((GeneralPath) shape).curveTo(159.9927, 271.40744, 159.9442, 271.47906, 159.88527, 271.538);
        ((GeneralPath) shape).curveTo(159.82634, 271.59692, 159.75471, 271.64545, 159.7085, 271.71478);
        ((GeneralPath) shape).curveTo(159.6354, 271.8244, 159.6048, 271.9587, 159.53172, 272.06833);
        ((GeneralPath) shape).curveTo(159.48549, 272.13766, 159.40115, 272.17578, 159.35493, 272.24512);
        ((GeneralPath) shape).curveTo(159.13568, 272.574, 159.04388, 272.97687, 158.82462, 273.30576);
        ((GeneralPath) shape).curveTo(158.73216, 273.44446, 158.57106, 273.526, 158.47105, 273.65933);
        ((GeneralPath) shape).curveTo(158.392, 273.76474, 158.35321, 273.89502, 158.29428, 274.01288);
        ((GeneralPath) shape).curveTo(158.23535, 274.13074, 158.17644, 274.24857, 158.1175, 274.36642);
        ((GeneralPath) shape).curveTo(157.99965, 274.60214, 157.8818, 274.83783, 157.76395, 275.07355);
        ((GeneralPath) shape).curveTo(157.70502, 275.19138, 157.62885, 275.3021, 157.58717, 275.4271);
        ((GeneralPath) shape).curveTo(157.56854, 275.483, 157.61353, 275.55115, 157.58717, 275.60388);
        ((GeneralPath) shape).curveTo(157.54991, 275.6784, 157.44766, 275.70612, 157.4104, 275.78064);
        ((GeneralPath) shape).curveTo(157.38403, 275.83334, 157.43675, 275.90472, 157.4104, 275.95743);
        ((GeneralPath) shape).curveTo(157.37312, 276.03195, 157.25383, 276.05334, 157.23363, 276.1342);
        ((GeneralPath) shape).curveTo(157.23363, 276.31097, 157.23363, 276.48776, 157.23363, 276.66452);
        ((GeneralPath) shape).curveTo(157.17468, 276.66452, 157.0832, 276.61182, 157.05684, 276.66452);
        ((GeneralPath) shape).curveTo(157.00414, 276.76993, 157.05684, 276.90024, 157.05684, 277.01807);
        ((GeneralPath) shape).curveTo(157.05684, 277.077, 157.09851, 277.1532, 157.05684, 277.19485);
        ((GeneralPath) shape).curveTo(156.96367, 277.28802, 156.77638, 277.262, 156.7033, 277.37164);
        ((GeneralPath) shape).curveTo(156.63792, 277.4697, 156.74055, 277.61337, 156.7033, 277.7252);
        ((GeneralPath) shape).curveTo(156.67694, 277.80426, 156.55286, 277.8229, 156.5265, 277.90198);
        ((GeneralPath) shape).curveTo(156.49664, 277.99155, 156.5265, 278.9949, 156.5265, 279.1394);
        ((GeneralPath) shape).curveTo(156.5265, 279.19833, 156.55286, 279.26346, 156.5265, 279.3162);
        ((GeneralPath) shape).curveTo(156.48924, 279.39072, 156.37608, 279.4139, 156.34975, 279.49295);
        ((GeneralPath) shape).curveTo(156.31247, 279.60477, 156.34975, 279.72867, 156.34975, 279.8465);
        ((GeneralPath) shape).curveTo(156.34975, 280.259, 156.34975, 280.67148, 156.34975, 281.08395);
        ((GeneralPath) shape).curveTo(156.34975, 281.55536, 156.34975, 282.02676, 156.34975, 282.49817);
        ((GeneralPath) shape).curveTo(156.34975, 282.67493, 156.27068, 282.8704, 156.34975, 283.0285);
        ((GeneralPath) shape).curveTo(156.37608, 283.08118, 156.48485, 282.98682, 156.5265, 283.0285);
        ((GeneralPath) shape).curveTo(156.57883, 283.08078, 156.47176, 283.6261, 156.5265, 283.7356);
        ((GeneralPath) shape).curveTo(156.56378, 283.81012, 156.66602, 283.83783, 156.7033, 283.91238);
        ((GeneralPath) shape).curveTo(156.78662, 284.07904, 156.79672, 284.27603, 156.88007, 284.4427);
        ((GeneralPath) shape).curveTo(156.9546, 284.59177, 157.15907, 284.6472, 157.23363, 284.79626);
        ((GeneralPath) shape).curveTo(157.25996, 284.84897, 157.20093, 284.924, 157.23363, 284.97302);
        ((GeneralPath) shape).curveTo(157.32607, 285.11172, 157.48048, 285.19855, 157.58717, 285.3266);
        ((GeneralPath) shape).curveTo(157.77579, 285.55292, 157.90916, 285.82535, 158.1175, 286.0337);
        ((GeneralPath) shape).curveTo(158.26773, 286.18393, 158.4976, 286.237, 158.64783, 286.38724);
        ((GeneralPath) shape).curveTo(158.741, 286.4804, 158.73145, 286.64764, 158.82462, 286.7408);
        ((GeneralPath) shape).curveTo(158.91779, 286.83398, 159.07275, 286.83853, 159.17816, 286.91757);
        ((GeneralPath) shape).curveTo(159.3115, 287.01758, 159.41386, 287.1533, 159.53172, 287.27112);
        ((GeneralPath) shape).curveTo(159.64957, 287.38898, 159.76743, 287.50684, 159.88527, 287.6247);
        ((GeneralPath) shape).curveTo(159.9442, 287.68362, 159.9927, 287.75525, 160.06206, 287.80145);
        ((GeneralPath) shape).curveTo(160.17168, 287.87454, 160.29774, 287.9193, 160.4156, 287.97824);
        ((GeneralPath) shape).curveTo(160.53345, 288.03717, 160.64682, 288.10608, 160.76915, 288.155);
        ((GeneralPath) shape).curveTo(160.94215, 288.2242, 161.1377, 288.23935, 161.29948, 288.3318);
        ((GeneralPath) shape).curveTo(161.55528, 288.47797, 161.76144, 288.6987, 162.00659, 288.86212);
        ((GeneralPath) shape).curveTo(162.12444, 288.92105, 162.2423, 288.97998, 162.36014, 289.0389);
        ((GeneralPath) shape).curveTo(162.478, 289.0389, 162.60829, 288.98618, 162.7137, 289.0389);
        ((GeneralPath) shape).curveTo(162.86276, 289.11343, 162.92857, 289.3, 163.06725, 289.39246);
        ((GeneralPath) shape).curveTo(163.11629, 289.42514, 163.18813, 289.3738, 163.24403, 289.39246);
        ((GeneralPath) shape).curveTo(163.36903, 289.4341, 163.4846, 289.50143, 163.59758, 289.56924);
        ((GeneralPath) shape).curveTo(163.77975, 289.67853, 163.93788, 289.82776, 164.12791, 289.9228);
        ((GeneralPath) shape).curveTo(164.94177, 290.3297, 164.36201, 289.93427, 165.18857, 290.09955);
        ((GeneralPath) shape).curveTo(165.31776, 290.1254, 165.41544, 290.24014, 165.54211, 290.27634);
        ((GeneralPath) shape).curveTo(168.07521, 290.78296, 164.93745, 290.07477, 167.1331, 290.80667);
        ((GeneralPath) shape).curveTo(167.2965, 290.86115, 167.8521, 290.7517, 168.017, 290.80667);
        ((GeneralPath) shape).curveTo(168.142, 290.84833, 168.24554, 290.94177, 168.37054, 290.98343);
        ((GeneralPath) shape).curveTo(168.42645, 291.00208, 168.4884, 290.98343, 168.54733, 290.98343);
        ((GeneralPath) shape).curveTo(168.66518, 290.98343, 168.78908, 290.94617, 168.90088, 290.98343);
        ((GeneralPath) shape).curveTo(168.97993, 291.0098, 168.99594, 291.14386, 169.07767, 291.16022);
        ((GeneralPath) shape).curveTo(169.30878, 291.20645, 169.54906, 291.16022, 169.78476, 291.16022);
        ((GeneralPath) shape).curveTo(170.3151, 291.16022, 170.84543, 291.16022, 171.37576, 291.16022);
        ((GeneralPath) shape).curveTo(171.55254, 291.16022, 171.73274, 291.12555, 171.9061, 291.16022);
        ((GeneralPath) shape).curveTo(172.14432, 291.20786, 172.37958, 291.27026, 172.61319, 291.33698);
        ((GeneralPath) shape).curveTo(172.79236, 291.38818, 172.95906, 291.48743, 173.14352, 291.51376);
        ((GeneralPath) shape).curveTo(173.37686, 291.5471, 173.61493, 291.51376, 173.85063, 291.51376);
        ((GeneralPath) shape).curveTo(174.14526, 291.51376, 174.43988, 291.51376, 174.73451, 291.51376);
        ((GeneralPath) shape).curveTo(175.67732, 291.51376, 176.62013, 291.51376, 177.56294, 291.51376);
        ((GeneralPath) shape).curveTo(178.50575, 291.51376, 179.44856, 291.51376, 180.39137, 291.51376);
        ((GeneralPath) shape).curveTo(180.54535, 291.51376, 181.38678, 291.5464, 181.45203, 291.51376);
        ((GeneralPath) shape).curveTo(181.52657, 291.4765, 181.54974, 291.36334, 181.6288, 291.33698);
        ((GeneralPath) shape).curveTo(181.70934, 291.31015, 182.74652, 291.33698, 182.86624, 291.33698);
        ((GeneralPath) shape).curveTo(182.92517, 291.33698, 182.98712, 291.35562, 183.04301, 291.33698);
        ((GeneralPath) shape).curveTo(183.16801, 291.29532, 183.27872, 291.21915, 183.39658, 291.16022);
        ((GeneralPath) shape).curveTo(183.51442, 291.1013, 183.63715, 291.05124, 183.75012, 290.98343);
        ((GeneralPath) shape).curveTo(183.93231, 290.8741, 184.09042, 290.7249, 184.28046, 290.62988);
        ((GeneralPath) shape).curveTo(184.44711, 290.54654, 184.64412, 290.53644, 184.81078, 290.45312);
        ((GeneralPath) shape).curveTo(185.31041, 290.2033, 185.66199, 289.7787, 186.04822, 289.39246);
        ((GeneralPath) shape).curveTo(186.225, 289.21567, 186.44994, 289.07648, 186.57855, 288.86212);
        ((GeneralPath) shape).curveTo(186.67442, 288.70233, 186.672, 288.49847, 186.75533, 288.3318);
        ((GeneralPath) shape).curveTo(186.85034, 288.14175, 186.98141, 287.97144, 187.10889, 287.80145);
        ((GeneralPath) shape).curveTo(187.2926, 287.5565, 187.38472, 287.65973, 187.46243, 287.27112);
        ((GeneralPath) shape).curveTo(187.4971, 287.09778, 187.43336, 286.91516, 187.46243, 286.7408);
        ((GeneralPath) shape).curveTo(187.5237, 286.3732, 187.7429, 286.0456, 187.816, 285.68015);
        ((GeneralPath) shape).curveTo(187.8391, 285.56458, 187.816, 285.44443, 187.816, 285.3266);
        ((GeneralPath) shape).curveTo(187.816, 285.09088, 187.816, 284.8552, 187.816, 284.61948);
        ((GeneralPath) shape).curveTo(187.816, 283.91238, 187.816, 283.20526, 187.816, 282.49817);
        ((GeneralPath) shape).curveTo(187.816, 281.73212, 187.816, 280.9661, 187.816, 280.20007);
        ((GeneralPath) shape).curveTo(187.816, 280.06412, 187.85687, 279.30292, 187.816, 279.1394);
        ((GeneralPath) shape).curveTo(187.77078, 278.95862, 187.6904, 278.78824, 187.6392, 278.60907);
        ((GeneralPath) shape).curveTo(187.57246, 278.37546, 187.54774, 278.12946, 187.46243, 277.90198);
        ((GeneralPath) shape).curveTo(187.3699, 277.6552, 187.21269, 277.43707, 187.10889, 277.19485);
        ((GeneralPath) shape).curveTo(186.96208, 276.8523, 186.87318, 276.48776, 186.75533, 276.1342);
        ((GeneralPath) shape).curveTo(186.6964, 275.95743, 186.66188, 275.77054, 186.57855, 275.60388);
        ((GeneralPath) shape).curveTo(186.48354, 275.41385, 186.3343, 275.2557, 186.225, 275.07355);
        ((GeneralPath) shape).curveTo(185.40962, 273.71457, 186.9978, 276.14438, 185.69467, 274.18967);
        ((GeneralPath) shape).curveTo(185.57681, 274.01288, 185.45042, 273.84152, 185.34111, 273.65933);
        ((GeneralPath) shape).curveTo(185.27332, 273.54633, 185.2575, 273.39893, 185.16434, 273.30576);
        ((GeneralPath) shape).curveTo(185.07117, 273.2126, 184.90395, 273.22217, 184.81078, 273.129);
        ((GeneralPath) shape).curveTo(184.12086, 272.4391, 184.8517, 273.03406, 184.634, 272.59866);
        ((GeneralPath) shape).curveTo(184.59674, 272.52414, 184.50346, 272.4912, 184.45723, 272.42188);
        ((GeneralPath) shape).curveTo(184.38414, 272.31226, 184.37363, 272.1615, 184.28046, 272.06833);
        ((GeneralPath) shape).curveTo(184.13022, 271.9181, 183.90036, 271.86502, 183.75012, 271.71478);
        ((GeneralPath) shape).curveTo(183.70847, 271.6731, 183.77647, 271.5907, 183.75012, 271.538);
        ((GeneralPath) shape).curveTo(183.71286, 271.46347, 183.61063, 271.43576, 183.57335, 271.36124);
        ((GeneralPath) shape).curveTo(183.547, 271.30853, 183.615, 271.22614, 183.57335, 271.18445);
        ((GeneralPath) shape).curveTo(183.53168, 271.1428, 183.43823, 271.22614, 183.39658, 271.18445);
        ((GeneralPath) shape).curveTo(183.3549, 271.1428, 183.43823, 271.04935, 183.39658, 271.00766);
        ((GeneralPath) shape).curveTo(183.3549, 270.966, 183.26146, 271.04935, 183.21979, 271.00766);
        ((GeneralPath) shape).curveTo(183.17813, 270.966, 183.26146, 270.87256, 183.21979, 270.8309);
        ((GeneralPath) shape).curveTo(183.17813, 270.7892, 183.09572, 270.85724, 183.04301, 270.8309);
        ((GeneralPath) shape).curveTo(182.96848, 270.79364, 182.93558, 270.70035, 182.86624, 270.6541);
        ((GeneralPath) shape).curveTo(182.7566, 270.58102, 182.62231, 270.5504, 182.5127, 270.47733);
        ((GeneralPath) shape).curveTo(182.37401, 270.3849, 182.30821, 270.19833, 182.15913, 270.12378);
        ((GeneralPath) shape).curveTo(182.10643, 270.09744, 182.03506, 270.15015, 181.98236, 270.12378);
        ((GeneralPath) shape).curveTo(181.90782, 270.08652, 181.88013, 269.98428, 181.80557, 269.94702);
        ((GeneralPath) shape).curveTo(181.75288, 269.92065, 181.6815, 269.97336, 181.6288, 269.94702);
        ((GeneralPath) shape).curveTo(181.55428, 269.90976, 181.52657, 269.8075, 181.45203, 269.77023);
        ((GeneralPath) shape).curveTo(181.34662, 269.71753, 181.20387, 269.82294, 181.09846, 269.77023);
        ((GeneralPath) shape).curveTo(180.36276, 269.4024, 181.28745, 269.78244, 180.9217, 269.4167);
        ((GeneralPath) shape).curveTo(180.83836, 269.33334, 180.56815, 269.53452, 180.56815, 269.4167);
        ((GeneralPath) shape).curveTo(180.56815, 269.35776, 180.686, 269.4167, 180.74492, 269.4167);
        ((GeneralPath) shape).curveTo(180.37283, 269.23648, 180.00073, 269.0563, 179.62865, 268.8761);

        g.setPaint(MAGENTA);
        g.setStroke(new BasicStroke(1, 0, 0, 4));
        g.draw(shape);

        // _0_0_4
        shape = new GeneralPath();
        ((GeneralPath) shape).moveTo(131.62865, 316.8761);
        ((GeneralPath) shape).curveTo(131.03018, 317.08405, 130.35188, 317.13605, 129.83324, 317.49994);
        ((GeneralPath) shape).curveTo(129.68044, 317.60715, 129.33385, 318.84335, 129.3029, 319.09094);
        ((GeneralPath) shape).curveTo(129.27367, 319.32483, 129.36765, 319.5714, 129.3029, 319.79803);
        ((GeneralPath) shape).curveTo(129.24454, 320.00232, 129.04436, 320.13834, 128.94936, 320.32837);
        ((GeneralPath) shape).curveTo(128.86601, 320.49503, 128.8559, 320.69205, 128.77257, 320.8587);
        ((GeneralPath) shape).curveTo(128.67757, 321.04874, 128.4862, 321.18747, 128.41902, 321.38904);
        ((GeneralPath) shape).curveTo(128.36311, 321.55673, 128.45369, 321.74603, 128.41902, 321.91937);
        ((GeneralPath) shape).curveTo(128.35846, 322.22217, 127.7668, 322.87024, 127.71191, 322.98);
        ((GeneralPath) shape).curveTo(127.60326, 323.19733, 127.65312, 323.47476, 127.53513, 323.68713);
        ((GeneralPath) shape).curveTo(127.3519, 324.01697, 127.05441, 324.26917, 126.82803, 324.571);
        ((GeneralPath) shape).curveTo(126.70055, 324.74097, 126.59796, 324.92847, 126.47447, 325.10135);
        ((GeneralPath) shape).curveTo(126.30323, 325.3411, 126.11539, 325.5687, 125.94414, 325.80844);
        ((GeneralPath) shape).curveTo(125.82065, 325.98132, 125.70844, 326.162, 125.59059, 326.33878);
        ((GeneralPath) shape).curveTo(125.47274, 326.51556, 125.33205, 326.67908, 125.23704, 326.8691);
        ((GeneralPath) shape).curveTo(125.1537, 327.03577, 125.14359, 327.23276, 125.06026, 327.39944);
        ((GeneralPath) shape).curveTo(124.99824, 327.52347, 124.36335, 328.57993, 124.17638, 328.81366);
        ((GeneralPath) shape).curveTo(124.07226, 328.9438, 123.92694, 329.03705, 123.82282, 329.1672);
        ((GeneralPath) shape).curveTo(122.70939, 330.559, 124.32549, 328.71097, 123.11572, 330.40463);
        ((GeneralPath) shape).curveTo(122.97041, 330.6081, 122.72406, 330.72696, 122.58539, 330.93497);
        ((GeneralPath) shape).curveTo(122.48202, 331.09003, 122.50448, 331.3055, 122.40861, 331.4653);
        ((GeneralPath) shape).curveTo(122.32286, 331.60822, 122.14751, 331.68018, 122.05506, 331.81885);
        ((GeneralPath) shape).curveTo(121.31936, 332.92242, 121.99613, 332.1135, 121.52473, 333.0563);
        ((GeneralPath) shape).curveTo(121.38953, 333.3267, 120.97053, 333.91144, 120.81762, 334.29373);
        ((GeneralPath) shape).curveTo(120.74842, 334.46674, 120.72418, 334.65738, 120.64084, 334.82407);
        ((GeneralPath) shape).curveTo(120.60358, 334.8986, 120.49042, 334.92178, 120.46407, 335.00085);
        ((GeneralPath) shape).curveTo(120.4268, 335.11264, 120.51677, 335.249, 120.46407, 335.3544);
        ((GeneralPath) shape).curveTo(120.43771, 335.4071, 120.31364, 335.3017, 120.28729, 335.3544);
        ((GeneralPath) shape).curveTo(120.23459, 335.4598, 120.31587, 335.5936, 120.28729, 335.70795);
        ((GeneralPath) shape).curveTo(120.15912, 336.22064, 120.14937, 335.91483, 119.93374, 336.23828);
        ((GeneralPath) shape).curveTo(119.86065, 336.3479, 119.80886, 336.47073, 119.75696, 336.59183);
        ((GeneralPath) shape).curveTo(119.63911, 336.88647, 119.52126, 337.1811, 119.40341, 337.4757);
        ((GeneralPath) shape).curveTo(119.34448, 337.53464, 119.2639, 337.57794, 119.22663, 337.6525);
        ((GeneralPath) shape).curveTo(119.08472, 337.9363, 119.03051, 338.26086, 118.87308, 338.53638);
        ((GeneralPath) shape).curveTo(118.7077, 338.82578, 118.33747, 338.95764, 118.16597, 339.24347);
        ((GeneralPath) shape).curveTo(118.0701, 339.40326, 118.07253, 339.60715, 117.98919, 339.7738);
        ((GeneralPath) shape).curveTo(117.83108, 340.09003, 117.26546, 340.77103, 117.10531, 341.01126);
        ((GeneralPath) shape).curveTo(116.83008, 341.4241, 116.67343, 342.01263, 116.3982, 342.42545);
        ((GeneralPath) shape).curveTo(116.23477, 342.6706, 116.01405, 342.87677, 115.86787, 343.13257);
        ((GeneralPath) shape).curveTo(115.68297, 343.45615, 115.70606, 343.87366, 115.51432, 344.19324);
        ((GeneralPath) shape).curveTo(115.34282, 344.47906, 115.00721, 344.63367, 114.80721, 344.90033);
        ((GeneralPath) shape).curveTo(114.72816, 345.00574, 114.6721, 345.12888, 114.63044, 345.25388);
        ((GeneralPath) shape).curveTo(114.59317, 345.3657, 114.71377, 345.5241, 114.63044, 345.60745);
        ((GeneralPath) shape).curveTo(114.58877, 345.6491, 114.49533, 345.56577, 114.45366, 345.60745);
        ((GeneralPath) shape).curveTo(114.41199, 345.6491, 114.48001, 345.7315, 114.45366, 345.7842);
        ((GeneralPath) shape).curveTo(114.41639, 345.85876, 114.31415, 345.88647, 114.27688, 345.961);
        ((GeneralPath) shape).curveTo(114.20617, 346.10242, 114.34759, 346.3499, 114.27688, 346.49133);
        ((GeneralPath) shape).curveTo(114.23961, 346.56586, 114.12646, 346.58905, 114.10011, 346.6681);
        ((GeneralPath) shape).curveTo(114.06284, 346.7799, 114.15281, 346.91623, 114.10011, 347.02164);
        ((GeneralPath) shape).curveTo(114.07375, 347.07437, 113.92333, 347.08057, 113.92333, 347.02164);
        ((GeneralPath) shape).curveTo(113.92333, 346.96274, 114.10011, 346.96274, 114.10011, 347.02164);
        ((GeneralPath) shape).curveTo(114.10011, 347.10498, 113.9606, 347.1239, 113.92333, 347.19843);
        ((GeneralPath) shape).curveTo(113.9052, 347.23468, 113.8984, 347.70383, 113.92333, 347.72876);
        ((GeneralPath) shape).curveTo(113.965, 347.77042, 114.0474, 347.70242, 114.10011, 347.72876);
        ((GeneralPath) shape).curveTo(114.17464, 347.76602, 114.20754, 347.8593, 114.27688, 347.90555);
        ((GeneralPath) shape).curveTo(114.38652, 347.97864, 114.51259, 348.02338, 114.63044, 348.0823);
        ((GeneralPath) shape).curveTo(114.74829, 348.14124, 114.85899, 348.2174, 114.98399, 348.2591);
        ((GeneralPath) shape).curveTo(115.03989, 348.2777, 115.10486, 348.24045, 115.16077, 348.2591);
        ((GeneralPath) shape).curveTo(115.28577, 348.30075, 115.39198, 348.38693, 115.51432, 348.43588);
        ((GeneralPath) shape).curveTo(115.68733, 348.50507, 115.87164, 348.54343, 116.04465, 348.61264);
        ((GeneralPath) shape).curveTo(116.28932, 348.7105, 116.4961, 348.90228, 116.75176, 348.9662);
        ((GeneralPath) shape).curveTo(116.88619, 348.99982, 117.48761, 348.9662, 117.63564, 348.9662);
        ((GeneralPath) shape).curveTo(117.69456, 348.9662, 117.75349, 348.9662, 117.81242, 348.9662);
        ((GeneralPath) shape).curveTo(117.87134, 348.9662, 117.93649, 348.93985, 117.98919, 348.9662);
        ((GeneralPath) shape).curveTo(118.06373, 349.00348, 118.0886, 349.11203, 118.16597, 349.14297);
        ((GeneralPath) shape).curveTo(118.8407, 349.41287, 119.5792, 349.31976, 120.28729, 349.31976);
        ((GeneralPath) shape).curveTo(120.52299, 349.31976, 120.76106, 349.2864, 120.9944, 349.31976);
        ((GeneralPath) shape).curveTo(121.17886, 349.3461, 121.34795, 349.4376, 121.52473, 349.49652);
        ((GeneralPath) shape).curveTo(121.81936, 349.55545, 122.10964, 349.6434, 122.40861, 349.6733);
        ((GeneralPath) shape).curveTo(122.85376, 349.71783, 123.36358, 349.6733, 123.82282, 349.6733);
        ((GeneralPath) shape).curveTo(123.94068, 349.6733, 124.06013, 349.65393, 124.17638, 349.6733);
        ((GeneralPath) shape).curveTo(124.41603, 349.71326, 124.64383, 349.81015, 124.88348, 349.85007);
        ((GeneralPath) shape).curveTo(124.99973, 349.86945, 125.1227, 349.8215, 125.23704, 349.85007);
        ((GeneralPath) shape).curveTo(125.36486, 349.88205, 125.46559, 349.9852, 125.59059, 350.02686);
        ((GeneralPath) shape).curveTo(126.05157, 350.1805, 126.53759, 350.24692, 127.0048, 350.3804);
        ((GeneralPath) shape).curveTo(128.08751, 350.68976, 127.11601, 350.567, 128.94936, 350.91074);
        ((GeneralPath) shape).curveTo(130.66676, 351.23276, 129.89452, 350.92606, 131.24744, 351.26428);
        ((GeneralPath) shape).curveTo(131.8345, 351.41107, 131.82356, 351.5352, 132.48488, 351.61786);
        ((GeneralPath) shape).curveTo(132.71877, 351.6471, 132.95628, 351.61786, 133.19199, 351.61786);
        ((GeneralPath) shape).curveTo(133.25092, 351.61786, 133.31287, 351.5992, 133.36877, 351.61786);
        ((GeneralPath) shape).curveTo(133.49377, 351.65952, 133.59563, 351.75842, 133.72232, 351.79462);
        ((GeneralPath) shape).curveTo(136.50922, 352.352, 133.55959, 351.68146, 134.95976, 352.1482);
        ((GeneralPath) shape).curveTo(135.07156, 352.18546, 135.2015, 352.1109, 135.31331, 352.1482);
        ((GeneralPath) shape).curveTo(135.56331, 352.2315, 135.76476, 352.4378, 136.02042, 352.50174);
        ((GeneralPath) shape).curveTo(136.36813, 352.58865, 136.72752, 352.61957, 137.08109, 352.6785);
        ((GeneralPath) shape).curveTo(138.43811, 352.9047, 137.79027, 352.785, 139.02562, 353.03207);
        ((GeneralPath) shape).curveTo(139.32025, 353.091, 139.6206, 353.12628, 139.9095, 353.20883);
        ((GeneralPath) shape).curveTo(140.0362, 353.24503, 140.13635, 353.34943, 140.26306, 353.38562);
        ((GeneralPath) shape).curveTo(141.1844, 353.64886, 142.16174, 353.6835, 143.09148, 353.91595);
        ((GeneralPath) shape).curveTo(143.50766, 354.02, 143.91505, 354.15662, 144.32892, 354.2695);
        ((GeneralPath) shape).curveTo(144.56332, 354.33344, 144.79552, 354.41193, 145.03603, 354.44626);
        ((GeneralPath) shape).curveTo(145.38603, 354.49628, 145.74794, 354.38815, 146.0967, 354.44626);
        ((GeneralPath) shape).curveTo(146.28049, 354.4769, 146.44785, 354.57187, 146.62701, 354.62305);
        ((GeneralPath) shape).curveTo(146.86063, 354.6898, 147.0951, 354.75638, 147.33412, 354.79984);
        ((GeneralPath) shape).curveTo(147.74406, 354.87436, 148.15633, 354.942, 148.57156, 354.9766);
        ((GeneralPath) shape).curveTo(148.98262, 355.01086, 149.39651, 354.9766, 149.809, 354.9766);
        ((GeneralPath) shape).curveTo(150.16255, 354.9766, 150.5161, 354.9766, 150.86966, 354.9766);
        ((GeneralPath) shape).curveTo(151.04643, 354.9766, 151.2232, 354.9766, 151.4, 354.9766);
        ((GeneralPath) shape).curveTo(151.45891, 354.9766, 151.52406, 354.95026, 151.57677, 354.9766);
        ((GeneralPath) shape).curveTo(152.27841, 355.32742, 150.79547, 355.03247, 152.28387, 355.33017);
        ((GeneralPath) shape).curveTo(152.39943, 355.35327, 152.51958, 355.33017, 152.63744, 355.33017);
        ((GeneralPath) shape).curveTo(152.69635, 355.33017, 152.7615, 355.3038, 152.8142, 355.33017);
        ((GeneralPath) shape).curveTo(152.88873, 355.36743, 152.91644, 355.46967, 152.99098, 355.50693);
        ((GeneralPath) shape).curveTo(153.0306, 355.52676, 153.65608, 355.50693, 153.69809, 355.50693);
        ((GeneralPath) shape).curveTo(154.11057, 355.50693, 154.52304, 355.50693, 154.93552, 355.50693);
        ((GeneralPath) shape).curveTo(155.23015, 355.50693, 155.52478, 355.50693, 155.81941, 355.50693);
        ((GeneralPath) shape).curveTo(155.87833, 355.50693, 155.95451, 355.5486, 155.99619, 355.50693);
        ((GeneralPath) shape).curveTo(156.03786, 355.46527, 155.96983, 355.38287, 155.99619, 355.33017);
        ((GeneralPath) shape).curveTo(156.03345, 355.2556, 156.1466, 355.23245, 156.17296, 355.15338);
        ((GeneralPath) shape).curveTo(156.2475, 354.92978, 156.06755, 354.6571, 156.17296, 354.44626);
        ((GeneralPath) shape).curveTo(156.19931, 354.3936, 156.30807, 354.48795, 156.34975, 354.44626);
        ((GeneralPath) shape).curveTo(156.38588, 354.41013, 156.3147, 353.98605, 156.34975, 353.91595);
        ((GeneralPath) shape).curveTo(156.387, 353.8414, 156.46759, 353.7981, 156.5265, 353.73917);
        ((GeneralPath) shape).curveTo(156.5265, 353.6213, 156.48924, 353.4974, 156.5265, 353.38562);
        ((GeneralPath) shape).curveTo(156.55286, 353.30655, 156.67694, 353.2879, 156.7033, 353.20883);
        ((GeneralPath) shape).curveTo(156.74055, 353.09702, 156.7033, 352.97314, 156.7033, 352.8553);
        ((GeneralPath) shape).curveTo(156.7033, 352.79636, 156.67694, 352.7312, 156.7033, 352.6785);
        ((GeneralPath) shape).curveTo(156.74055, 352.60397, 156.85371, 352.58078, 156.88007, 352.50174);
        ((GeneralPath) shape).curveTo(156.93452, 352.33835, 156.8251, 351.78275, 156.88007, 351.61786);
        ((GeneralPath) shape).curveTo(156.92172, 351.49286, 157.01518, 351.38928, 157.05684, 351.26428);
        ((GeneralPath) shape).curveTo(157.07549, 351.2084, 157.03821, 351.14343, 157.05684, 351.08752);
        ((GeneralPath) shape).curveTo(157.09851, 350.96252, 157.20166, 350.8618, 157.23363, 350.73395);
        ((GeneralPath) shape).curveTo(157.2622, 350.61963, 157.23363, 350.49826, 157.23363, 350.3804);
        ((GeneralPath) shape).curveTo(157.23363, 350.1447, 157.23363, 349.909, 157.23363, 349.6733);
        ((GeneralPath) shape).curveTo(157.23363, 349.61438, 157.215, 349.55243, 157.23363, 349.49652);
        ((GeneralPath) shape).curveTo(157.27528, 349.37152, 157.36873, 349.26797, 157.4104, 349.14297);
        ((GeneralPath) shape).curveTo(157.42903, 349.08707, 157.39175, 349.0221, 157.4104, 348.9662);
        ((GeneralPath) shape).curveTo(157.45206, 348.8412, 157.56854, 348.74307, 157.58717, 348.61264);
        ((GeneralPath) shape).curveTo(157.64658, 348.1968, 157.58717, 347.64694, 157.58717, 347.19843);
        ((GeneralPath) shape).curveTo(157.58717, 347.08057, 157.5586, 346.9592, 157.58717, 346.84488);
        ((GeneralPath) shape).curveTo(157.91106, 345.54932, 157.70906, 348.1558, 157.94073, 345.60745);
        ((GeneralPath) shape).curveTo(157.97273, 345.25534, 157.94073, 344.90033, 157.94073, 344.54678);
        ((GeneralPath) shape).curveTo(157.94073, 344.07538, 157.94073, 343.60397, 157.94073, 343.13257);
        ((GeneralPath) shape).curveTo(157.94073, 343.0338, 157.90594, 342.353, 157.94073, 342.2487);
        ((GeneralPath) shape).curveTo(157.98239, 342.1237, 158.09166, 342.02432, 158.1175, 341.89514);
        ((GeneralPath) shape).curveTo(158.15218, 341.7218, 158.1175, 341.54156, 158.1175, 341.3648);
        ((GeneralPath) shape).curveTo(158.1175, 341.07016, 158.1175, 340.77554, 158.1175, 340.48093);
        ((GeneralPath) shape).curveTo(158.1175, 340.36307, 158.08891, 340.2417, 158.1175, 340.12735);
        ((GeneralPath) shape).curveTo(158.14946, 339.99954, 158.25809, 339.9005, 158.29428, 339.7738);
        ((GeneralPath) shape).curveTo(158.42068, 339.33142, 158.56561, 338.24036, 158.64783, 337.82928);
        ((GeneralPath) shape).curveTo(158.69548, 337.59103, 158.75786, 337.35577, 158.82462, 337.12216);
        ((GeneralPath) shape).curveTo(158.8758, 336.943, 158.96484, 336.77454, 159.00139, 336.59183);
        ((GeneralPath) shape).curveTo(159.02727, 336.4625, 158.9552, 335.60043, 159.00139, 335.53116);
        ((GeneralPath) shape).curveTo(159.09384, 335.3925, 159.2804, 335.3267, 159.35493, 335.1776);
        ((GeneralPath) shape).curveTo(159.4636, 334.9603, 159.46497, 334.70413, 159.53172, 334.47052);
        ((GeneralPath) shape).curveTo(159.58292, 334.29135, 159.67195, 334.1229, 159.7085, 333.9402);
        ((GeneralPath) shape).curveTo(159.74213, 333.772, 159.66501, 332.9665, 159.7085, 332.87952);
        ((GeneralPath) shape).curveTo(159.74576, 332.805, 159.85892, 332.7818, 159.88527, 332.70273);
        ((GeneralPath) shape).curveTo(159.92255, 332.59094, 159.85669, 332.46353, 159.88527, 332.34918);
        ((GeneralPath) shape).curveTo(160.11475, 331.43127, 160.06206, 332.5379, 160.06206, 331.6421);
        ((GeneralPath) shape).curveTo(160.06206, 331.176, 160.04776, 331.71353, 160.23882, 330.7582);
        ((GeneralPath) shape).curveTo(160.25038, 330.7004, 160.21246, 330.63412, 160.23882, 330.58142);
        ((GeneralPath) shape).curveTo(160.2761, 330.50687, 160.37833, 330.4792, 160.4156, 330.40463);
        ((GeneralPath) shape).curveTo(160.46822, 330.2994, 160.366, 329.6696, 160.4156, 329.52075);
        ((GeneralPath) shape).curveTo(160.45728, 329.39575, 160.56042, 329.29504, 160.59238, 329.1672);
        ((GeneralPath) shape).curveTo(160.62096, 329.0529, 160.55511, 328.92545, 160.59238, 328.81366);
        ((GeneralPath) shape).curveTo(160.61873, 328.7346, 160.74895, 328.7177, 160.76915, 328.63687);
        ((GeneralPath) shape).curveTo(160.81447, 328.45563, 160.70721, 327.76205, 160.76915, 327.57623);
        ((GeneralPath) shape).curveTo(160.79552, 327.49716, 160.90866, 327.47397, 160.94592, 327.39944);
        ((GeneralPath) shape).curveTo(160.96878, 327.35373, 160.94592, 326.46408, 160.94592, 326.33878);
        ((GeneralPath) shape).curveTo(160.94592, 326.27985, 160.9876, 326.20367, 160.94592, 326.162);
        ((GeneralPath) shape).curveTo(160.85275, 326.06882, 160.70201, 326.05832, 160.59238, 325.98523);
        ((GeneralPath) shape).curveTo(160.52304, 325.939, 160.49014, 325.84573, 160.4156, 325.80844);
        ((GeneralPath) shape).curveTo(160.3629, 325.7821, 160.29153, 325.8348, 160.23882, 325.80844);
        ((GeneralPath) shape).curveTo(160.16429, 325.77118, 160.13658, 325.66895, 160.06206, 325.63168);
        ((GeneralPath) shape).curveTo(159.89539, 325.54834, 159.70473, 325.5241, 159.53172, 325.4549);
        ((GeneralPath) shape).curveTo(159.40938, 325.40594, 159.30598, 325.3101, 159.17816, 325.2781);
        ((GeneralPath) shape).curveTo(159.06383, 325.24954, 158.93642, 325.3154, 158.82462, 325.2781);
        ((GeneralPath) shape).curveTo(158.74554, 325.25177, 158.72237, 325.1386, 158.64783, 325.10135);
        ((GeneralPath) shape).curveTo(158.48117, 325.018, 158.29051, 324.99377, 158.1175, 324.92456);
        ((GeneralPath) shape).curveTo(157.87283, 324.8267, 157.6604, 324.65436, 157.4104, 324.571);
        ((GeneralPath) shape).curveTo(157.17992, 324.49417, 156.939, 324.45316, 156.7033, 324.39423);
        ((GeneralPath) shape).curveTo(156.11562, 324.2473, 155.48888, 324.10983, 154.93552, 323.86392);
        ((GeneralPath) shape).curveTo(154.74136, 323.77762, 154.60246, 323.58926, 154.4052, 323.51035);
        ((GeneralPath) shape).curveTo(154.18636, 323.42282, 153.9089, 323.61575, 153.69809, 323.51035);
        ((GeneralPath) shape).curveTo(153.35733, 323.1696, 153.40984, 323.14755, 152.99098, 322.98);
        ((GeneralPath) shape).curveTo(152.81796, 322.91083, 152.63982, 322.85443, 152.46065, 322.80325);
        ((GeneralPath) shape).curveTo(152.22704, 322.7365, 151.97086, 322.7351, 151.75354, 322.62646);
        ((GeneralPath) shape).curveTo(151.49002, 322.49472, 151.31567, 322.2158, 151.04643, 322.09613);
        ((GeneralPath) shape).curveTo(150.77187, 321.97412, 150.44974, 322.00772, 150.16255, 321.91937);
        ((GeneralPath) shape).curveTo(149.68135, 321.7713, 149.2215, 321.5611, 148.74834, 321.38904);
        ((GeneralPath) shape).curveTo(148.57323, 321.32535, 148.38467, 321.2956, 148.21802, 321.21225);
        ((GeneralPath) shape).curveTo(147.7689, 320.9877, 148.39905, 321.00098, 147.68768, 320.8587);
        ((GeneralPath) shape).curveTo(147.46571, 320.72003, 147.2117, 320.90494, 146.98058, 320.8587);
        ((GeneralPath) shape).curveTo(146.74232, 320.81104, 146.5117, 320.72958, 146.27345, 320.68192);
        ((GeneralPath) shape).curveTo(144.66429, 320.36008, 145.58186, 320.6674, 143.62181, 320.1516);
        ((GeneralPath) shape).curveTo(143.02687, 319.99503, 142.45088, 319.77048, 141.85405, 319.62128);
        ((GeneralPath) shape).curveTo(141.50632, 319.53433, 141.14487, 319.51477, 140.7934, 319.4445);
        ((GeneralPath) shape).curveTo(140.55515, 319.39685, 140.32452, 319.31537, 140.08627, 319.2677);
        ((GeneralPath) shape).curveTo(140.0285, 319.25616, 139.95117, 319.3094, 139.9095, 319.2677);
        ((GeneralPath) shape).curveTo(139.86784, 319.22604, 139.95117, 319.1326, 139.9095, 319.09094);
        ((GeneralPath) shape).curveTo(139.90382, 319.08524, 139.42204, 319.09094, 139.37917, 319.09094);
        ((GeneralPath) shape).curveTo(139.29956, 319.09094, 138.90263, 319.11783, 138.84885, 319.09094);
        ((GeneralPath) shape).curveTo(138.7743, 319.05368, 138.7466, 318.95142, 138.67207, 318.91415);
        ((GeneralPath) shape).curveTo(138.56813, 318.86218, 138.11008, 318.95044, 137.96497, 318.91415);
        ((GeneralPath) shape).curveTo(137.78418, 318.86896, 137.61842, 318.768, 137.43463, 318.73737);
        ((GeneralPath) shape).curveTo(137.26025, 318.7083, 137.0758, 318.78027, 136.9043, 318.73737);
        ((GeneralPath) shape).curveTo(136.82346, 318.71716, 136.80658, 318.58698, 136.72752, 318.5606);
        ((GeneralPath) shape).curveTo(136.6224, 318.52557, 135.87567, 318.5606, 135.66685, 318.5606);
        ((GeneralPath) shape).curveTo(135.60794, 318.5606, 135.54901, 318.5606, 135.4901, 318.5606);
        ((GeneralPath) shape).curveTo(135.43117, 318.5606, 135.35498, 318.60226, 135.31331, 318.5606);
        ((GeneralPath) shape).curveTo(135.27164, 318.51895, 135.35498, 318.42548, 135.31331, 318.38382);
        ((GeneralPath) shape).curveTo(135.29147, 318.362, 134.71706, 318.38382, 134.6062, 318.38382);
        ((GeneralPath) shape).curveTo(134.3705, 318.38382, 134.1348, 318.38382, 133.8991, 318.38382);
        ((GeneralPath) shape).curveTo(133.84016, 318.38382, 133.76399, 318.42548, 133.72232, 318.38382);
        ((GeneralPath) shape).curveTo(133.68065, 318.34216, 133.76399, 318.24872, 133.72232, 318.20706);
        ((GeneralPath) shape).curveTo(133.68065, 318.16537, 133.60025, 318.22894, 133.54555, 318.20706);
        ((GeneralPath) shape).curveTo(133.30087, 318.1092, 133.08517, 317.94604, 132.83844, 317.8535);
        ((GeneralPath) shape).curveTo(132.61095, 317.7682, 132.36703, 317.73566, 132.13133, 317.67673);
        ((GeneralPath) shape).curveTo(131.89563, 317.6178, 131.66246, 317.54758, 131.42422, 317.49994);
        ((GeneralPath) shape).curveTo(131.36644, 317.4884, 131.28911, 317.5416, 131.24744, 317.49994);
        ((GeneralPath) shape).curveTo(131.15428, 317.40677, 131.16383, 317.23956, 131.07066, 317.1464);
        ((GeneralPath) shape).curveTo(131.029, 317.10474, 130.93556, 317.18805, 130.89389, 317.1464);
        ((GeneralPath) shape).curveTo(130.85222, 317.10474, 130.93556, 317.0113, 130.89389, 316.9696);
        ((GeneralPath) shape).curveTo(130.85222, 316.92795, 130.65866, 316.97705, 130.71712, 316.9696);
        ((GeneralPath) shape).curveTo(131.02011, 316.93106, 131.3248, 316.90726, 131.62865, 316.8761);

        g.setPaint(CYAN);
        g.draw(shape);

        // _0_0_5
        shape = new GeneralPath();
        ((GeneralPath) shape).moveTo(119.62865, 252.8761);
        ((GeneralPath) shape).curveTo(119.73035, 252.7917, 119.89595, 252.74954, 119.93374, 252.6229);
        ((GeneralPath) shape).curveTo(119.94668, 252.57953, 119.66361, 252.39449, 119.58018, 252.26933);
        ((GeneralPath) shape).curveTo(119.52126, 252.15149, 119.46233, 252.03365, 119.40341, 251.91579);
        ((GeneralPath) shape).curveTo(119.34448, 251.91579, 119.2683, 251.95746, 119.22663, 251.91579);
        ((GeneralPath) shape).curveTo(119.18496, 251.87411, 119.2683, 251.78069, 119.22663, 251.73901);
        ((GeneralPath) shape).curveTo(119.18496, 251.69736, 119.09152, 251.78069, 119.04985, 251.73901);
        ((GeneralPath) shape).curveTo(119.00819, 251.69736, 119.09152, 251.6039, 119.04985, 251.56224);
        ((GeneralPath) shape).curveTo(119.00819, 251.52057, 118.92898, 251.58087, 118.87308, 251.56224);
        ((GeneralPath) shape).curveTo(118.5033, 251.43898, 118.17459, 251.17677, 117.81242, 251.0319);
        ((GeneralPath) shape).curveTo(117.6394, 250.9627, 117.45886, 250.91406, 117.28209, 250.85513);
        ((GeneralPath) shape).curveTo(117.10531, 250.7962, 116.93448, 250.7149, 116.75176, 250.67834);
        ((GeneralPath) shape).curveTo(116.63619, 250.65524, 116.50361, 250.73106, 116.3982, 250.67834);
        ((GeneralPath) shape).curveTo(116.3455, 250.652, 116.43987, 250.54324, 116.3982, 250.50159);
        ((GeneralPath) shape).curveTo(116.35654, 250.45992, 116.28035, 250.50159, 116.22143, 250.50159);
        ((GeneralPath) shape).curveTo(116.10357, 250.50159, 115.98572, 250.50159, 115.86787, 250.50159);
        ((GeneralPath) shape).curveTo(115.39647, 250.50159, 114.92506, 250.50159, 114.45366, 250.50159);
        ((GeneralPath) shape).curveTo(114.21796, 250.50159, 113.98225, 250.50159, 113.74655, 250.50159);
        ((GeneralPath) shape).curveTo(113.6287, 250.50159, 113.50925, 250.52095, 113.393, 250.50159);
        ((GeneralPath) shape).curveTo(113.15335, 250.46162, 112.92697, 250.35493, 112.68589, 250.3248);
        ((GeneralPath) shape).curveTo(112.45201, 250.29556, 112.21449, 250.3248, 111.97879, 250.3248);
        ((GeneralPath) shape).curveTo(111.62523, 250.3248, 111.26812, 250.3748, 110.91812, 250.3248);
        ((GeneralPath) shape).curveTo(110.73366, 250.29845, 110.57052, 250.18457, 110.38779, 250.14803);
        ((GeneralPath) shape).curveTo(110.15667, 250.1018, 109.91639, 250.14803, 109.68069, 250.14803);
        ((GeneralPath) shape).curveTo(109.20928, 250.14803, 108.73788, 250.14803, 108.26647, 250.14803);
        ((GeneralPath) shape).curveTo(108.0897, 250.14803, 107.91292, 250.14803, 107.73614, 250.14803);
        ((GeneralPath) shape).curveTo(107.67722, 250.14803, 107.60103, 250.10635, 107.55937, 250.14803);
        ((GeneralPath) shape).curveTo(107.5177, 250.1897, 107.60103, 250.28313, 107.55937, 250.3248);
        ((GeneralPath) shape).curveTo(107.5177, 250.36647, 107.4353, 250.29845, 107.38259, 250.3248);
        ((GeneralPath) shape).curveTo(107.30806, 250.36208, 107.28035, 250.46431, 107.20582, 250.50159);
        ((GeneralPath) shape).curveTo(106.63086, 250.78906, 106.78532, 250.5462, 106.32193, 250.85513);
        ((GeneralPath) shape).curveTo(106.25259, 250.90137, 106.21969, 250.99464, 106.14515, 251.0319);
        ((GeneralPath) shape).curveTo(106.09245, 251.05826, 106.01004, 250.99023, 105.96838, 251.0319);
        ((GeneralPath) shape).curveTo(105.92671, 251.07356, 106.01004, 251.16702, 105.96838, 251.20868);
        ((GeneralPath) shape).curveTo(105.88504, 251.29202, 105.72023, 251.15598, 105.61482, 251.20868);
        ((GeneralPath) shape).curveTo(105.54029, 251.24596, 105.51258, 251.34819, 105.43805, 251.38547);
        ((GeneralPath) shape).curveTo(105.38534, 251.4118, 105.30294, 251.3438, 105.26127, 251.38547);
        ((GeneralPath) shape).curveTo(105.2196, 251.42712, 105.30294, 251.52057, 105.26127, 251.56224);
        ((GeneralPath) shape).curveTo(104.57136, 252.25215, 105.16633, 251.52132, 104.73094, 251.73901);
        ((GeneralPath) shape).curveTo(104.58187, 251.81355, 104.51606, 252.00012, 104.37739, 252.09258);
        ((GeneralPath) shape).curveTo(104.26775, 252.16566, 104.13347, 252.19626, 104.02383, 252.26933);
        ((GeneralPath) shape).curveTo(103.9545, 252.31557, 103.91639, 252.3999, 103.84706, 252.44612);
        ((GeneralPath) shape).curveTo(103.73743, 252.51921, 103.59891, 252.54384, 103.4935, 252.6229);
        ((GeneralPath) shape).curveTo(103.43747, 252.66492, 102.6833, 253.39627, 102.60962, 253.50677);
        ((GeneralPath) shape).curveTo(102.40233, 253.8177, 102.39981, 254.03133, 102.25607, 254.39066);
        ((GeneralPath) shape).curveTo(102.20713, 254.513, 102.11125, 254.6164, 102.07929, 254.74422);
        ((GeneralPath) shape).curveTo(102.02065, 254.97878, 102.14866, 255.59676, 102.07929, 255.80489);
        ((GeneralPath) shape).curveTo(102.05294, 255.88393, 101.92887, 255.9026, 101.90251, 255.98166);
        ((GeneralPath) shape).curveTo(101.86525, 256.09344, 101.90251, 256.21735, 101.90251, 256.3352);
        ((GeneralPath) shape).curveTo(101.90251, 256.74768, 101.90251, 257.16016, 101.90251, 257.57266);
        ((GeneralPath) shape).curveTo(101.90251, 258.1619, 101.90251, 258.75116, 101.90251, 259.34042);
        ((GeneralPath) shape).curveTo(101.90251, 259.39935, 101.90251, 259.45825, 101.90251, 259.51718);
        ((GeneralPath) shape).curveTo(101.90251, 259.5761, 101.86085, 259.6523, 101.90251, 259.69397);
        ((GeneralPath) shape).curveTo(101.94418, 259.73563, 102.05294, 259.64127, 102.07929, 259.69397);
        ((GeneralPath) shape).curveTo(102.13199, 259.79938, 102.04202, 259.93573, 102.07929, 260.04752);
        ((GeneralPath) shape).curveTo(102.10564, 260.1266, 102.2188, 260.14975, 102.25607, 260.2243);
        ((GeneralPath) shape).curveTo(102.28242, 260.277, 102.23743, 260.34518, 102.25607, 260.40106);
        ((GeneralPath) shape).curveTo(102.29773, 260.52606, 102.39118, 260.62964, 102.43284, 260.75464);
        ((GeneralPath) shape).curveTo(102.47011, 260.86642, 102.38014, 261.00278, 102.43284, 261.1082);
        ((GeneralPath) shape).curveTo(102.47011, 261.1827, 102.55069, 261.22604, 102.60962, 261.28497);
        ((GeneralPath) shape).curveTo(102.66855, 261.4028, 102.73746, 261.51617, 102.7864, 261.63852);
        ((GeneralPath) shape).curveTo(102.93014, 261.99786, 102.93266, 262.21146, 103.13995, 262.5224);
        ((GeneralPath) shape).curveTo(103.18618, 262.59174, 103.27946, 262.62463, 103.31673, 262.69916);
        ((GeneralPath) shape).curveTo(103.34308, 262.75186, 103.29037, 262.82324, 103.31673, 262.87595);
        ((GeneralPath) shape).curveTo(103.39126, 263.02502, 103.57783, 263.09082, 103.67028, 263.2295);
        ((GeneralPath) shape).curveTo(103.74337, 263.33914, 103.77397, 263.47342, 103.84706, 263.58304);
        ((GeneralPath) shape).curveTo(103.89328, 263.6524, 103.96491, 263.7009, 104.02383, 263.75983);
        ((GeneralPath) shape).curveTo(104.08276, 263.8777, 104.12752, 264.00375, 104.20061, 264.11337);
        ((GeneralPath) shape).curveTo(104.24684, 264.1827, 104.33116, 264.22083, 104.37739, 264.29016);
        ((GeneralPath) shape).curveTo(104.45048, 264.39978, 104.48108, 264.5341, 104.55416, 264.6437);
        ((GeneralPath) shape).curveTo(104.72758, 264.90384, 105.08786, 265.0907, 105.26127, 265.35083);
        ((GeneralPath) shape).curveTo(105.33436, 265.46045, 105.34488, 265.6112, 105.43805, 265.70438);
        ((GeneralPath) shape).curveTo(105.47971, 265.74603, 105.57316, 265.66272, 105.61482, 265.70438);
        ((GeneralPath) shape).curveTo(105.65649, 265.74603, 105.57316, 265.83948, 105.61482, 265.88116);
        ((GeneralPath) shape).curveTo(105.65649, 265.92282, 105.74993, 265.83948, 105.7916, 265.88116);
        ((GeneralPath) shape).curveTo(105.83327, 265.92282, 105.74993, 266.01627, 105.7916, 266.05792);
        ((GeneralPath) shape).curveTo(105.83327, 266.09958, 105.92671, 266.01627, 105.96838, 266.05792);
        ((GeneralPath) shape).curveTo(106.01004, 266.09958, 105.94974, 266.1788, 105.96838, 266.2347);
        ((GeneralPath) shape).curveTo(106.01004, 266.3597, 106.10349, 266.46326, 106.14515, 266.58826);
        ((GeneralPath) shape).curveTo(106.16379, 266.64417, 106.10349, 266.72336, 106.14515, 266.76505);
        ((GeneralPath) shape).curveTo(106.18682, 266.8067, 106.26923, 266.73868, 106.32193, 266.76505);
        ((GeneralPath) shape).curveTo(106.39647, 266.8023, 106.43978, 266.88287, 106.49871, 266.9418);
        ((GeneralPath) shape).curveTo(106.55763, 267.00073, 106.63822, 267.04404, 106.67548, 267.1186);
        ((GeneralPath) shape).curveTo(106.72819, 267.224, 106.59215, 267.38882, 106.67548, 267.47214);
        ((GeneralPath) shape).curveTo(106.71715, 267.51382, 106.81059, 267.43048, 106.85226, 267.47214);
        ((GeneralPath) shape).curveTo(106.85938, 267.47925, 106.85226, 268.11432, 106.85226, 268.17926);
        ((GeneralPath) shape).curveTo(106.85226, 268.25885, 106.82536, 268.6558, 106.85226, 268.7096);
        ((GeneralPath) shape).curveTo(106.88953, 268.78412, 106.99177, 268.81183, 107.02904, 268.88635);
        ((GeneralPath) shape).curveTo(107.05189, 268.93207, 107.02904, 269.82172, 107.02904, 269.94702);
        ((GeneralPath) shape).curveTo(107.02904, 270.00595, 107.0707, 270.08212, 107.02904, 270.12378);
        ((GeneralPath) shape).curveTo(106.98737, 270.16547, 106.89393, 270.08212, 106.85226, 270.12378);
        ((GeneralPath) shape).curveTo(106.76387, 270.2122, 106.94065, 270.56573, 106.85226, 270.6541);
        ((GeneralPath) shape).curveTo(106.81059, 270.6958, 106.71715, 270.61246, 106.67548, 270.6541);
        ((GeneralPath) shape).curveTo(106.30973, 271.01987, 107.23441, 270.63983, 106.49871, 271.00766);
        ((GeneralPath) shape).curveTo(106.446, 271.03403, 106.3636, 270.966, 106.32193, 271.00766);
        ((GeneralPath) shape).curveTo(106.20428, 271.1253, 106.43958, 271.2436, 106.32193, 271.36124);
        ((GeneralPath) shape).curveTo(106.28026, 271.4029, 106.18682, 271.31955, 106.14515, 271.36124);
        ((GeneralPath) shape).curveTo(106.10349, 271.4029, 106.18682, 271.49634, 106.14515, 271.538);
        ((GeneralPath) shape).curveTo(106.10349, 271.57968, 106.01004, 271.49634, 105.96838, 271.538);
        ((GeneralPath) shape).curveTo(105.92671, 271.57968, 106.01004, 271.6731, 105.96838, 271.71478);
        ((GeneralPath) shape).curveTo(105.92671, 271.75644, 105.83327, 271.6731, 105.7916, 271.71478);
        ((GeneralPath) shape).curveTo(105.69843, 271.80795, 105.68791, 271.9587, 105.61482, 272.06833);
        ((GeneralPath) shape).curveTo(105.5686, 272.13766, 105.49697, 272.1862, 105.43805, 272.24512);
        ((GeneralPath) shape).curveTo(105.37912, 272.30405, 105.33581, 272.3846, 105.26127, 272.42188);
        ((GeneralPath) shape).curveTo(103.65179, 273.22662, 105.48896, 272.01743, 104.55416, 272.9522);
        ((GeneralPath) shape).curveTo(104.40393, 273.10245, 104.20602, 273.19647, 104.02383, 273.30576);
        ((GeneralPath) shape).curveTo(103.91085, 273.37357, 103.76345, 273.38937, 103.67028, 273.48254);
        ((GeneralPath) shape).curveTo(103.52005, 273.63278, 103.46696, 273.86264, 103.31673, 274.01288);
        ((GeneralPath) shape).curveTo(103.22356, 274.10605, 103.07616, 274.12186, 102.96317, 274.18967);
        ((GeneralPath) shape).curveTo(102.78099, 274.29895, 102.61503, 274.4339, 102.43284, 274.5432);
        ((GeneralPath) shape).curveTo(102.31986, 274.611, 102.1847, 274.64093, 102.07929, 274.71997);
        ((GeneralPath) shape).curveTo(101.74931, 274.96747, 101.52539, 275.35638, 101.19541, 275.60388);
        ((GeneralPath) shape).curveTo(101.09, 275.68292, 100.94726, 275.7016, 100.84185, 275.78064);
        ((GeneralPath) shape).curveTo(100.70852, 275.88065, 100.61844, 276.0301, 100.4883, 276.1342);
        ((GeneralPath) shape).curveTo(100.3224, 276.2669, 100.12119, 276.35175, 99.95797, 276.48776);
        ((GeneralPath) shape).curveTo(99.63788, 276.7545, 99.39418, 277.1049, 99.07409, 277.37164);
        ((GeneralPath) shape).curveTo(98.84775, 277.56024, 98.59332, 277.71335, 98.36698, 277.90198);
        ((GeneralPath) shape).curveTo(98.11091, 278.11536, 97.89558, 278.37338, 97.659874, 278.60907);
        ((GeneralPath) shape).curveTo(97.54202, 278.72693, 97.41044, 278.8325, 97.30632, 278.96262);
        ((GeneralPath) shape).curveTo(97.04088, 279.29443, 96.84619, 279.67752, 96.59921, 280.0233);
        ((GeneralPath) shape).curveTo(96.42796, 280.26303, 96.2575, 280.50406, 96.068886, 280.73038);
        ((GeneralPath) shape).curveTo(95.96219, 280.85843, 95.80108, 280.94104, 95.71533, 281.08395);
        ((GeneralPath) shape).curveTo(95.61946, 281.24374, 95.62189, 281.4476, 95.53855, 281.6143);
        ((GeneralPath) shape).curveTo(95.44354, 281.8043, 95.29431, 281.96243, 95.185, 282.14462);
        ((GeneralPath) shape).curveTo(95.11721, 282.2576, 95.081314, 282.38852, 95.008224, 282.49817);
        ((GeneralPath) shape).curveTo(94.962, 282.5675, 94.86871, 282.6004, 94.83144, 282.67493);
        ((GeneralPath) shape).curveTo(94.7835, 282.77084, 94.879814, 283.33368, 94.83144, 283.38205);
        ((GeneralPath) shape).curveTo(94.46569, 283.7478, 94.84574, 282.82312, 94.4779, 283.5588);
        ((GeneralPath) shape).curveTo(94.45154, 283.6115, 94.4779, 283.67667, 94.4779, 283.7356);
        ((GeneralPath) shape).curveTo(94.4779, 283.85345, 94.4779, 283.9713, 94.4779, 284.08914);
        ((GeneralPath) shape).curveTo(94.4779, 284.3838, 94.4779, 284.6784, 94.4779, 284.97302);
        ((GeneralPath) shape).curveTo(94.4779, 285.44443, 94.4779, 285.91583, 94.4779, 286.38724);
        ((GeneralPath) shape).curveTo(94.4779, 286.46686, 94.451, 286.86377, 94.4779, 286.91757);
        ((GeneralPath) shape).curveTo(94.51516, 286.9921, 94.6174, 287.0198, 94.65467, 287.09436);
        ((GeneralPath) shape).curveTo(94.68102, 287.14706, 94.61301, 287.22946, 94.65467, 287.27112);
        ((GeneralPath) shape).curveTo(94.696335, 287.3128, 94.78978, 287.22946, 94.83144, 287.27112);
        ((GeneralPath) shape).curveTo(94.873116, 287.3128, 94.78978, 287.40625, 94.83144, 287.4479);
        ((GeneralPath) shape).curveTo(94.873116, 287.48956, 94.96656, 287.40625, 95.008224, 287.4479);
        ((GeneralPath) shape).curveTo(95.09156, 287.53125, 94.92489, 287.71814, 95.008224, 287.80145);
        ((GeneralPath) shape).curveTo(95.04989, 287.84314, 95.14333, 287.7598, 95.185, 287.80145);
        ((GeneralPath) shape).curveTo(95.22667, 287.84314, 95.14333, 287.93658, 95.185, 287.97824);
        ((GeneralPath) shape).curveTo(95.22667, 288.0199, 95.32909, 287.9292, 95.36178, 287.97824);
        ((GeneralPath) shape).curveTo(95.49985, 288.18533, 95.512054, 288.65884, 95.71533, 288.86212);
        ((GeneralPath) shape).curveTo(95.756996, 288.90378, 95.85044, 288.82047, 95.892105, 288.86212);
        ((GeneralPath) shape).curveTo(95.93378, 288.90378, 95.85044, 288.99722, 95.892105, 289.0389);
        ((GeneralPath) shape).curveTo(95.97544, 289.12222, 96.14025, 288.98618, 96.24566, 289.0389);
        ((GeneralPath) shape).curveTo(96.3202, 289.07617, 96.3479, 289.1784, 96.42244, 289.21567);
        ((GeneralPath) shape).curveTo(96.47514, 289.24203, 96.54651, 289.18933, 96.59921, 289.21567);
        ((GeneralPath) shape).curveTo(96.67375, 289.25293, 96.701454, 289.3552, 96.77599, 289.39246);
        ((GeneralPath) shape).curveTo(96.8814, 289.44516, 97.04621, 289.3091, 97.12955, 289.39246);
        ((GeneralPath) shape).curveTo(97.17121, 289.4341, 97.087875, 289.52756, 97.12955, 289.56924);
        ((GeneralPath) shape).curveTo(97.17121, 289.6109, 97.25362, 289.54288, 97.30632, 289.56924);
        ((GeneralPath) shape).curveTo(97.38086, 289.60648, 97.42417, 289.68707, 97.48309, 289.746);
        ((GeneralPath) shape).curveTo(97.659874, 289.746, 97.84193, 289.70312, 98.01343, 289.746);
        ((GeneralPath) shape).curveTo(98.17512, 289.78644, 98.20887, 290.04684, 98.36698, 290.09955);
        ((GeneralPath) shape).curveTo(98.554825, 290.16217, 98.886246, 290.03693, 99.07409, 290.09955);
        ((GeneralPath) shape).curveTo(99.19909, 290.1412, 99.30264, 290.23468, 99.42764, 290.27634);
        ((GeneralPath) shape).curveTo(99.59604, 290.33246, 100.13933, 290.21893, 100.31152, 290.27634);
        ((GeneralPath) shape).curveTo(100.56152, 290.35968, 100.75869, 290.58655, 101.01863, 290.62988);
        ((GeneralPath) shape).curveTo(101.25113, 290.66864, 101.49003, 290.62988, 101.72574, 290.62988);
        ((GeneralPath) shape).curveTo(102.02036, 290.62988, 102.31499, 290.62988, 102.60962, 290.62988);
        ((GeneralPath) shape).curveTo(102.72747, 290.62988, 102.84761, 290.60678, 102.96317, 290.62988);
        ((GeneralPath) shape).curveTo(103.14589, 290.66644, 103.3097, 290.77603, 103.4935, 290.80667);
        ((GeneralPath) shape).curveTo(103.66788, 290.83572, 103.84706, 290.80667, 104.02383, 290.80667);
        ((GeneralPath) shape).curveTo(104.25954, 290.80667, 104.49524, 290.80667, 104.73094, 290.80667);
        ((GeneralPath) shape).curveTo(104.84879, 290.80667, 104.97016, 290.77808, 105.08449, 290.80667);
        ((GeneralPath) shape).curveTo(106.10783, 291.0625, 104.61981, 290.98343, 105.96838, 290.98343);
        ((GeneralPath) shape).curveTo(106.16779, 290.98343, 107.14546, 290.95325, 107.20582, 290.98343);
        ((GeneralPath) shape).curveTo(107.28035, 291.02072, 107.30039, 291.1465, 107.38259, 291.16022);
        ((GeneralPath) shape).curveTo(107.67321, 291.20865, 107.97185, 291.16022, 108.26647, 291.16022);
        ((GeneralPath) shape).curveTo(108.67895, 291.16022, 109.09143, 291.16022, 109.50391, 291.16022);
        ((GeneralPath) shape).curveTo(109.64305, 291.16022, 110.3736, 291.14603, 110.38779, 291.16022);
        ((GeneralPath) shape).curveTo(110.42946, 291.20187, 110.34613, 291.29532, 110.38779, 291.33698);
        ((GeneralPath) shape).curveTo(110.42559, 291.3748, 110.99744, 291.3045, 111.0949, 291.33698);
        ((GeneralPath) shape).curveTo(111.2199, 291.37866, 111.31771, 291.49744, 111.44845, 291.51376);
        ((GeneralPath) shape).curveTo(111.79928, 291.55762, 112.15556, 291.51376, 112.50912, 291.51376);
        ((GeneralPath) shape).curveTo(113.03945, 291.51376, 113.56978, 291.51376, 114.10011, 291.51376);
        ((GeneralPath) shape).curveTo(114.27688, 291.51376, 114.46273, 291.45786, 114.63044, 291.51376);
        ((GeneralPath) shape).curveTo(114.70949, 291.54013, 114.72501, 291.67685, 114.80721, 291.69055);
        ((GeneralPath) shape).curveTo(115.09783, 291.73898, 115.39647, 291.69055, 115.6911, 291.69055);
        ((GeneralPath) shape).curveTo(116.10357, 291.69055, 116.51605, 291.69055, 116.92853, 291.69055);
        ((GeneralPath) shape).curveTo(117.10531, 291.69055, 117.28449, 291.6615, 117.45886, 291.69055);
        ((GeneralPath) shape).curveTo(117.64267, 291.7212, 117.80399, 291.84674, 117.98919, 291.8673);
        ((GeneralPath) shape).curveTo(118.34058, 291.90637, 118.6963, 291.8673, 119.04985, 291.8673);
        ((GeneralPath) shape).curveTo(119.99266, 291.8673, 120.93547, 291.8673, 121.87828, 291.8673);
        ((GeneralPath) shape).curveTo(123.88175, 291.8673, 125.88522, 291.8673, 127.88869, 291.8673);
        ((GeneralPath) shape).curveTo(127.93486, 291.8673, 128.86047, 291.89694, 128.94936, 291.8673);
        ((GeneralPath) shape).curveTo(129.07436, 291.82565, 129.17506, 291.7225, 129.3029, 291.69055);
        ((GeneralPath) shape).curveTo(129.45868, 291.6516, 130.25899, 291.74283, 130.36356, 291.69055);
        ((GeneralPath) shape).curveTo(130.4381, 291.6533, 130.471, 291.56, 130.54034, 291.51376);
        ((GeneralPath) shape).curveTo(130.64996, 291.44067, 130.80072, 291.43015, 130.89389, 291.33698);
        ((GeneralPath) shape).curveTo(130.98706, 291.24384, 130.99757, 291.09308, 131.07066, 290.98343);
        ((GeneralPath) shape).curveTo(131.1169, 290.9141, 131.22108, 290.8857, 131.24744, 290.80667);
        ((GeneralPath) shape).curveTo(131.28471, 290.69485, 131.21017, 290.5649, 131.24744, 290.45312);
        ((GeneralPath) shape).curveTo(131.2738, 290.37405, 131.38695, 290.35086, 131.42422, 290.27634);
        ((GeneralPath) shape).curveTo(131.44746, 290.22986, 131.42422, 289.66168, 131.42422, 289.56924);
        ((GeneralPath) shape).curveTo(131.42422, 289.47678, 131.44746, 288.9086, 131.42422, 288.86212);
        ((GeneralPath) shape).curveTo(131.0734, 288.16046, 131.36835, 289.64343, 131.07066, 288.155);
        ((GeneralPath) shape).curveTo(131.02444, 287.9239, 131.07066, 287.68362, 131.07066, 287.4479);
        ((GeneralPath) shape).curveTo(131.07066, 287.38898, 131.0893, 287.32703, 131.07066, 287.27112);
        ((GeneralPath) shape).curveTo(130.87833, 286.6941, 130.83974, 287.12296, 130.71712, 286.38724);
        ((GeneralPath) shape).curveTo(130.71712, 286.21048, 130.71712, 286.0337, 130.71712, 285.85693);
        ((GeneralPath) shape).curveTo(130.65819, 285.798, 130.5667, 285.7592, 130.54034, 285.68015);
        ((GeneralPath) shape).curveTo(130.51018, 285.58966, 130.54034, 284.74585, 130.54034, 284.61948);
        ((GeneralPath) shape).curveTo(130.54034, 284.56055, 130.5667, 284.49542, 130.54034, 284.4427);
        ((GeneralPath) shape).curveTo(130.50307, 284.36816, 130.40083, 284.34045, 130.36356, 284.26593);
        ((GeneralPath) shape).curveTo(130.28023, 284.09927, 130.256, 283.9086, 130.18678, 283.7356);
        ((GeneralPath) shape).curveTo(130.08891, 283.4909, 129.9311, 283.27316, 129.83324, 283.0285);
        ((GeneralPath) shape).curveTo(129.76402, 282.85547, 129.72566, 282.67117, 129.65645, 282.49817);
        ((GeneralPath) shape).curveTo(129.39186, 281.83667, 129.54115, 282.44434, 129.12611, 281.6143);
        ((GeneralPath) shape).curveTo(128.65472, 280.67148, 129.3315, 281.48038, 128.5958, 280.37683);
        ((GeneralPath) shape).curveTo(128.50334, 280.23816, 128.34224, 280.15662, 128.24223, 280.0233);
        ((GeneralPath) shape).curveTo(128.16318, 279.91788, 128.15863, 279.7629, 128.06546, 279.66974);
        ((GeneralPath) shape).curveTo(127.9723, 279.57657, 127.80508, 279.58612, 127.71191, 279.49295);
        ((GeneralPath) shape).curveTo(127.61874, 279.39978, 127.61419, 279.2448, 127.53513, 279.1394);
        ((GeneralPath) shape).curveTo(127.43534, 279.00635, 126.78431, 278.35532, 126.65125, 278.25552);
        ((GeneralPath) shape).curveTo(126.54584, 278.17645, 126.41068, 278.1465, 126.2977, 278.07874);
        ((GeneralPath) shape).curveTo(126.11552, 277.96942, 125.93733, 277.85266, 125.76737, 277.7252);
        ((GeneralPath) shape).curveTo(125.56737, 277.5752, 125.43704, 277.34485, 125.23704, 277.19485);
        ((GeneralPath) shape).curveTo(125.14801, 276.8054, 124.87337, 277.1014, 124.70671, 277.01807);
        ((GeneralPath) shape).curveTo(124.63217, 276.9808, 124.60447, 276.87857, 124.52993, 276.8413);
        ((GeneralPath) shape).curveTo(124.47723, 276.81494, 124.40586, 276.86765, 124.35315, 276.8413);
        ((GeneralPath) shape).curveTo(124.27862, 276.80405, 124.24304, 276.71454, 124.17638, 276.66452);
        ((GeneralPath) shape).curveTo(124.00641, 276.53705, 123.81601, 276.43845, 123.64605, 276.31097);
        ((GeneralPath) shape).curveTo(123.57938, 276.261, 123.54073, 276.17706, 123.46927, 276.1342);
        ((GeneralPath) shape).curveTo(123.2433, 275.99863, 122.9766, 275.9338, 122.76216, 275.78064);
        ((GeneralPath) shape).curveTo(122.55873, 275.6353, 122.43985, 275.38898, 122.23183, 275.2503);
        ((GeneralPath) shape).curveTo(122.07679, 275.14694, 121.87452, 275.14273, 121.7015, 275.07355);
        ((GeneralPath) shape).curveTo(121.40773, 274.95602, 121.05478, 274.72107, 120.81762, 274.5432);
        ((GeneralPath) shape).curveTo(120.61762, 274.39322, 120.48729, 274.16287, 120.28729, 274.01288);
        ((GeneralPath) shape).curveTo(120.18188, 273.9338, 120.02691, 273.92926, 119.93374, 273.8361);
        ((GeneralPath) shape).curveTo(119.78351, 273.68588, 119.70766, 273.47574, 119.58018, 273.30576);
        ((GeneralPath) shape).curveTo(119.43018, 273.10577, 119.19985, 272.97543, 119.04985, 272.77545);
        ((GeneralPath) shape).curveTo(118.9708, 272.67004, 118.932, 272.53973, 118.87308, 272.42188);
        ((GeneralPath) shape).curveTo(118.81415, 272.30405, 118.74523, 272.19067, 118.6963, 272.06833);
        ((GeneralPath) shape).curveTo(117.98451, 270.28885, 118.83433, 272.44366, 118.51952, 271.18445);
        ((GeneralPath) shape).curveTo(118.45561, 270.9288, 118.22988, 270.733, 118.16597, 270.47733);
        ((GeneralPath) shape).curveTo(118.12591, 270.31708, 118.16597, 269.79883, 118.16597, 269.59344);
        ((GeneralPath) shape).curveTo(118.16597, 269.0042, 118.16597, 268.41495, 118.16597, 267.82568);
        ((GeneralPath) shape).curveTo(118.16597, 267.76678, 118.16597, 267.70786, 118.16597, 267.64893);
        ((GeneralPath) shape).curveTo(118.16597, 267.59, 118.1243, 267.51382, 118.16597, 267.47214);
        ((GeneralPath) shape).curveTo(118.2493, 267.38882, 118.43619, 267.55548, 118.51952, 267.47214);
        ((GeneralPath) shape).curveTo(118.51952, 267.00073, 118.4606, 267.53107, 118.6963, 267.29535);
        ((GeneralPath) shape).curveTo(118.73797, 267.2537, 118.65463, 267.16025, 118.6963, 267.1186);
        ((GeneralPath) shape).curveTo(118.77963, 267.03525, 118.94444, 267.1713, 119.04985, 267.1186);
        ((GeneralPath) shape).curveTo(119.20654, 267.04025, 119.41926, 266.69553, 119.58018, 266.58826);
        ((GeneralPath) shape).curveTo(119.68982, 266.51517, 119.8114, 266.46042, 119.93374, 266.41147);
        ((GeneralPath) shape).curveTo(120.10675, 266.3423, 120.315, 266.3465, 120.46407, 266.2347);
        ((GeneralPath) shape).curveTo(120.56948, 266.15564, 120.56775, 265.99078, 120.64084, 265.88116);
        ((GeneralPath) shape).curveTo(120.6945, 265.80066, 121.29082, 265.2026, 121.34795, 265.17404);
        ((GeneralPath) shape).curveTo(121.40066, 265.1477, 121.48306, 265.2157, 121.52473, 265.17404);
        ((GeneralPath) shape).curveTo(121.56639, 265.1324, 121.48306, 265.03894, 121.52473, 264.99728);
        ((GeneralPath) shape).curveTo(121.64482, 264.87717, 121.87629, 265.178, 122.05506, 264.8205);
        ((GeneralPath) shape).curveTo(122.08141, 264.7678, 122.02871, 264.6964, 122.05506, 264.6437);
        ((GeneralPath) shape).curveTo(122.1632, 264.42743, 122.41314, 264.41934, 122.58539, 264.29016);
        ((GeneralPath) shape).curveTo(122.71872, 264.19016, 122.78987, 264.01114, 122.93894, 263.9366);
        ((GeneralPath) shape).curveTo(123.04435, 263.8839, 123.18069, 263.97388, 123.29249, 263.9366);
        ((GeneralPath) shape).curveTo(123.37155, 263.91025, 123.39473, 263.7971, 123.46927, 263.75983);
        ((GeneralPath) shape).curveTo(123.52197, 263.7335, 123.59015, 263.77847, 123.64605, 263.75983);
        ((GeneralPath) shape).curveTo(123.89605, 263.6765, 124.11745, 263.52414, 124.35315, 263.40628);
        ((GeneralPath) shape).curveTo(124.471, 263.34735, 124.58886, 263.28842, 124.70671, 263.2295);
        ((GeneralPath) shape).curveTo(124.82456, 263.17056, 124.95485, 263.13177, 125.06026, 263.05273);
        ((GeneralPath) shape).curveTo(125.19359, 262.95273, 125.2709, 262.7849, 125.41381, 262.69916);
        ((GeneralPath) shape).curveTo(125.5736, 262.6033, 125.77748, 262.60574, 125.94414, 262.5224);
        ((GeneralPath) shape).curveTo(126.01868, 262.4851, 126.05158, 262.39185, 126.12092, 262.3456);
        ((GeneralPath) shape).curveTo(126.23055, 262.27252, 126.35662, 262.22778, 126.47447, 262.16885);
        ((GeneralPath) shape).curveTo(126.59233, 262.10992, 126.70303, 262.03372, 126.82803, 261.99207);
        ((GeneralPath) shape).curveTo(126.88393, 261.97342, 126.96314, 262.03372, 127.0048, 261.99207);
        ((GeneralPath) shape).curveTo(127.04647, 261.9504, 126.96314, 261.85696, 127.0048, 261.81528);
        ((GeneralPath) shape).curveTo(127.08814, 261.73196, 127.27503, 261.89862, 127.35836, 261.81528);
        ((GeneralPath) shape).curveTo(127.40003, 261.77362, 127.33201, 261.69122, 127.35836, 261.63852);
        ((GeneralPath) shape).curveTo(127.43289, 261.48944, 127.63738, 261.43402, 127.71191, 261.28497);
        ((GeneralPath) shape).curveTo(127.76462, 261.17953, 127.62858, 261.01474, 127.71191, 260.9314);
        ((GeneralPath) shape).curveTo(127.94761, 260.6957, 127.88154, 261.3064, 128.06546, 260.75464);
        ((GeneralPath) shape).curveTo(128.10274, 260.64282, 128.0282, 260.51288, 128.06546, 260.40106);
        ((GeneralPath) shape).curveTo(128.09183, 260.32202, 128.2159, 260.30334, 128.24223, 260.2243);
        ((GeneralPath) shape).curveTo(128.27951, 260.1125, 128.24223, 259.9886, 128.24223, 259.87073);
        ((GeneralPath) shape).curveTo(128.24223, 259.81183, 128.2159, 259.74667, 128.24223, 259.69397);
        ((GeneralPath) shape).curveTo(128.27951, 259.61942, 128.39267, 259.59625, 128.41902, 259.51718);
        ((GeneralPath) shape).curveTo(128.47491, 259.3495, 128.41902, 259.16364, 128.41902, 258.98685);
        ((GeneralPath) shape).curveTo(128.41902, 258.69223, 128.41902, 258.3976, 128.41902, 258.10297);
        ((GeneralPath) shape).curveTo(128.41902, 258.01053, 128.44226, 257.44235, 128.41902, 257.39587);
        ((GeneralPath) shape).curveTo(127.83272, 256.80957, 128.50235, 257.56253, 128.24223, 257.04233);
        ((GeneralPath) shape).curveTo(128.16771, 256.89325, 127.96322, 256.83783, 127.88869, 256.68875);
        ((GeneralPath) shape).curveTo(127.86234, 256.63605, 127.91504, 256.5647, 127.88869, 256.512);
        ((GeneralPath) shape).curveTo(127.85142, 256.43744, 127.74918, 256.40973, 127.71191, 256.3352);
        ((GeneralPath) shape).curveTo(127.68556, 256.2825, 127.75358, 256.2001, 127.71191, 256.15842);
        ((GeneralPath) shape).curveTo(127.67024, 256.11676, 127.5768, 256.2001, 127.53513, 256.15842);
        ((GeneralPath) shape).curveTo(127.4518, 256.0751, 127.61847, 255.88821, 127.53513, 255.80489);
        ((GeneralPath) shape).curveTo(127.49347, 255.76321, 127.41106, 255.83122, 127.35836, 255.80489);
        ((GeneralPath) shape).curveTo(127.20929, 255.73035, 127.15388, 255.52586, 127.0048, 255.45132);
        ((GeneralPath) shape).curveTo(126.83814, 255.368, 126.64114, 255.35788, 126.47447, 255.27455);
        ((GeneralPath) shape).curveTo(126.39994, 255.23727, 126.37223, 255.13504, 126.2977, 255.09776);
        ((GeneralPath) shape).curveTo(126.19229, 255.04507, 126.04955, 255.15048, 125.94414, 255.09776);
        ((GeneralPath) shape).curveTo(125.86961, 255.0605, 125.84642, 254.94736, 125.76737, 254.92099);
        ((GeneralPath) shape).curveTo(125.65556, 254.88373, 125.53167, 254.92099, 125.41381, 254.92099);
        ((GeneralPath) shape).curveTo(125.35489, 254.92099, 125.28974, 254.94736, 125.23704, 254.92099);
        ((GeneralPath) shape).curveTo(125.1625, 254.88373, 125.1348, 254.7815, 125.06026, 254.74422);
        ((GeneralPath) shape).curveTo(125.00756, 254.71786, 124.93939, 254.76285, 124.88348, 254.74422);
        ((GeneralPath) shape).curveTo(124.63348, 254.66087, 124.42105, 254.48854, 124.17638, 254.39066);
        ((GeneralPath) shape).curveTo(124.00337, 254.32146, 123.82682, 254.25908, 123.64605, 254.21388);
        ((GeneralPath) shape).curveTo(123.58888, 254.1996, 123.52197, 254.24023, 123.46927, 254.21388);
        ((GeneralPath) shape).curveTo(123.0928, 254.02565, 123.49219, 254.04857, 123.11572, 253.86034);
        ((GeneralPath) shape).curveTo(122.93894, 253.8014, 122.76216, 253.74248, 122.58539, 253.68356);
        ((GeneralPath) shape).curveTo(122.52646, 253.62463, 122.48315, 253.54405, 122.40861, 253.50677);
        ((GeneralPath) shape).curveTo(122.35591, 253.48042, 122.28454, 253.53313, 122.23183, 253.50677);
        ((GeneralPath) shape).curveTo(122.1573, 253.46951, 122.1359, 253.35022, 122.05506, 253.33);
        ((GeneralPath) shape).curveTo(121.88356, 253.28712, 121.7015, 253.33, 121.52473, 253.33);
        ((GeneralPath) shape).curveTo(121.4658, 253.33, 121.40066, 253.35635, 121.34795, 253.33);
        ((GeneralPath) shape).curveTo(121.27342, 253.29274, 121.24571, 253.19049, 121.17117, 253.15323);
        ((GeneralPath) shape).curveTo(121.11847, 253.12688, 121.0471, 253.17958, 120.9944, 253.15323);
        ((GeneralPath) shape).curveTo(120.91986, 253.11597, 120.89668, 253.0028, 120.81762, 252.97646);
        ((GeneralPath) shape).curveTo(120.70582, 252.93918, 120.57587, 253.01372, 120.46407, 252.97646);
        ((GeneralPath) shape).curveTo(120.38501, 252.9501, 120.37003, 252.80962, 120.28729, 252.79967);
        ((GeneralPath) shape).curveTo(120.06785, 252.77332, 119.8482, 252.85062, 119.62865, 252.8761);
        ((GeneralPath) shape).closePath();

        g.setPaint(new Color(0x66FF00));
        g.draw(shape);

        g.setTransform(transformations.poll()); // _0_0

    }

    /**
     * Returns the X of the bounding box of the original SVG image.
     *
     * @return The X of the bounding box of the original SVG image.
     */
    public static int getOrigX() {
        return 6;
    }

    /**
     * Returns the Y of the bounding box of the original SVG image.
     *
     * @return The Y of the bounding box of the original SVG image.
     */
    public static int getOrigY() {
        return 5;
    }

    /**
     * Returns the width of the bounding box of the original SVG image.
     *
     * @return The width of the bounding box of the original SVG image.
     */
    public static int getOrigWidth() {
        return 115;
    }

    /**
     * Returns the height of the bounding box of the original SVG image.
     *
     * @return The height of the bounding box of the original SVG image.
     */
    public static int getOrigHeight() {
        return 122;
    }

    /**
     * The current width of this resizable icon.
     */
    int width;

    /**
     * The current height of this resizable icon.
     */
    int height;

    /**
     * Creates a new transcoded SVG image.
     */
    public RestoreShapes() {
        this.width = getOrigWidth();
        this.height = getOrigHeight();
    }

    @Override
    public int getIconHeight() {
        return height;
    }

    @Override
    public int getIconWidth() {
        return width;
    }

    /*
     * (non-Javadoc)
     * 
     * @see org.pushingpixels.flamingo.api.common.icon.ResizableIcon#setDimension(java.awt.Dimension)
     */
    @Override
    public void setDimension(Dimension dimension) {
        this.width = dimension.width;
        this.height = dimension.height;
    }

    @Override
    public void paintIcon(Component c, Graphics g, int x, int y) {
        Graphics2D g2d = (Graphics2D) g.create();
        g2d.setRenderingHint(RenderingHints.KEY_ANTIALIASING, RenderingHints.VALUE_ANTIALIAS_ON);
        g2d.translate(x, y);

        double coef1 = (double) this.width / (double) getOrigWidth();
        double coef2 = (double) this.height / (double) getOrigHeight();
        double coef = Math.min(coef1, coef2);
        g2d.scale(coef, coef);
        paint(g2d);
        g2d.dispose();
    }
}

