package com.actelion.research.orbit.imageAnalysis.components.icons;

import java.awt.*;
import java.awt.geom.*;
import java.awt.image.BufferedImage;
import java.io.*;
import java.lang.ref.WeakReference;
import java.util.Base64;
import java.util.Stack;
import javax.imageio.ImageIO;
import javax.swing.SwingUtilities;
import javax.swing.plaf.UIResource;

import org.pushingpixels.neon.api.icon.ResizableIcon;
import org.pushingpixels.neon.api.icon.ResizableIconUIResource;

/**
 * This class has been automatically generated using <a
 * href="https://github.com/kirill-grouchnikov/radiance">Photon SVG transcoder</a>.
 */
public class slidepreview implements ResizableIcon {
    private Shape shape = null;
    private GeneralPath generalPath = null;
    private Paint paint = null;
    private Stroke stroke = null;
    private Shape clip = null;
    private Stack<AffineTransform> transformsStack = new Stack<>();

    

	private void _paint0(Graphics2D g,float origAlpha) {
transformsStack.push(g.getTransform());
// 
g.setComposite(AlphaComposite.getInstance(3, 1.0f * origAlpha));
transformsStack.push(g.getTransform());
g.transform(new AffineTransform(1.0f, 0.0f, 0.0f, 1.0f, -0.0f, -0.0f));
// _0
g.setComposite(AlphaComposite.getInstance(3, 1.0f * origAlpha));
transformsStack.push(g.getTransform());
g.transform(new AffineTransform(1.0f, 0.0f, 0.0f, 1.0f, 104.2738037109375f, -312.0760803222656f));
// _0_0
g.setComposite(AlphaComposite.getInstance(3, 1.0f * origAlpha));
transformsStack.push(g.getTransform());
g.transform(new AffineTransform(0.7385876178741455f, 0.0f, 0.0f, 1.0f, -100.57259368896484f, 311.8841857910156f));
// _0_0_0
g.setComposite(AlphaComposite.getInstance(3, 0.5f * origAlpha));
transformsStack.push(g.getTransform());
g.transform(new AffineTransform(1.0f, 0.0f, 0.0f, 1.0f, 0.0f, 0.0f));
// _0_0_0_0
if (generalPath == null) {
   generalPath = new GeneralPath();
} else {
   generalPath.reset();
}
generalPath.moveTo(11.861845f, 10.266208f);
generalPath.lineTo(11.893095f, 102.297455f);
generalPath.lineTo(11.861845f, 194.29745f);
generalPath.lineTo(111.86184f, 194.29745f);
generalPath.lineTo(111.86184f, 117.766205f);
generalPath.lineTo(111.86184f, 86.766205f);
generalPath.lineTo(111.86184f, 10.266205f);
generalPath.lineTo(11.861847f, 10.266205f);
generalPath.closePath();
shape = generalPath;
paint = new Color(0, 0, 0, 255);
g.setPaint(paint);
g.fill(shape);
g.setTransform(transformsStack.pop());
g.setComposite(AlphaComposite.getInstance(3, 1.0f * origAlpha));
transformsStack.push(g.getTransform());
g.transform(new AffineTransform(1.0f, 0.0f, 0.0f, 1.0f, 0.0f, 0.0f));
// _0_0_0_1
if (generalPath == null) {
   generalPath = new GeneralPath();
} else {
   generalPath.reset();
}
generalPath.moveTo(13.556394f, 11.359958f);
generalPath.lineTo(13.556394f, 49.626534f);
generalPath.lineTo(13.556394f, 154.22183f);
generalPath.lineTo(13.556394f, 192.4884f);
generalPath.lineTo(109.5564f, 192.4884f);
generalPath.lineTo(109.5564f, 109.81665f);
generalPath.lineTo(109.5564f, 94.031685f);
generalPath.lineTo(109.5564f, 11.35994f);
generalPath.lineTo(13.556404f, 11.35994f);
generalPath.closePath();
shape = generalPath;
paint = new Color(255, 255, 255, 255);
g.setPaint(paint);
g.fill(shape);
paint = new LinearGradientPaint(new Point2D.Double(15.5, 98.5642318725586), new Point2D.Double(112.5, 98.5642318725586), new float[] {0.0f,1.0f}, new Color[] {new Color(0, 0, 0, 255),new Color(0, 0, 0, 0)}, MultipleGradientPaint.CycleMethod.NO_CYCLE, MultipleGradientPaint.ColorSpaceType.SRGB, new AffineTransform(1.0f, 0.0f, 0.0f, 1.0f, -2.443605899810791f, 3.3599579334259033f));
stroke = new BasicStroke(1.0f,0,0,4.0f,null,0.0f);
if (generalPath == null) {
   generalPath = new GeneralPath();
} else {
   generalPath.reset();
}
generalPath.moveTo(13.556394f, 11.359958f);
generalPath.lineTo(13.556394f, 49.626534f);
generalPath.lineTo(13.556394f, 154.22183f);
generalPath.lineTo(13.556394f, 192.4884f);
generalPath.lineTo(109.5564f, 192.4884f);
generalPath.lineTo(109.5564f, 109.81665f);
generalPath.lineTo(109.5564f, 94.031685f);
generalPath.lineTo(109.5564f, 11.35994f);
generalPath.lineTo(13.556404f, 11.35994f);
generalPath.closePath();
shape = generalPath;
g.setPaint(paint);
g.setStroke(stroke);
g.draw(shape);
g.setTransform(transformsStack.pop());
g.setComposite(AlphaComposite.getInstance(3, 1.0f * origAlpha));
transformsStack.push(g.getTransform());
g.transform(new AffineTransform(1.0f, 0.0f, 0.0f, 1.0f, 0.0f, 0.0f));
// _0_0_0_2
if (generalPath == null) {
   generalPath = new GeneralPath();
} else {
   generalPath.reset();
}
generalPath.moveTo(15.702982f, 10.452039f);
generalPath.lineTo(15.702982f, 49.077156f);
generalPath.lineTo(15.702982f, 154.6525f);
generalPath.lineTo(15.702982f, 193.27762f);
generalPath.lineTo(112.60247f, 193.27762f);
generalPath.lineTo(112.60247f, 109.83127f);
generalPath.lineTo(112.60247f, 93.8984f);
generalPath.lineTo(112.60247f, 10.452049f);
generalPath.lineTo(15.70298f, 10.452049f);
generalPath.closePath();
shape = generalPath;
paint = new RadialGradientPaint(new Point2D.Double(103.09768676757812, 56.26235580444336), 48.9f, new Point2D.Double(103.09768676757812, 56.26235580444336), new float[] {0.0f,1.0f}, new Color[] {new Color(210, 242, 255, 255),new Color(243, 243, 243, 201)}, MultipleGradientPaint.CycleMethod.NO_CYCLE, MultipleGradientPaint.ColorSpaceType.SRGB, new AffineTransform(-1.228892207145691f, 2.168907403945923f, -1.6426172256469727f, -0.930698812007904f, 323.03851318359375f, -153.85885620117188f));
g.setPaint(paint);
g.fill(shape);
paint = new RadialGradientPaint(new Point2D.Double(18.182392120361328, 147.37173461914062), 48.5f, new Point2D.Double(18.182392120361328, 147.37173461914062), new float[] {0.0f,1.0f}, new Color[] {new Color(0, 0, 0, 255),new Color(0, 0, 0, 0)}, MultipleGradientPaint.CycleMethod.NO_CYCLE, MultipleGradientPaint.ColorSpaceType.SRGB, new AffineTransform(1.892987608909607f, -0.012713929638266563f, 0.012728540226817131f, 1.8951630592346191f, -18.080732345581055f, -89.32833099365234f));
stroke = new BasicStroke(1.8168653f,0,0,4.0f,null,0.0f);
if (generalPath == null) {
   generalPath = new GeneralPath();
} else {
   generalPath.reset();
}
generalPath.moveTo(15.702982f, 10.452039f);
generalPath.lineTo(15.702982f, 49.077156f);
generalPath.lineTo(15.702982f, 154.6525f);
generalPath.lineTo(15.702982f, 193.27762f);
generalPath.lineTo(112.60247f, 193.27762f);
generalPath.lineTo(112.60247f, 109.83127f);
generalPath.lineTo(112.60247f, 93.8984f);
generalPath.lineTo(112.60247f, 10.452049f);
generalPath.lineTo(15.70298f, 10.452049f);
generalPath.closePath();
shape = generalPath;
g.setPaint(paint);
g.setStroke(stroke);
g.draw(shape);
g.setTransform(transformsStack.pop());
g.setComposite(AlphaComposite.getInstance(3, 1.0f * origAlpha));
transformsStack.push(g.getTransform());
g.transform(new AffineTransform(1.0f, 0.0f, 0.0f, 1.0f, 0.0f, 0.0f));
// _0_0_0_3
g.setComposite(AlphaComposite.getInstance(3, 1.0f * origAlpha));
transformsStack.push(g.getTransform());
g.transform(new AffineTransform(1.0f, 0.0f, 0.0f, 1.0f, 0.0f, 0.0f));
// _0_0_0_3_0
if (generalPath == null) {
   generalPath = new GeneralPath();
} else {
   generalPath.reset();
}
generalPath.moveTo(47.032032f, 42.984238f);
generalPath.curveTo(46.9115f, 42.99054f, 46.80502f, 43.013386f, 46.688282f, 43.046738f);
generalPath.curveTo(46.100063f, 43.214798f, 43.872826f, 44.405834f, 43.563282f, 44.921738f);
generalPath.curveTo(43.072773f, 45.739254f, 44.14471f, 50.572273f, 44.407032f, 51.359238f);
generalPath.curveTo(44.734028f, 52.340225f, 46.004692f, 55.445168f, 45.438282f, 56.577988f);
generalPath.curveTo(45.17401f, 57.10653f, 40.59938f, 56.534706f, 39.813282f, 56.796738f);
generalPath.curveTo(39.566742f, 56.878918f, 39.422318f, 57.304718f, 39.188282f, 57.421738f);
generalPath.curveTo(36.475513f, 58.778122f, 36.06012f, 60.656464f, 38.157032f, 63.015488f);
generalPath.curveTo(38.92808f, 63.88292f, 39.53362f, 64.36906f, 40.438282f, 65.10924f);
generalPath.curveTo(41.237274f, 65.76296f, 42.07063f, 66.42646f, 42.938282f, 66.98424f);
generalPath.curveTo(42.946682f, 66.98964f, 43.06471f, 67.07576f, 43.157032f, 67.14049f);
generalPath.curveTo(42.28938f, 67.698265f, 41.456024f, 68.36176f, 40.657032f, 69.01549f);
generalPath.curveTo(39.75237f, 69.75567f, 39.14683f, 70.241806f, 38.375782f, 71.10924f);
generalPath.curveTo(36.27887f, 73.46826f, 36.694263f, 75.3466f, 39.407032f, 76.70299f);
generalPath.curveTo(39.641068f, 76.82001f, 39.785492f, 77.245804f, 40.032032f, 77.32799f);
generalPath.curveTo(40.81813f, 77.59002f, 45.39276f, 77.018196f, 45.657032f, 77.54674f);
generalPath.curveTo(46.223442f, 78.67956f, 44.952778f, 81.7845f, 44.625782f, 82.76549f);
generalPath.curveTo(44.36346f, 83.55245f, 43.291523f, 88.385475f, 43.782032f, 89.20299f);
generalPath.curveTo(44.091576f, 89.718895f, 46.318813f, 90.90993f, 46.907032f, 91.07799f);
generalPath.curveTo(47.02377f, 91.111336f, 47.13025f, 91.134186f, 47.250782f, 91.14049f);
generalPath.curveTo(47.61238f, 91.15925f, 48.011555f, 91.07799f, 48.375782f, 91.07799f);
generalPath.curveTo(48.92628f, 91.07799f, 49.687508f, 91.21099f, 50.219532f, 91.07799f);
generalPath.curveTo(53.542244f, 90.24731f, 58.220936f, 85.76991f, 60.219532f, 83.17174f);
generalPath.curveTo(60.934242f, 82.242615f, 63.451977f, 78.60538f, 62.719532f, 77.14049f);
generalPath.curveTo(62.50649f, 76.7144f, 62.354935f, 77.09534f, 62.094532f, 76.92174f);
generalPath.curveTo(61.93126f, 76.81289f, 61.85155f, 76.62434f, 61.688282f, 76.51549f);
generalPath.curveTo(61.19082f, 76.183846f, 60.625782f, 76.70833f, 60.625782f, 75.89049f);
generalPath.curveTo(60.625782f, 75.75173f, 60.52767f, 75.551094f, 60.625782f, 75.45299f);
generalPath.curveTo(60.63689f, 75.44188f, 63.133064f, 75.195f, 63.344532f, 75.26549f);
generalPath.curveTo(63.53069f, 75.32754f, 63.57527f, 75.58398f, 63.750782f, 75.67174f);
generalPath.curveTo(63.90936f, 75.75103f, 64.13993f, 75.598045f, 64.18828f, 75.45299f);
generalPath.curveTo(64.41218f, 74.781296f, 64.30156f, 71.902214f, 64.18828f, 71.10924f);
generalPath.curveTo(64.09428f, 70.45124f, 63.775757f, 69.65293f, 63.56328f, 69.01549f);
generalPath.curveTo(63.376507f, 68.45517f, 63.440308f, 67.657486f, 63.50078f, 66.92174f);
generalPath.lineTo(63.25078f, 66.92174f);
generalPath.curveTo(63.20065f, 66.268776f, 63.181168f, 65.599304f, 63.34453f, 65.10924f);
generalPath.curveTo(63.557007f, 64.471794f, 63.875526f, 63.673485f, 63.96953f, 63.015488f);
generalPath.curveTo(64.08281f, 62.22251f, 64.19343f, 59.34343f, 63.96953f, 58.671738f);
generalPath.curveTo(63.921177f, 58.526676f, 63.690605f, 58.3737f, 63.53203f, 58.452988f);
generalPath.curveTo(63.356518f, 58.54075f, 63.311935f, 58.797188f, 63.12578f, 58.859238f);
generalPath.curveTo(62.91431f, 58.92973f, 60.418137f, 58.682846f, 60.40703f, 58.671738f);
generalPath.curveTo(60.308918f, 58.573627f, 60.40703f, 58.37299f, 60.40703f, 58.234238f);
generalPath.curveTo(60.40703f, 57.4164f, 60.972065f, 57.94088f, 61.46953f, 57.609238f);
generalPath.curveTo(61.632797f, 57.50039f, 61.712505f, 57.311836f, 61.87578f, 57.202988f);
generalPath.curveTo(62.13618f, 57.02939f, 62.287735f, 57.410324f, 62.50078f, 56.984238f);
generalPath.curveTo(63.233223f, 55.519352f, 60.71549f, 51.88211f, 60.00078f, 50.952988f);
generalPath.curveTo(58.002182f, 48.354813f, 53.323486f, 43.877415f, 50.00078f, 43.046738f);
generalPath.curveTo(49.468754f, 42.91373f, 48.707527f, 43.046738f, 48.15703f, 43.046738f);
generalPath.curveTo(47.7928f, 43.046738f, 47.393627f, 42.965477f, 47.03203f, 42.984238f);
generalPath.closePath();
shape = generalPath;
paint = new Color(137, 93, 133, 255);
g.setPaint(paint);
g.fill(shape);
g.setTransform(transformsStack.pop());
g.setComposite(AlphaComposite.getInstance(3, 1.0f * origAlpha));
transformsStack.push(g.getTransform());
g.transform(new AffineTransform(1.0f, 0.0f, 0.0f, 1.0f, 0.0f, 0.0f));
// _0_0_0_3_1
if (generalPath == null) {
   generalPath = new GeneralPath();
} else {
   generalPath.reset();
}
generalPath.moveTo(47.190765f, 48.610233f);
generalPath.curveTo(50.827255f, 55.345543f, 42.249077f, 59.38905f, 41.946007f, 63.784218f);
generalPath.curveTo(46.886986f, 66.969444f, 44.94861f, 71.00371f, 40.306477f, 72.10051f);
generalPath.curveTo(41.156918f, 78.598434f, 51.59971f, 71.89883f, 48.006218f, 80.65884f);
generalPath.curveTo(42.208946f, 90.73026f, 56.789257f, 87.16943f, 60.114906f, 82.24595f);
generalPath.curveTo(64.40873f, 78.312614f, 58.117657f, 75.49999f, 63.698467f, 74.13813f);
generalPath.curveTo(61.926117f, 66.74273f, 62.0934f, 59.405373f, 57.65365f, 52.4432f);
generalPath.curveTo(55.63117f, 48.13479f, 51.024147f, 47.654594f, 47.36599f, 46.784595f);
shape = generalPath;
paint = new Color(170, 102, 183, 255);
g.setPaint(paint);
g.fill(shape);
g.setTransform(transformsStack.pop());
g.setTransform(transformsStack.pop());
g.setComposite(AlphaComposite.getInstance(3, 0.7876106f * origAlpha));
transformsStack.push(g.getTransform());
g.transform(new AffineTransform(1.0f, 0.0f, 0.0f, 1.0f, 0.0f, 0.0f));
// _0_0_0_4
shape = new Rectangle2D.Double(18.937944412231445, 136.8580780029297, 88.88616180419922, 51.01026916503906);
paint = new Color(255, 255, 255, 255);
g.setPaint(paint);
g.fill(shape);
paint = new LinearGradientPaint(new Point2D.Double(57.019283294677734, 132.4290313720703), new Point2D.Double(55.3865852355957, 189.85377502441406), new float[] {0.0f,1.0f}, new Color[] {new Color(0, 0, 0, 255),new Color(0, 0, 0, 0)}, MultipleGradientPaint.CycleMethod.NO_CYCLE, MultipleGradientPaint.ColorSpaceType.SRGB, new AffineTransform(1.0f, 0.0f, 0.0f, 1.0f, 0.0f, 0.0f));
stroke = new BasicStroke(0.2f,1,1,4.0f,null,0.0f);
shape = new Rectangle2D.Double(18.937944412231445, 136.8580780029297, 88.88616180419922, 51.01026916503906);
g.setPaint(paint);
g.setStroke(stroke);
g.draw(shape);
g.setTransform(transformsStack.pop());
g.setComposite(AlphaComposite.getInstance(3, 1.0f * origAlpha));
transformsStack.push(g.getTransform());
g.transform(new AffineTransform(1.2418439388275146f, 0.0f, 0.0f, 1.0f, -5.451368808746338f, 0.0f));
// _0_0_0_5
g.setComposite(AlphaComposite.getInstance(3, 1.0f * origAlpha));
transformsStack.push(g.getTransform());
g.transform(new AffineTransform(1.0f, 0.0f, 0.0f, 1.0f, 0.0f, 0.0f));
// _0_0_0_5_0
g.setComposite(AlphaComposite.getInstance(3, 1.0f * origAlpha));
transformsStack.push(g.getTransform());
g.transform(new AffineTransform(1.0f, 0.0f, 0.0f, 0.38382488489151f, 221.75723266601562f, 165.20057678222656f));
// _0_0_0_5_0_0
g.setComposite(AlphaComposite.getInstance(3, 0.7876106f * origAlpha));
transformsStack.push(g.getTransform());
g.transform(new AffineTransform(1.0f, 0.0f, 0.0f, 1.0f, 0.0f, 0.0f));
// _0_0_0_5_0_0_0
shape = new Rectangle2D.Double(-186.7389678955078, 11.896512985229492, 0.9807788133621216, 37.023963928222656);
paint = new Color(0, 0, 0, 255);
g.setPaint(paint);
g.fill(shape);
paint = new Color(0, 0, 0, 255);
stroke = new BasicStroke(0.1355733f,1,1,4.0f,null,0.0f);
shape = new Rectangle2D.Double(-186.7389678955078, 11.896512985229492, 0.9807788133621216, 37.023963928222656);
g.setPaint(paint);
g.setStroke(stroke);
g.draw(shape);
g.setTransform(transformsStack.pop());
g.setComposite(AlphaComposite.getInstance(3, 0.7876106f * origAlpha));
transformsStack.push(g.getTransform());
g.transform(new AffineTransform(1.0f, 0.0f, 0.0f, 1.0f, 0.0f, 0.0f));
// _0_0_0_5_0_0_1
shape = new Rectangle2D.Double(-189.53216552734375, 11.928726196289062, 2.138154983520508, 36.959537506103516);
paint = new Color(0, 0, 0, 255);
g.setPaint(paint);
g.fill(shape);
paint = new Color(0, 0, 0, 255);
stroke = new BasicStroke(0.2f,1,1,4.0f,null,0.0f);
shape = new Rectangle2D.Double(-189.53216552734375, 11.928726196289062, 2.138154983520508, 36.959537506103516);
g.setPaint(paint);
g.setStroke(stroke);
g.draw(shape);
g.setTransform(transformsStack.pop());
g.setComposite(AlphaComposite.getInstance(3, 0.7876106f * origAlpha));
transformsStack.push(g.getTransform());
g.transform(new AffineTransform(1.0f, 0.0f, 0.0f, 1.0f, 0.0f, 0.0f));
// _0_0_0_5_0_0_2
shape = new Rectangle2D.Double(-196.3284454345703, 11.928726196289062, 2.138154983520508, 36.959537506103516);
paint = new Color(0, 0, 0, 255);
g.setPaint(paint);
g.fill(shape);
paint = new Color(0, 0, 0, 255);
stroke = new BasicStroke(0.2f,1,1,4.0f,null,0.0f);
shape = new Rectangle2D.Double(-196.3284454345703, 11.928726196289062, 2.138154983520508, 36.959537506103516);
g.setPaint(paint);
g.setStroke(stroke);
g.draw(shape);
g.setTransform(transformsStack.pop());
g.setComposite(AlphaComposite.getInstance(3, 0.7876106f * origAlpha));
transformsStack.push(g.getTransform());
g.transform(new AffineTransform(1.0f, 0.0f, 0.0f, 1.0f, 0.0f, 0.0f));
// _0_0_0_5_0_0_3
shape = new Rectangle2D.Double(-199.15386962890625, 11.928726196289062, 2.138154983520508, 36.959537506103516);
paint = new Color(0, 0, 0, 255);
g.setPaint(paint);
g.fill(shape);
paint = new Color(0, 0, 0, 255);
stroke = new BasicStroke(0.2f,1,1,4.0f,null,0.0f);
shape = new Rectangle2D.Double(-199.15386962890625, 11.928726196289062, 2.138154983520508, 36.959537506103516);
g.setPaint(paint);
g.setStroke(stroke);
g.draw(shape);
g.setTransform(transformsStack.pop());
g.setComposite(AlphaComposite.getInstance(3, 0.7876106f * origAlpha));
transformsStack.push(g.getTransform());
g.transform(new AffineTransform(1.0f, 0.0f, 0.0f, 1.0f, 0.0f, 0.0f));
// _0_0_0_5_0_0_4
shape = new Rectangle2D.Double(-178.72088623046875, 11.896512985229492, 0.9807788133621216, 37.023963928222656);
paint = new Color(0, 0, 0, 255);
g.setPaint(paint);
g.fill(shape);
paint = new Color(0, 0, 0, 255);
stroke = new BasicStroke(0.1355733f,1,1,4.0f,null,0.0f);
shape = new Rectangle2D.Double(-178.72088623046875, 11.896512985229492, 0.9807788133621216, 37.023963928222656);
g.setPaint(paint);
g.setStroke(stroke);
g.draw(shape);
g.setTransform(transformsStack.pop());
g.setComposite(AlphaComposite.getInstance(3, 0.7876106f * origAlpha));
transformsStack.push(g.getTransform());
g.transform(new AffineTransform(1.0f, 0.0f, 0.0f, 1.0f, 0.0f, 0.0f));
// _0_0_0_5_0_0_5
shape = new Rectangle2D.Double(-172.99368286132812, 11.896512985229492, 0.9807788133621216, 37.023963928222656);
paint = new Color(0, 0, 0, 255);
g.setPaint(paint);
g.fill(shape);
paint = new Color(0, 0, 0, 255);
stroke = new BasicStroke(0.1355733f,1,1,4.0f,null,0.0f);
shape = new Rectangle2D.Double(-172.99368286132812, 11.896512985229492, 0.9807788133621216, 37.023963928222656);
g.setPaint(paint);
g.setStroke(stroke);
g.draw(shape);
g.setTransform(transformsStack.pop());
g.setComposite(AlphaComposite.getInstance(3, 0.7876106f * origAlpha));
transformsStack.push(g.getTransform());
g.transform(new AffineTransform(1.0f, 0.0f, 0.0f, 1.0f, 0.0f, 0.0f));
// _0_0_0_5_0_0_6
shape = new Rectangle2D.Double(-175.78688049316406, 11.928726196289062, 2.138154983520508, 36.959537506103516);
paint = new Color(0, 0, 0, 255);
g.setPaint(paint);
g.fill(shape);
paint = new Color(0, 0, 0, 255);
stroke = new BasicStroke(0.2f,1,1,4.0f,null,0.0f);
shape = new Rectangle2D.Double(-175.78688049316406, 11.928726196289062, 2.138154983520508, 36.959537506103516);
g.setPaint(paint);
g.setStroke(stroke);
g.draw(shape);
g.setTransform(transformsStack.pop());
g.setComposite(AlphaComposite.getInstance(3, 0.7876106f * origAlpha));
transformsStack.push(g.getTransform());
g.transform(new AffineTransform(1.0f, 0.0f, 0.0f, 1.0f, 0.0f, 0.0f));
// _0_0_0_5_0_0_7
shape = new Rectangle2D.Double(-182.58316040039062, 11.928726196289062, 2.138154983520508, 36.959537506103516);
paint = new Color(0, 0, 0, 255);
g.setPaint(paint);
g.fill(shape);
paint = new Color(0, 0, 0, 255);
stroke = new BasicStroke(0.2f,1,1,4.0f,null,0.0f);
shape = new Rectangle2D.Double(-182.58316040039062, 11.928726196289062, 2.138154983520508, 36.959537506103516);
g.setPaint(paint);
g.setStroke(stroke);
g.draw(shape);
g.setTransform(transformsStack.pop());
g.setComposite(AlphaComposite.getInstance(3, 0.7876106f * origAlpha));
transformsStack.push(g.getTransform());
g.transform(new AffineTransform(1.0f, 0.0f, 0.0f, 1.0f, 0.0f, 0.0f));
// _0_0_0_5_0_0_8
shape = new Rectangle2D.Double(-185.40858459472656, 11.928726196289062, 2.138154983520508, 36.959537506103516);
paint = new Color(0, 0, 0, 255);
g.setPaint(paint);
g.fill(shape);
paint = new Color(0, 0, 0, 255);
stroke = new BasicStroke(0.2f,1,1,4.0f,null,0.0f);
shape = new Rectangle2D.Double(-185.40858459472656, 11.928726196289062, 2.138154983520508, 36.959537506103516);
g.setPaint(paint);
g.setStroke(stroke);
g.draw(shape);
g.setTransform(transformsStack.pop());
g.setComposite(AlphaComposite.getInstance(3, 0.7876106f * origAlpha));
transformsStack.push(g.getTransform());
g.transform(new AffineTransform(1.0f, 0.0f, 0.0f, 1.0f, 0.0f, 0.0f));
// _0_0_0_5_0_0_9
shape = new Rectangle2D.Double(-164.97560119628906, 11.896512985229492, 0.9807788133621216, 37.023963928222656);
paint = new Color(0, 0, 0, 255);
g.setPaint(paint);
g.fill(shape);
paint = new Color(0, 0, 0, 255);
stroke = new BasicStroke(0.1355733f,1,1,4.0f,null,0.0f);
shape = new Rectangle2D.Double(-164.97560119628906, 11.896512985229492, 0.9807788133621216, 37.023963928222656);
g.setPaint(paint);
g.setStroke(stroke);
g.draw(shape);
g.setTransform(transformsStack.pop());
g.setTransform(transformsStack.pop());
g.setComposite(AlphaComposite.getInstance(3, 1.0f * origAlpha));
transformsStack.push(g.getTransform());
g.transform(new AffineTransform(-1.0f, 0.0f, 0.0f, 0.38382488489151f, -112.37364196777344f, 165.20057678222656f));
// _0_0_0_5_0_1
g.setComposite(AlphaComposite.getInstance(3, 0.7876106f * origAlpha));
transformsStack.push(g.getTransform());
g.transform(new AffineTransform(1.0f, 0.0f, 0.0f, 1.0f, 0.0f, 0.0f));
// _0_0_0_5_0_1_0
shape = new Rectangle2D.Double(-186.7389678955078, 11.896512985229492, 0.9807788133621216, 37.023963928222656);
paint = new Color(0, 0, 0, 255);
g.setPaint(paint);
g.fill(shape);
paint = new Color(0, 0, 0, 255);
stroke = new BasicStroke(0.1355733f,1,1,4.0f,null,0.0f);
shape = new Rectangle2D.Double(-186.7389678955078, 11.896512985229492, 0.9807788133621216, 37.023963928222656);
g.setPaint(paint);
g.setStroke(stroke);
g.draw(shape);
g.setTransform(transformsStack.pop());
g.setComposite(AlphaComposite.getInstance(3, 0.7876106f * origAlpha));
transformsStack.push(g.getTransform());
g.transform(new AffineTransform(1.0f, 0.0f, 0.0f, 1.0f, 0.0f, 0.0f));
// _0_0_0_5_0_1_1
shape = new Rectangle2D.Double(-189.53216552734375, 11.928726196289062, 2.138154983520508, 36.959537506103516);
paint = new Color(0, 0, 0, 255);
g.setPaint(paint);
g.fill(shape);
paint = new Color(0, 0, 0, 255);
stroke = new BasicStroke(0.2f,1,1,4.0f,null,0.0f);
shape = new Rectangle2D.Double(-189.53216552734375, 11.928726196289062, 2.138154983520508, 36.959537506103516);
g.setPaint(paint);
g.setStroke(stroke);
g.draw(shape);
g.setTransform(transformsStack.pop());
g.setComposite(AlphaComposite.getInstance(3, 0.7876106f * origAlpha));
transformsStack.push(g.getTransform());
g.transform(new AffineTransform(1.0f, 0.0f, 0.0f, 1.0f, 0.0f, 0.0f));
// _0_0_0_5_0_1_2
shape = new Rectangle2D.Double(-196.3284454345703, 11.928726196289062, 2.138154983520508, 36.959537506103516);
paint = new Color(0, 0, 0, 255);
g.setPaint(paint);
g.fill(shape);
paint = new Color(0, 0, 0, 255);
stroke = new BasicStroke(0.2f,1,1,4.0f,null,0.0f);
shape = new Rectangle2D.Double(-196.3284454345703, 11.928726196289062, 2.138154983520508, 36.959537506103516);
g.setPaint(paint);
g.setStroke(stroke);
g.draw(shape);
g.setTransform(transformsStack.pop());
g.setComposite(AlphaComposite.getInstance(3, 0.7876106f * origAlpha));
transformsStack.push(g.getTransform());
g.transform(new AffineTransform(1.0f, 0.0f, 0.0f, 1.0f, 0.0f, 0.0f));
// _0_0_0_5_0_1_3
shape = new Rectangle2D.Double(-199.15386962890625, 11.928726196289062, 2.138154983520508, 36.959537506103516);
paint = new Color(0, 0, 0, 255);
g.setPaint(paint);
g.fill(shape);
paint = new Color(0, 0, 0, 255);
stroke = new BasicStroke(0.2f,1,1,4.0f,null,0.0f);
shape = new Rectangle2D.Double(-199.15386962890625, 11.928726196289062, 2.138154983520508, 36.959537506103516);
g.setPaint(paint);
g.setStroke(stroke);
g.draw(shape);
g.setTransform(transformsStack.pop());
g.setComposite(AlphaComposite.getInstance(3, 0.7876106f * origAlpha));
transformsStack.push(g.getTransform());
g.transform(new AffineTransform(1.0f, 0.0f, 0.0f, 1.0f, 0.0f, 0.0f));
// _0_0_0_5_0_1_4
shape = new Rectangle2D.Double(-178.72088623046875, 11.896512985229492, 0.9807788133621216, 37.023963928222656);
paint = new Color(0, 0, 0, 255);
g.setPaint(paint);
g.fill(shape);
paint = new Color(0, 0, 0, 255);
stroke = new BasicStroke(0.1355733f,1,1,4.0f,null,0.0f);
shape = new Rectangle2D.Double(-178.72088623046875, 11.896512985229492, 0.9807788133621216, 37.023963928222656);
g.setPaint(paint);
g.setStroke(stroke);
g.draw(shape);
g.setTransform(transformsStack.pop());
g.setComposite(AlphaComposite.getInstance(3, 0.7876106f * origAlpha));
transformsStack.push(g.getTransform());
g.transform(new AffineTransform(1.0f, 0.0f, 0.0f, 1.0f, 0.0f, 0.0f));
// _0_0_0_5_0_1_5
shape = new Rectangle2D.Double(-172.99368286132812, 11.896512985229492, 0.9807788133621216, 37.023963928222656);
paint = new Color(0, 0, 0, 255);
g.setPaint(paint);
g.fill(shape);
paint = new Color(0, 0, 0, 255);
stroke = new BasicStroke(0.1355733f,1,1,4.0f,null,0.0f);
shape = new Rectangle2D.Double(-172.99368286132812, 11.896512985229492, 0.9807788133621216, 37.023963928222656);
g.setPaint(paint);
g.setStroke(stroke);
g.draw(shape);
g.setTransform(transformsStack.pop());
g.setComposite(AlphaComposite.getInstance(3, 0.7876106f * origAlpha));
transformsStack.push(g.getTransform());
g.transform(new AffineTransform(1.0f, 0.0f, 0.0f, 1.0f, 0.0f, 0.0f));
// _0_0_0_5_0_1_6
shape = new Rectangle2D.Double(-175.78688049316406, 11.928726196289062, 2.138154983520508, 36.959537506103516);
paint = new Color(0, 0, 0, 255);
g.setPaint(paint);
g.fill(shape);
paint = new Color(0, 0, 0, 255);
stroke = new BasicStroke(0.2f,1,1,4.0f,null,0.0f);
shape = new Rectangle2D.Double(-175.78688049316406, 11.928726196289062, 2.138154983520508, 36.959537506103516);
g.setPaint(paint);
g.setStroke(stroke);
g.draw(shape);
g.setTransform(transformsStack.pop());
g.setComposite(AlphaComposite.getInstance(3, 0.7876106f * origAlpha));
transformsStack.push(g.getTransform());
g.transform(new AffineTransform(1.0f, 0.0f, 0.0f, 1.0f, 0.0f, 0.0f));
// _0_0_0_5_0_1_7
shape = new Rectangle2D.Double(-182.58316040039062, 11.928726196289062, 2.138154983520508, 36.959537506103516);
paint = new Color(0, 0, 0, 255);
g.setPaint(paint);
g.fill(shape);
paint = new Color(0, 0, 0, 255);
stroke = new BasicStroke(0.2f,1,1,4.0f,null,0.0f);
shape = new Rectangle2D.Double(-182.58316040039062, 11.928726196289062, 2.138154983520508, 36.959537506103516);
g.setPaint(paint);
g.setStroke(stroke);
g.draw(shape);
g.setTransform(transformsStack.pop());
g.setComposite(AlphaComposite.getInstance(3, 0.7876106f * origAlpha));
transformsStack.push(g.getTransform());
g.transform(new AffineTransform(1.0f, 0.0f, 0.0f, 1.0f, 0.0f, 0.0f));
// _0_0_0_5_0_1_8
shape = new Rectangle2D.Double(-185.40858459472656, 11.928726196289062, 2.138154983520508, 36.959537506103516);
paint = new Color(0, 0, 0, 255);
g.setPaint(paint);
g.fill(shape);
paint = new Color(0, 0, 0, 255);
stroke = new BasicStroke(0.2f,1,1,4.0f,null,0.0f);
shape = new Rectangle2D.Double(-185.40858459472656, 11.928726196289062, 2.138154983520508, 36.959537506103516);
g.setPaint(paint);
g.setStroke(stroke);
g.draw(shape);
g.setTransform(transformsStack.pop());
g.setComposite(AlphaComposite.getInstance(3, 0.7876106f * origAlpha));
transformsStack.push(g.getTransform());
g.transform(new AffineTransform(1.0f, 0.0f, 0.0f, 1.0f, 0.0f, 0.0f));
// _0_0_0_5_0_1_9
shape = new Rectangle2D.Double(-164.97560119628906, 11.896512985229492, 0.9807788133621216, 37.023963928222656);
paint = new Color(0, 0, 0, 255);
g.setPaint(paint);
g.fill(shape);
paint = new Color(0, 0, 0, 255);
stroke = new BasicStroke(0.1355733f,1,1,4.0f,null,0.0f);
shape = new Rectangle2D.Double(-164.97560119628906, 11.896512985229492, 0.9807788133621216, 37.023963928222656);
g.setPaint(paint);
g.setStroke(stroke);
g.draw(shape);
g.setTransform(transformsStack.pop());
g.setTransform(transformsStack.pop());
g.setTransform(transformsStack.pop());
g.setTransform(transformsStack.pop());
g.setComposite(AlphaComposite.getInstance(3, 1.0f * origAlpha));
transformsStack.push(g.getTransform());
g.transform(new AffineTransform(0.9343072772026062f, 0.0f, 0.0f, 1.0703116655349731f, 0.0f, 0.0f));
// _0_0_0_6
{
    Graphics2D gText = ((Graphics2D)g.create());
            Shape shapeText = null;
            GeneralPath generalPathText = null;
gText.setComposite(AlphaComposite.getInstance(3, 1.0f * origAlpha));
gText.setComposite(AlphaComposite.getInstance(3, 1.0f * origAlpha));
gText.setComposite(AlphaComposite.getInstance(3, 1.0f * origAlpha));
paint = new Color(0, 0, 0, 255);
gText.setPaint(paint);
if (generalPathText == null) {
   generalPathText = new GeneralPath();
} else {
   generalPathText.reset();
}
generalPathText.moveTo(24.16063f, 146.07475f);
generalPathText.lineTo(24.16063f, 136.71161f);
generalPathText.lineTo(30.930708f, 136.71161f);
generalPathText.lineTo(30.930708f, 137.8144f);
generalPathText.lineTo(25.399681f, 137.8144f);
generalPathText.lineTo(25.399681f, 140.68423f);
generalPathText.lineTo(30.581558f, 140.68423f);
generalPathText.lineTo(30.581558f, 141.78278f);
generalPathText.lineTo(25.399681f, 141.78278f);
generalPathText.lineTo(25.399681f, 144.9677f);
generalPathText.lineTo(31.147861f, 144.9677f);
generalPathText.lineTo(31.147861f, 146.07475f);
generalPathText.lineTo(24.16063f, 146.07475f);
generalPathText.closePath();
generalPathText.moveTo(32.808445f, 146.07475f);
generalPathText.lineTo(32.808445f, 136.71161f);
generalPathText.lineTo(34.047497f, 136.71161f);
generalPathText.lineTo(34.047497f, 144.9677f);
generalPathText.lineTo(38.658813f, 144.9677f);
generalPathText.lineTo(38.658813f, 146.07475f);
generalPathText.lineTo(32.808445f, 146.07475f);
generalPathText.closePath();
generalPathText.moveTo(40.083088f, 146.07475f);
generalPathText.lineTo(40.083088f, 136.71161f);
generalPathText.lineTo(43.595863f, 136.71161f);
generalPathText.quadTo(44.668858f, 136.71161f, 45.31606f, 136.99689f);
generalPathText.quadTo(45.967518f, 137.27791f, 46.3337f, 137.86977f);
generalPathText.quadTo(46.69988f, 138.46161f, 46.69988f, 139.10455f);
generalPathText.quadTo(46.69988f, 139.70493f, 46.37202f, 140.23715f);
generalPathText.quadTo(46.04842f, 140.76514f, 45.3927f, 141.093f);
generalPathText.quadTo(46.240025f, 141.33995f, 46.69562f, 141.94032f);
generalPathText.quadTo(47.155476f, 142.54068f, 47.155476f, 143.3582f);
generalPathText.quadTo(47.155476f, 144.01819f, 46.874454f, 144.58449f);
generalPathText.quadTo(46.59769f, 145.14653f, 46.18893f, 145.4531f);
generalPathText.quadTo(45.78017f, 145.75967f, 45.162773f, 145.9172f);
generalPathText.quadTo(44.549637f, 146.07475f, 43.655476f, 146.07475f);
generalPathText.lineTo(40.083088f, 146.07475f);
generalPathText.closePath();
generalPathText.moveTo(41.32214f, 140.64592f);
generalPathText.lineTo(43.348904f, 140.64592f);
generalPathText.quadTo(44.17068f, 140.64592f, 44.528347f, 140.53522f);
generalPathText.quadTo(45.000973f, 140.3947f, 45.239418f, 140.0711f);
generalPathText.quadTo(45.482117f, 139.74324f, 45.482117f, 139.25359f);
generalPathText.quadTo(45.482117f, 138.78522f, 45.256447f, 138.43181f);
generalPathText.quadTo(45.035038f, 138.0784f, 44.617764f, 137.9464f);
generalPathText.quadTo(44.204746f, 137.8144f, 43.19562f, 137.8144f);
generalPathText.lineTo(41.32214f, 137.8144f);
generalPathText.lineTo(41.32214f, 140.64592f);
generalPathText.closePath();
generalPathText.moveTo(41.32214f, 144.9677f);
generalPathText.lineTo(43.655476f, 144.9677f);
generalPathText.quadTo(44.25584f, 144.9677f, 44.49854f, 144.92511f);
generalPathText.quadTo(44.92433f, 144.84848f, 45.20961f, 144.66965f);
generalPathText.quadTo(45.49915f, 144.49081f, 45.68224f, 144.15018f);
generalPathText.quadTo(45.869587f, 143.80528f, 45.869587f, 143.3582f);
generalPathText.quadTo(45.869587f, 142.83449f, 45.601337f, 142.45126f);
generalPathText.quadTo(45.33309f, 142.0638f, 44.856205f, 141.90627f);
generalPathText.quadTo(44.383575f, 141.74872f, 43.489414f, 141.74872f);
generalPathText.lineTo(41.32214f, 141.74872f);
generalPathText.lineTo(41.32214f, 144.9677f);
generalPathText.closePath();
generalPathText.moveTo(48.394527f, 141.45493f);
generalPathText.quadTo(48.394527f, 139.79434f, 48.73516f, 138.78522f);
generalPathText.quadTo(49.07579f, 137.77182f, 49.748543f, 137.22255f);
generalPathText.quadTo(50.42555f, 136.67328f, 51.44745f, 136.67328f);
generalPathText.quadTo(52.2011f, 136.67328f, 52.7674f, 136.9756f);
generalPathText.quadTo(53.33796f, 137.27791f, 53.7084f, 137.85272f);
generalPathText.quadTo(54.07884f, 138.4233f, 54.287476f, 139.24507f);
generalPathText.quadTo(54.50037f, 140.06258f, 54.50037f, 141.45493f);
generalPathText.quadTo(54.50037f, 143.10274f, 54.159737f, 144.11612f);
generalPathText.quadTo(53.823364f, 145.1295f, 53.146355f, 145.68303f);
generalPathText.quadTo(52.473606f, 146.23656f, 51.44745f, 146.23656f);
generalPathText.quadTo(50.093433f, 146.23656f, 49.318493f, 145.26149f);
generalPathText.quadTo(48.394527f, 144.09482f, 48.394527f, 141.45493f);
generalPathText.closePath();
generalPathText.moveTo(49.573967f, 141.45493f);
generalPathText.quadTo(49.573967f, 143.76271f, 50.114723f, 144.52487f);
generalPathText.quadTo(50.655476f, 145.28703f, 51.44745f, 145.28703f);
generalPathText.quadTo(52.239418f, 145.28703f, 52.775917f, 144.52061f);
generalPathText.quadTo(53.31667f, 143.7542f, 53.31667f, 141.45493f);
generalPathText.quadTo(53.31667f, 139.14287f, 52.775917f, 138.38496f);
generalPathText.quadTo(52.239418f, 137.6228f, 51.434673f, 137.6228f);
generalPathText.quadTo(50.642704f, 137.6228f, 50.170074f, 138.29555f);
generalPathText.quadTo(49.573967f, 139.1514f, 49.573967f, 141.45493f);
generalPathText.closePath();
generalPathText.moveTo(55.669167f, 141.45493f);
generalPathText.quadTo(55.669167f, 139.79434f, 56.0098f, 138.78522f);
generalPathText.quadTo(56.35043f, 137.77182f, 57.023182f, 137.22255f);
generalPathText.quadTo(57.700188f, 136.67328f, 58.722088f, 136.67328f);
generalPathText.quadTo(59.47574f, 136.67328f, 60.042038f, 136.9756f);
generalPathText.quadTo(60.6126f, 137.27791f, 60.98304f, 137.85272f);
generalPathText.quadTo(61.353477f, 138.4233f, 61.562115f, 139.24507f);
generalPathText.quadTo(61.77501f, 140.06258f, 61.77501f, 141.45493f);
generalPathText.quadTo(61.77501f, 143.10274f, 61.434376f, 144.11612f);
generalPathText.quadTo(61.098003f, 145.1295f, 60.420994f, 145.68303f);
generalPathText.quadTo(59.748245f, 146.23656f, 58.722088f, 146.23656f);
generalPathText.quadTo(57.368073f, 146.23656f, 56.593132f, 145.26149f);
generalPathText.quadTo(55.669167f, 144.09482f, 55.669167f, 141.45493f);
generalPathText.closePath();
generalPathText.moveTo(56.848606f, 141.45493f);
generalPathText.quadTo(56.848606f, 143.76271f, 57.389362f, 144.52487f);
generalPathText.quadTo(57.930115f, 145.28703f, 58.722088f, 145.28703f);
generalPathText.quadTo(59.514057f, 145.28703f, 60.050556f, 144.52061f);
generalPathText.quadTo(60.59131f, 143.7542f, 60.59131f, 141.45493f);
generalPathText.quadTo(60.59131f, 139.14287f, 60.050556f, 138.38496f);
generalPathText.quadTo(59.514057f, 137.6228f, 58.709312f, 137.6228f);
generalPathText.quadTo(57.917343f, 137.6228f, 57.444714f, 138.29555f);
generalPathText.quadTo(56.848606f, 139.1514f, 56.848606f, 141.45493f);
generalPathText.closePath();
generalPathText.moveTo(63.11412f, 143.90747f);
generalPathText.lineTo(64.221176f, 143.80528f);
generalPathText.quadTo(64.36169f, 144.58449f, 64.757675f, 144.9379f);
generalPathText.quadTo(65.15366f, 145.28703f, 65.77106f, 145.28703f);
generalPathText.quadTo(66.3033f, 145.28703f, 66.69928f, 145.04434f);
generalPathText.quadTo(67.099525f, 144.80164f, 67.355f, 144.39714f);
generalPathText.quadTo(67.61047f, 143.99263f, 67.78079f, 143.30286f);
generalPathText.quadTo(67.95537f, 142.61307f, 67.95537f, 141.89774f);
generalPathText.quadTo(67.95537f, 141.8211f, 67.95111f, 141.66782f);
generalPathText.quadTo(67.60622f, 142.21709f, 67.00585f, 142.55772f);
generalPathText.quadTo(66.409744f, 142.89835f, 65.715706f, 142.89835f);
generalPathText.quadTo(64.55329f, 142.89835f, 63.74855f, 142.05528f);
generalPathText.quadTo(62.943806f, 141.21222f, 62.943806f, 139.83266f);
generalPathText.quadTo(62.943806f, 138.4105f, 63.78261f, 137.5419f);
generalPathText.quadTo(64.62142f, 136.67328f, 65.886024f, 136.67328f);
generalPathText.quadTo(66.801476f, 136.67328f, 67.55512f, 137.1672f);
generalPathText.quadTo(68.31303f, 137.65686f, 68.70476f, 138.56805f);
generalPathText.quadTo(69.100746f, 139.47499f, 69.100746f, 141.19945f);
generalPathText.quadTo(69.100746f, 142.99628f, 68.709015f, 144.06076f);
generalPathText.quadTo(68.32155f, 145.12099f, 67.550865f, 145.67877f);
generalPathText.quadTo(66.78018f, 146.23656f, 65.74551f, 146.23656f);
generalPathText.quadTo(64.64697f, 146.23656f, 63.948673f, 145.62767f);
generalPathText.quadTo(63.25463f, 145.01453f, 63.11412f, 143.90747f);
generalPathText.closePath();
generalPathText.moveTo(67.82337f, 139.7773f);
generalPathText.quadTo(67.82337f, 138.78522f, 67.29539f, 138.20613f);
generalPathText.quadTo(66.76741f, 137.6228f, 66.026535f, 137.6228f);
generalPathText.quadTo(65.26011f, 137.6228f, 64.689545f, 138.24872f);
generalPathText.quadTo(64.123245f, 138.87462f, 64.123245f, 139.87097f);
generalPathText.quadTo(64.123245f, 140.76514f, 64.664f, 141.32718f);
generalPathText.quadTo(65.20476f, 141.88496f, 65.99673f, 141.88496f);
generalPathText.quadTo(66.79295f, 141.88496f, 67.30817f, 141.32718f);
generalPathText.quadTo(67.82337f, 140.76514f, 67.82337f, 139.7773f);
generalPathText.closePath();
generalPathText.moveTo(70.218445f, 141.45493f);
generalPathText.quadTo(70.218445f, 139.79434f, 70.559074f, 138.78522f);
generalPathText.quadTo(70.89971f, 137.77182f, 71.57246f, 137.22255f);
generalPathText.quadTo(72.249466f, 136.67328f, 73.27136f, 136.67328f);
generalPathText.quadTo(74.02502f, 136.67328f, 74.59132f, 136.9756f);
generalPathText.quadTo(75.16188f, 137.27791f, 75.53232f, 137.85272f);
generalPathText.quadTo(75.902756f, 138.4233f, 76.11139f, 139.24507f);
generalPathText.quadTo(76.32429f, 140.06258f, 76.32429f, 141.45493f);
generalPathText.quadTo(76.32429f, 143.10274f, 75.98366f, 144.11612f);
generalPathText.quadTo(75.64728f, 145.1295f, 74.970276f, 145.68303f);
generalPathText.quadTo(74.29752f, 146.23656f, 73.27136f, 146.23656f);
generalPathText.quadTo(71.91735f, 146.23656f, 71.14241f, 145.26149f);
generalPathText.quadTo(70.218445f, 144.09482f, 70.218445f, 141.45493f);
generalPathText.closePath();
generalPathText.moveTo(71.39789f, 141.45493f);
generalPathText.quadTo(71.39789f, 143.76271f, 71.93864f, 144.52487f);
generalPathText.quadTo(72.47939f, 145.28703f, 73.27136f, 145.28703f);
generalPathText.quadTo(74.06334f, 145.28703f, 74.59983f, 144.52061f);
generalPathText.quadTo(75.14059f, 143.7542f, 75.14059f, 141.45493f);
generalPathText.quadTo(75.14059f, 139.14287f, 74.59983f, 138.38496f);
generalPathText.quadTo(74.06334f, 137.6228f, 73.25859f, 137.6228f);
generalPathText.quadTo(72.46662f, 137.6228f, 71.993996f, 138.29555f);
generalPathText.quadTo(71.39789f, 139.1514f, 71.39789f, 141.45493f);
generalPathText.closePath();
generalPathText.moveTo(77.36535f, 143.26453f);
generalPathText.lineTo(77.36535f, 142.10638f);
generalPathText.lineTo(80.89516f, 142.10638f);
generalPathText.lineTo(80.89516f, 143.26453f);
generalPathText.lineTo(77.36535f, 143.26453f);
generalPathText.closePath();
generalPathText.moveTo(81.84892f, 141.45493f);
generalPathText.quadTo(81.84892f, 139.79434f, 82.18955f, 138.78522f);
generalPathText.quadTo(82.53019f, 137.77182f, 83.202934f, 137.22255f);
generalPathText.quadTo(83.879944f, 136.67328f, 84.90184f, 136.67328f);
generalPathText.quadTo(85.655495f, 136.67328f, 86.221794f, 136.9756f);
generalPathText.quadTo(86.79236f, 137.27791f, 87.162796f, 137.85272f);
generalPathText.quadTo(87.53323f, 138.4233f, 87.74187f, 139.24507f);
generalPathText.quadTo(87.954765f, 140.06258f, 87.954765f, 141.45493f);
generalPathText.quadTo(87.954765f, 143.10274f, 87.614136f, 144.11612f);
generalPathText.quadTo(87.277756f, 145.1295f, 86.60075f, 145.68303f);
generalPathText.quadTo(85.928f, 146.23656f, 84.90184f, 146.23656f);
generalPathText.quadTo(83.54783f, 146.23656f, 82.77289f, 145.26149f);
generalPathText.quadTo(81.84892f, 144.09482f, 81.84892f, 141.45493f);
generalPathText.closePath();
generalPathText.moveTo(83.028366f, 141.45493f);
generalPathText.quadTo(83.028366f, 143.76271f, 83.569115f, 144.52487f);
generalPathText.quadTo(84.10987f, 145.28703f, 84.90184f, 145.28703f);
generalPathText.quadTo(85.69382f, 145.28703f, 86.23031f, 144.52061f);
generalPathText.quadTo(86.771065f, 143.7542f, 86.771065f, 141.45493f);
generalPathText.quadTo(86.771065f, 139.14287f, 86.23031f, 138.38496f);
generalPathText.quadTo(85.69382f, 137.6228f, 84.88907f, 137.6228f);
generalPathText.quadTo(84.0971f, 137.6228f, 83.62447f, 138.29555f);
generalPathText.quadTo(83.028366f, 139.1514f, 83.028366f, 141.45493f);
generalPathText.closePath();
generalPathText.moveTo(89.123566f, 141.45493f);
generalPathText.quadTo(89.123566f, 139.79434f, 89.464195f, 138.78522f);
generalPathText.quadTo(89.80483f, 137.77182f, 90.47758f, 137.22255f);
generalPathText.quadTo(91.15459f, 136.67328f, 92.17648f, 136.67328f);
generalPathText.quadTo(92.93014f, 136.67328f, 93.49644f, 136.9756f);
generalPathText.quadTo(94.067f, 137.27791f, 94.43744f, 137.85272f);
generalPathText.quadTo(94.80788f, 138.4233f, 95.01651f, 139.24507f);
generalPathText.quadTo(95.22941f, 140.06258f, 95.22941f, 141.45493f);
generalPathText.quadTo(95.22941f, 143.10274f, 94.88878f, 144.11612f);
generalPathText.quadTo(94.5524f, 145.1295f, 93.8754f, 145.68303f);
generalPathText.quadTo(93.202644f, 146.23656f, 92.17648f, 146.23656f);
generalPathText.quadTo(90.82247f, 146.23656f, 90.04753f, 145.26149f);
generalPathText.quadTo(89.123566f, 144.09482f, 89.123566f, 141.45493f);
generalPathText.closePath();
generalPathText.moveTo(90.30301f, 141.45493f);
generalPathText.quadTo(90.30301f, 143.76271f, 90.84376f, 144.52487f);
generalPathText.quadTo(91.384514f, 145.28703f, 92.17648f, 145.28703f);
generalPathText.quadTo(92.96846f, 145.28703f, 93.50495f, 144.52061f);
generalPathText.quadTo(94.04571f, 143.7542f, 94.04571f, 141.45493f);
generalPathText.quadTo(94.04571f, 139.14287f, 93.50495f, 138.38496f);
generalPathText.quadTo(92.96846f, 137.6228f, 92.16371f, 137.6228f);
generalPathText.quadTo(91.37174f, 137.6228f, 90.89912f, 138.29555f);
generalPathText.quadTo(90.30301f, 139.1514f, 90.30301f, 141.45493f);
generalPathText.closePath();
generalPathText.moveTo(96.39821f, 141.45493f);
generalPathText.quadTo(96.39821f, 139.79434f, 96.73884f, 138.78522f);
generalPathText.quadTo(97.079475f, 137.77182f, 97.75222f, 137.22255f);
generalPathText.quadTo(98.42923f, 136.67328f, 99.451126f, 136.67328f);
generalPathText.quadTo(100.20478f, 136.67328f, 100.77108f, 136.9756f);
generalPathText.quadTo(101.341644f, 137.27791f, 101.71208f, 137.85272f);
generalPathText.quadTo(102.08252f, 138.4233f, 102.29115f, 139.24507f);
generalPathText.quadTo(102.50405f, 140.06258f, 102.50405f, 141.45493f);
generalPathText.quadTo(102.50405f, 143.10274f, 102.16342f, 144.11612f);
generalPathText.quadTo(101.82704f, 145.1295f, 101.15004f, 145.68303f);
generalPathText.quadTo(100.47729f, 146.23656f, 99.451126f, 146.23656f);
generalPathText.quadTo(98.097115f, 146.23656f, 97.322174f, 145.26149f);
generalPathText.quadTo(96.39821f, 144.09482f, 96.39821f, 141.45493f);
generalPathText.closePath();
generalPathText.moveTo(97.57765f, 141.45493f);
generalPathText.quadTo(97.57765f, 143.76271f, 98.1184f, 144.52487f);
generalPathText.quadTo(98.65916f, 145.28703f, 99.451126f, 145.28703f);
generalPathText.quadTo(100.2431f, 145.28703f, 100.779594f, 144.52061f);
generalPathText.quadTo(101.32035f, 143.7542f, 101.32035f, 141.45493f);
generalPathText.quadTo(101.32035f, 139.14287f, 100.779594f, 138.38496f);
generalPathText.quadTo(100.2431f, 137.6228f, 99.438354f, 137.6228f);
generalPathText.quadTo(98.646385f, 137.6228f, 98.17376f, 138.29555f);
generalPathText.quadTo(97.57765f, 139.1514f, 97.57765f, 141.45493f);
generalPathText.closePath();
generalPathText.moveTo(103.84317f, 143.90747f);
generalPathText.lineTo(104.950226f, 143.80528f);
generalPathText.quadTo(105.09074f, 144.58449f, 105.48672f, 144.9379f);
generalPathText.quadTo(105.882706f, 145.28703f, 106.50011f, 145.28703f);
generalPathText.quadTo(107.03234f, 145.28703f, 107.42833f, 145.04434f);
generalPathText.quadTo(107.828575f, 144.80164f, 108.084045f, 144.39714f);
generalPathText.quadTo(108.33952f, 143.99263f, 108.509834f, 143.30286f);
generalPathText.quadTo(108.68441f, 142.61307f, 108.68441f, 141.89774f);
generalPathText.quadTo(108.68441f, 141.8211f, 108.68015f, 141.66782f);
generalPathText.quadTo(108.335266f, 142.21709f, 107.73489f, 142.55772f);
generalPathText.quadTo(107.13879f, 142.89835f, 106.44475f, 142.89835f);
generalPathText.quadTo(105.28234f, 142.89835f, 104.47759f, 142.05528f);
generalPathText.quadTo(103.67285f, 141.21222f, 103.67285f, 139.83266f);
generalPathText.quadTo(103.67285f, 138.4105f, 104.51166f, 137.5419f);
generalPathText.quadTo(105.350464f, 136.67328f, 106.61507f, 136.67328f);
generalPathText.quadTo(107.53052f, 136.67328f, 108.284164f, 137.1672f);
generalPathText.quadTo(109.042076f, 137.65686f, 109.43381f, 138.56805f);
generalPathText.quadTo(109.82979f, 139.47499f, 109.82979f, 141.19945f);
generalPathText.quadTo(109.82979f, 142.99628f, 109.438065f, 144.06076f);
generalPathText.quadTo(109.05059f, 145.12099f, 108.27991f, 145.67877f);
generalPathText.quadTo(107.50923f, 146.23656f, 106.474556f, 146.23656f);
generalPathText.quadTo(105.376015f, 146.23656f, 104.67772f, 145.62767f);
generalPathText.quadTo(103.98368f, 145.01453f, 103.84317f, 143.90747f);
generalPathText.closePath();
generalPathText.moveTo(108.552414f, 139.7773f);
generalPathText.quadTo(108.552414f, 138.78522f, 108.02444f, 138.20613f);
generalPathText.quadTo(107.49645f, 137.6228f, 106.75558f, 137.6228f);
generalPathText.quadTo(105.98915f, 137.6228f, 105.418594f, 138.24872f);
generalPathText.quadTo(104.852295f, 138.87462f, 104.852295f, 139.87097f);
generalPathText.quadTo(104.852295f, 140.76514f, 105.39304f, 141.32718f);
generalPathText.quadTo(105.9338f, 141.88496f, 106.72577f, 141.88496f);
generalPathText.quadTo(107.522f, 141.88496f, 108.03721f, 141.32718f);
generalPathText.quadTo(108.552414f, 140.76514f, 108.552414f, 139.7773f);
generalPathText.closePath();
shapeText = generalPath;
gText.fill(shapeText);
gText.setComposite(AlphaComposite.getInstance(3, 1.0f * origAlpha));
    gText.dispose();
}
g.setTransform(transformsStack.pop());
g.setComposite(AlphaComposite.getInstance(3, 1.0f * origAlpha));
transformsStack.push(g.getTransform());
g.transform(new AffineTransform(-0.7411137223243713f, 0.0f, 0.0f, 0.7040170431137085f, 97.23987579345703f, 68.87820434570312f));
// _0_0_0_7
g.setComposite(AlphaComposite.getInstance(3, 1.0f * origAlpha));
transformsStack.push(g.getTransform());
g.transform(new AffineTransform(1.0f, 0.0f, 0.0f, 1.0f, 0.0f, 0.0f));
// _0_0_0_7_0
if (generalPath == null) {
   generalPath = new GeneralPath();
} else {
   generalPath.reset();
}
generalPath.moveTo(47.032032f, 42.984238f);
generalPath.curveTo(46.9115f, 42.99054f, 46.80502f, 43.013386f, 46.688282f, 43.046738f);
generalPath.curveTo(46.100063f, 43.214798f, 43.872826f, 44.405834f, 43.563282f, 44.921738f);
generalPath.curveTo(43.072773f, 45.739254f, 44.14471f, 50.572273f, 44.407032f, 51.359238f);
generalPath.curveTo(44.734028f, 52.340225f, 46.004692f, 55.445168f, 45.438282f, 56.577988f);
generalPath.curveTo(45.17401f, 57.10653f, 40.59938f, 56.534706f, 39.813282f, 56.796738f);
generalPath.curveTo(39.566742f, 56.878918f, 39.422318f, 57.304718f, 39.188282f, 57.421738f);
generalPath.curveTo(36.475513f, 58.778122f, 36.06012f, 60.656464f, 38.157032f, 63.015488f);
generalPath.curveTo(38.92808f, 63.88292f, 39.53362f, 64.36906f, 40.438282f, 65.10924f);
generalPath.curveTo(41.237274f, 65.76296f, 42.07063f, 66.42646f, 42.938282f, 66.98424f);
generalPath.curveTo(42.946682f, 66.98964f, 43.06471f, 67.07576f, 43.157032f, 67.14049f);
generalPath.curveTo(42.28938f, 67.698265f, 41.456024f, 68.36176f, 40.657032f, 69.01549f);
generalPath.curveTo(39.75237f, 69.75567f, 39.14683f, 70.241806f, 38.375782f, 71.10924f);
generalPath.curveTo(36.27887f, 73.46826f, 36.694263f, 75.3466f, 39.407032f, 76.70299f);
generalPath.curveTo(39.641068f, 76.82001f, 39.785492f, 77.245804f, 40.032032f, 77.32799f);
generalPath.curveTo(40.81813f, 77.59002f, 45.39276f, 77.018196f, 45.657032f, 77.54674f);
generalPath.curveTo(46.223442f, 78.67956f, 44.952778f, 81.7845f, 44.625782f, 82.76549f);
generalPath.curveTo(44.36346f, 83.55245f, 43.291523f, 88.385475f, 43.782032f, 89.20299f);
generalPath.curveTo(44.091576f, 89.718895f, 46.318813f, 90.90993f, 46.907032f, 91.07799f);
generalPath.curveTo(47.02377f, 91.111336f, 47.13025f, 91.134186f, 47.250782f, 91.14049f);
generalPath.curveTo(47.61238f, 91.15925f, 48.011555f, 91.07799f, 48.375782f, 91.07799f);
generalPath.curveTo(48.92628f, 91.07799f, 49.687508f, 91.21099f, 50.219532f, 91.07799f);
generalPath.curveTo(53.542244f, 90.24731f, 58.220936f, 85.76991f, 60.219532f, 83.17174f);
generalPath.curveTo(60.934242f, 82.242615f, 63.451977f, 78.60538f, 62.719532f, 77.14049f);
generalPath.curveTo(62.50649f, 76.7144f, 62.354935f, 77.09534f, 62.094532f, 76.92174f);
generalPath.curveTo(61.93126f, 76.81289f, 61.85155f, 76.62434f, 61.688282f, 76.51549f);
generalPath.curveTo(61.19082f, 76.183846f, 60.625782f, 76.70833f, 60.625782f, 75.89049f);
generalPath.curveTo(60.625782f, 75.75173f, 60.52767f, 75.551094f, 60.625782f, 75.45299f);
generalPath.curveTo(60.63689f, 75.44188f, 63.133064f, 75.195f, 63.344532f, 75.26549f);
generalPath.curveTo(63.53069f, 75.32754f, 63.57527f, 75.58398f, 63.750782f, 75.67174f);
generalPath.curveTo(63.90936f, 75.75103f, 64.13993f, 75.598045f, 64.18828f, 75.45299f);
generalPath.curveTo(64.41218f, 74.781296f, 64.30156f, 71.902214f, 64.18828f, 71.10924f);
generalPath.curveTo(64.09428f, 70.45124f, 63.775757f, 69.65293f, 63.56328f, 69.01549f);
generalPath.curveTo(63.376507f, 68.45517f, 63.440308f, 67.657486f, 63.50078f, 66.92174f);
generalPath.lineTo(63.25078f, 66.92174f);
generalPath.curveTo(63.20065f, 66.268776f, 63.181168f, 65.599304f, 63.34453f, 65.10924f);
generalPath.curveTo(63.557007f, 64.471794f, 63.875526f, 63.673485f, 63.96953f, 63.015488f);
generalPath.curveTo(64.08281f, 62.22251f, 64.19343f, 59.34343f, 63.96953f, 58.671738f);
generalPath.curveTo(63.921177f, 58.526676f, 63.690605f, 58.3737f, 63.53203f, 58.452988f);
generalPath.curveTo(63.356518f, 58.54075f, 63.311935f, 58.797188f, 63.12578f, 58.859238f);
generalPath.curveTo(62.91431f, 58.92973f, 60.418137f, 58.682846f, 60.40703f, 58.671738f);
generalPath.curveTo(60.308918f, 58.573627f, 60.40703f, 58.37299f, 60.40703f, 58.234238f);
generalPath.curveTo(60.40703f, 57.4164f, 60.972065f, 57.94088f, 61.46953f, 57.609238f);
generalPath.curveTo(61.632797f, 57.50039f, 61.712505f, 57.311836f, 61.87578f, 57.202988f);
generalPath.curveTo(62.13618f, 57.02939f, 62.287735f, 57.410324f, 62.50078f, 56.984238f);
generalPath.curveTo(63.233223f, 55.519352f, 60.71549f, 51.88211f, 60.00078f, 50.952988f);
generalPath.curveTo(58.002182f, 48.354813f, 53.323486f, 43.877415f, 50.00078f, 43.046738f);
generalPath.curveTo(49.468754f, 42.91373f, 48.707527f, 43.046738f, 48.15703f, 43.046738f);
generalPath.curveTo(47.7928f, 43.046738f, 47.393627f, 42.965477f, 47.03203f, 42.984238f);
generalPath.closePath();
shape = generalPath;
paint = new Color(137, 93, 133, 255);
g.setPaint(paint);
g.fill(shape);
g.setTransform(transformsStack.pop());
g.setComposite(AlphaComposite.getInstance(3, 1.0f * origAlpha));
transformsStack.push(g.getTransform());
g.transform(new AffineTransform(1.0f, 0.0f, 0.0f, 1.0f, 0.0f, 0.0f));
// _0_0_0_7_1
if (generalPath == null) {
   generalPath = new GeneralPath();
} else {
   generalPath.reset();
}
generalPath.moveTo(47.190765f, 48.610233f);
generalPath.curveTo(50.827255f, 55.345543f, 42.249077f, 59.38905f, 41.946007f, 63.784218f);
generalPath.curveTo(46.886986f, 66.969444f, 44.94861f, 71.00371f, 40.306477f, 72.10051f);
generalPath.curveTo(41.156918f, 78.598434f, 51.59971f, 71.89883f, 48.006218f, 80.65884f);
generalPath.curveTo(42.208946f, 90.73026f, 56.789257f, 87.16943f, 60.114906f, 82.24595f);
generalPath.curveTo(64.40873f, 78.312614f, 58.117657f, 75.49999f, 63.698467f, 74.13813f);
generalPath.curveTo(61.926117f, 66.74273f, 62.0934f, 59.405373f, 57.65365f, 52.4432f);
generalPath.curveTo(55.63117f, 48.13479f, 51.024147f, 47.654594f, 47.36599f, 46.784595f);
shape = generalPath;
paint = new Color(170, 102, 183, 255);
g.setPaint(paint);
g.fill(shape);
g.setTransform(transformsStack.pop());
g.setTransform(transformsStack.pop());
g.setTransform(transformsStack.pop());
g.setComposite(AlphaComposite.getInstance(3, 0.8317757f * origAlpha));
transformsStack.push(g.getTransform());
g.transform(new AffineTransform(1.0f, 0.0f, 0.0f, 1.0f, 0.0f, 0.0f));
// _0_0_1
if (generalPath == null) {
   generalPath = new GeneralPath();
} else {
   generalPath.reset();
}
generalPath.moveTo(-82.23669f, 384.0046f);
generalPath.curveTo(-74.02697f, 387.35513f, -71.22149f, 388.13153f, -62.839336f, 388.44983f);
generalPath.curveTo(-59.60807f, 388.57254f, -45.05807f, 383.0772f, -41.82554f, 382.99432f);
generalPath.curveTo(-41.82554f, 382.99432f, -35.251312f, 392.28873f, -22.248293f, 408.0675f);
generalPath.curveTo(-21.674574f, 408.7637f, -17.653267f, 406.43466f, -18.47026f, 409.76712f);
generalPath.curveTo(-21.5482f, 422.32187f, 0.39063454f, 435.32227f, 8.688396f, 442.19666f);
generalPath.curveTo(8.9680605f, 442.0848f, 9.34165f, 442.05084f, 9.496619f, 441.79254f);
generalPath.curveTo(11.55141f, 438.3679f, 9.318036f, 441.31802f, 9.900731f, 439.56995f);
generalPath.curveTo(10.177815f, 438.7387f, 11.39909f, 435.96024f, 11.921289f, 435.12473f);
generalPath.curveTo(14.00197f, 431.79562f, 18.791183f, 424.41577f, 18.791183f, 424.41577f);
generalPath.curveTo(18.791183f, 424.41577f, -2.5305882f, 401.37628f, -13.739792f, 395.11768f);
generalPath.curveTo(-15.983011f, 393.84976f, -18.270996f, 390.93686f, -20.40763f, 389.25806f);
generalPath.curveTo(-27.763058f, 383.4788f, -25.405857f, 385.22177f, -35.763866f, 379.5594f);
generalPath.curveTo(-37.429123f, 378.64905f, -39.01481f, 377.5328f, -40.815258f, 376.93265f);
generalPath.curveTo(-41.342155f, 376.75702f, -41.885265f, 377.2374f, -42.431705f, 377.33676f);
generalPath.curveTo(-44.353188f, 377.68613f, -40.827423f, 375.88684f, -45.46254f, 377.74088f);
generalPath.curveTo(-47.61613f, 378.60233f, -49.651653f, 379.7344f, -51.72627f, 380.77173f);
generalPath.curveTo(-52.209805f, 381.0135f, -52.789875f, 381.422f, -53.342716f, 381.57996f);
generalPath.curveTo(-60.52495f, 383.63202f, -73.77479f, 385.41495f, -82.23669f, 384.00464f);
generalPath.closePath();
shape = generalPath;
paint = new Color(128, 128, 128, 255);
g.setPaint(paint);
g.fill(shape);
paint = new Color(77, 77, 77, 255);
stroke = new BasicStroke(1.0f,0,0,4.0f,null,0.0f);
if (generalPath == null) {
   generalPath = new GeneralPath();
} else {
   generalPath.reset();
}
generalPath.moveTo(-82.23669f, 384.0046f);
generalPath.curveTo(-74.02697f, 387.35513f, -71.22149f, 388.13153f, -62.839336f, 388.44983f);
generalPath.curveTo(-59.60807f, 388.57254f, -45.05807f, 383.0772f, -41.82554f, 382.99432f);
generalPath.curveTo(-41.82554f, 382.99432f, -35.251312f, 392.28873f, -22.248293f, 408.0675f);
generalPath.curveTo(-21.674574f, 408.7637f, -17.653267f, 406.43466f, -18.47026f, 409.76712f);
generalPath.curveTo(-21.5482f, 422.32187f, 0.39063454f, 435.32227f, 8.688396f, 442.19666f);
generalPath.curveTo(8.9680605f, 442.0848f, 9.34165f, 442.05084f, 9.496619f, 441.79254f);
generalPath.curveTo(11.55141f, 438.3679f, 9.318036f, 441.31802f, 9.900731f, 439.56995f);
generalPath.curveTo(10.177815f, 438.7387f, 11.39909f, 435.96024f, 11.921289f, 435.12473f);
generalPath.curveTo(14.00197f, 431.79562f, 18.791183f, 424.41577f, 18.791183f, 424.41577f);
generalPath.curveTo(18.791183f, 424.41577f, -2.5305882f, 401.37628f, -13.739792f, 395.11768f);
generalPath.curveTo(-15.983011f, 393.84976f, -18.270996f, 390.93686f, -20.40763f, 389.25806f);

}

private void _paint1(Graphics2D g,float origAlpha) {
generalPath.curveTo(-27.763058f, 383.4788f, -25.405857f, 385.22177f, -35.763866f, 379.5594f);
generalPath.curveTo(-37.429123f, 378.64905f, -39.01481f, 377.5328f, -40.815258f, 376.93265f);
generalPath.curveTo(-41.342155f, 376.75702f, -41.885265f, 377.2374f, -42.431705f, 377.33676f);
generalPath.curveTo(-44.353188f, 377.68613f, -40.827423f, 375.88684f, -45.46254f, 377.74088f);
generalPath.curveTo(-47.61613f, 378.60233f, -49.651653f, 379.7344f, -51.72627f, 380.77173f);
generalPath.curveTo(-52.209805f, 381.0135f, -52.789875f, 381.422f, -53.342716f, 381.57996f);
generalPath.curveTo(-60.52495f, 383.63202f, -73.77479f, 385.41495f, -82.23669f, 384.00464f);
generalPath.closePath();
shape = generalPath;
g.setPaint(paint);
g.setStroke(stroke);
g.draw(shape);
g.setTransform(transformsStack.pop());
g.setComposite(AlphaComposite.getInstance(3, 1.0f * origAlpha));
transformsStack.push(g.getTransform());
g.transform(new AffineTransform(1.0f, 0.0f, 0.0f, 1.0f, 0.0f, 0.0f));
// _0_0_2
g.setComposite(AlphaComposite.getInstance(3, 0.75543475f * origAlpha));
transformsStack.push(g.getTransform());
g.transform(new AffineTransform(0.9869871139526367f, 0.0f, 0.0f, 0.9786286950111389f, -104.57089233398438f, 310.8235778808594f));
// _0_0_2_0
paint = new Color(0, 0, 0, 255);
stroke = new BasicStroke(4.964609f,1,1,4.0f,null,0.0f);
if (generalPath == null) {
   generalPath = new GeneralPath();
} else {
   generalPath.reset();
}
generalPath.moveTo(5.4074473f, 40.999996f);
generalPath.curveTo(5.4074473f, 60.095108f, 20.90493f, 75.59259f, 40.000042f, 75.59259f);
generalPath.curveTo(59.095154f, 75.59259f, 74.592636f, 60.095108f, 74.592636f, 41.0f);
generalPath.curveTo(74.592636f, 21.90489f, 59.09515f, 6.4074097f, 40.000042f, 6.4074097f);
generalPath.curveTo(20.904932f, 6.4074097f, 5.407448f, 21.904892f, 5.407448f, 41.0f);
generalPath.closePath();
shape = generalPath;
g.setPaint(paint);
g.setStroke(stroke);
g.draw(shape);
g.setTransform(transformsStack.pop());
g.setComposite(AlphaComposite.getInstance(3, 1.0f * origAlpha));
transformsStack.push(g.getTransform());
g.transform(new AffineTransform(-1.0311110019683838f, -0.0379299595952034f, 0.04966593161225319f, -1.3436360359191895f, -27.298179626464844f, 385.25445556640625f));
// _0_0_2_1
g.setComposite(AlphaComposite.getInstance(3, 1.0f * origAlpha));
transformsStack.push(g.getTransform());
g.transform(new AffineTransform(1.0f, 0.0f, 0.0f, 1.0f, 0.0f, 0.0f));
// _0_0_2_1_0
paint = new LinearGradientPaint(new Point2D.Double(34.84189224243164, -7.142457962036133), new Point2D.Double(35.56138610839844, 11.415727615356445), new float[] {0.0f,1.0f}, new Color[] {new Color(255, 255, 255, 255),new Color(255, 255, 255, 0)}, MultipleGradientPaint.CycleMethod.NO_CYCLE, MultipleGradientPaint.ColorSpaceType.SRGB, new AffineTransform(1.0f, 0.0f, 0.0f, 1.0f, 0.0f, 0.0f));
stroke = new BasicStroke(0.414f,0,0,4.0f,null,0.0f);
if (generalPath == null) {
   generalPath = new GeneralPath();
} else {
   generalPath.reset();
}
generalPath.moveTo(9.622763f, 14.273311f);
generalPath.curveTo(16.52386f, 6.082676f, 26.348398f, 1.7526093f, 37.11637f, 1.7526093f);
generalPath.curveTo(47.884342f, 1.7526093f, 58.408875f, 7.2008324f, 64.4136f, 14.980124f);
generalPath.curveTo(64.4136f, 14.980124f, 64.4136f, 14.980124f, 64.4136f, 14.980124f);
shape = generalPath;
g.setPaint(paint);
g.setStroke(stroke);
g.draw(shape);
g.setTransform(transformsStack.pop());
g.setComposite(AlphaComposite.getInstance(3, 1.0f * origAlpha));
transformsStack.push(g.getTransform());
g.transform(new AffineTransform(1.0f, 0.0f, 0.0f, 1.0f, 0.0f, 0.0f));
// _0_0_2_1_1
paint = new LinearGradientPaint(new Point2D.Double(34.84189224243164, -7.142457962036133), new Point2D.Double(35.56138610839844, 11.415727615356445), new float[] {0.0f,1.0f}, new Color[] {new Color(255, 255, 255, 255),new Color(255, 255, 255, 0)}, MultipleGradientPaint.CycleMethod.NO_CYCLE, MultipleGradientPaint.ColorSpaceType.SRGB, new AffineTransform(1.0f, 0.0f, 0.0f, 1.0f, 0.0f, 0.0f));
stroke = new BasicStroke(0.914f,0,0,4.0f,null,0.0f);
if (generalPath == null) {
   generalPath = new GeneralPath();
} else {
   generalPath.reset();
}
generalPath.moveTo(9.622763f, 14.573311f);
generalPath.curveTo(16.52386f, 6.382676f, 26.348398f, 2.0526092f, 37.11637f, 2.0526092f);
generalPath.curveTo(47.884342f, 2.0526092f, 58.408875f, 7.5008326f, 64.4136f, 15.280125f);
generalPath.curveTo(64.4136f, 15.280125f, 64.4136f, 15.280125f, 64.4136f, 15.280125f);
shape = generalPath;
g.setPaint(paint);
g.setStroke(stroke);
g.draw(shape);
g.setTransform(transformsStack.pop());
g.setComposite(AlphaComposite.getInstance(3, 1.0f * origAlpha));
transformsStack.push(g.getTransform());
g.transform(new AffineTransform(1.0f, 0.0f, 0.0f, 1.0f, 0.0f, 0.0f));
// _0_0_2_1_2
paint = new LinearGradientPaint(new Point2D.Double(34.84189224243164, -7.142457962036133), new Point2D.Double(35.56138610839844, 11.415727615356445), new float[] {0.0f,1.0f}, new Color[] {new Color(255, 255, 255, 255),new Color(255, 255, 255, 0)}, MultipleGradientPaint.CycleMethod.NO_CYCLE, MultipleGradientPaint.ColorSpaceType.SRGB, new AffineTransform(1.0f, 0.0f, 0.0f, 1.0f, 0.0f, 0.0f));
stroke = new BasicStroke(0.614f,0,0,4.0f,null,0.0f);
if (generalPath == null) {
   generalPath = new GeneralPath();
} else {
   generalPath.reset();
}
generalPath.moveTo(9.622763f, 14.473311f);
generalPath.curveTo(16.52386f, 6.282676f, 26.348398f, 1.9526092f, 37.11637f, 1.9526092f);
generalPath.curveTo(47.884342f, 1.9526092f, 58.408875f, 7.400832f, 64.4136f, 15.180124f);
generalPath.curveTo(64.4136f, 15.180124f, 64.4136f, 15.180124f, 64.4136f, 15.180124f);
shape = generalPath;
g.setPaint(paint);
g.setStroke(stroke);
g.draw(shape);
g.setTransform(transformsStack.pop());
g.setTransform(transformsStack.pop());
g.setComposite(AlphaComposite.getInstance(3, 1.0f * origAlpha));
transformsStack.push(g.getTransform());
g.transform(new AffineTransform(1.0f, 0.0f, 0.0f, 1.0f, 0.0f, 0.0f));
// _0_0_2_2
if (generalPath == null) {
   generalPath = new GeneralPath();
} else {
   generalPath.reset();
}
generalPath.moveTo(-38.2843f, 385.23026f);
generalPath.curveTo(-34.345966f, 381.9329f, -31.123833f, 378.31146f, -28.512672f, 374.2585f);
generalPath.curveTo(-7.1107903f, 392.80756f, 5.342369f, 404.57028f, 22.90857f, 419.94122f);
generalPath.curveTo(19.608889f, 424.5353f, 15.776389f, 428.30542f, 12.043579f, 431.88416f);
generalPath.curveTo(-4.7963295f, 415.69806f, -11.756073f, 410.95172f, -38.284306f, 385.23026f);
generalPath.closePath();
shape = generalPath;
paint = new LinearGradientPaint(new Point2D.Double(91.89352416992188, 98.32296752929688), new Point2D.Double(102.63838958740234, 87.5781021118164), new float[] {0.0f,1.0f}, new Color[] {new Color(54, 54, 54, 255),new Color(179, 179, 179, 255)}, MultipleGradientPaint.CycleMethod.NO_CYCLE, MultipleGradientPaint.ColorSpaceType.SRGB, new AffineTransform(1.0f, 0.0f, 0.0f, 1.0f, -105.0914077758789f, 309.8841857910156f));
g.setPaint(paint);
g.fill(shape);
paint = new Color(23, 23, 23, 113);
stroke = new BasicStroke(1.0f,1,1,4.0f,null,0.0f);
if (generalPath == null) {
   generalPath = new GeneralPath();
} else {
   generalPath.reset();
}
generalPath.moveTo(-38.2843f, 385.23026f);
generalPath.curveTo(-34.345966f, 381.9329f, -31.123833f, 378.31146f, -28.512672f, 374.2585f);
generalPath.curveTo(-7.1107903f, 392.80756f, 5.342369f, 404.57028f, 22.90857f, 419.94122f);
generalPath.curveTo(19.608889f, 424.5353f, 15.776389f, 428.30542f, 12.043579f, 431.88416f);
generalPath.curveTo(-4.7963295f, 415.69806f, -11.756073f, 410.95172f, -38.284306f, 385.23026f);
generalPath.closePath();
shape = generalPath;
g.setPaint(paint);
g.setStroke(stroke);
g.draw(shape);
g.setTransform(transformsStack.pop());
g.setComposite(AlphaComposite.getInstance(3, 1.0f * origAlpha));
transformsStack.push(g.getTransform());
g.transform(new AffineTransform(1.0f, 0.0f, 0.0f, 1.0f, 0.0f, 0.0f));
// _0_0_2_3
if (generalPath == null) {
   generalPath = new GeneralPath();
} else {
   generalPath.reset();
}
generalPath.moveTo(-30.827559f, 377.5197f);
generalPath.lineTo(-34.463352f, 381.63705f);
generalPath.curveTo(-30.663486f, 387.89774f, -22.198402f, 397.3374f, -10.278845f, 408.55f);
generalPath.curveTo(-0.52246857f, 417.72772f, 8.38508f, 424.7371f, 14.8961315f, 428.9411f);
generalPath.curveTo(17.178822f, 426.89944f, 18.52341f, 425.34534f, 20.087252f, 423.5461f);
generalPath.curveTo(15.396162f, 417.18594f, 7.3181915f, 408.5616f, -2.5162487f, 399.3105f);
generalPath.curveTo(-14.355937f, 388.173f, -24.484581f, 380.82962f, -30.827557f, 377.51974f);
generalPath.closePath();
shape = generalPath;
paint = new RadialGradientPaint(new Point2D.Double(3.953125, 74.83329772949219), 6.93199f, new Point2D.Double(0.9055841565132141, 73.29568481445312), new float[] {0.0f,0.6637168f,1.0f}, new Color[] {new Color(0, 0, 0, 255),new Color(0, 0, 0, 61),new Color(0, 0, 0, 0)}, MultipleGradientPaint.CycleMethod.NO_CYCLE, MultipleGradientPaint.ColorSpaceType.SRGB, new AffineTransform(0.43596601486206055f, -0.5661020278930664f, 5.670909881591797f, 5.233695983886719f, -433.73150634765625f, 13.386980056762695f));
g.setPaint(paint);
g.fill(shape);
g.setTransform(transformsStack.pop());
g.setComposite(AlphaComposite.getInstance(3, 0.73260075f * origAlpha));
transformsStack.push(g.getTransform());
g.transform(new AffineTransform(1.0f, 0.0f, 0.0f, 1.0f, 0.0f, 0.0f));
// _0_0_2_4
if (generalPath == null) {
   generalPath = new GeneralPath();
} else {
   generalPath.reset();
}
generalPath.moveTo(-37.65858f, 384.95584f);
generalPath.curveTo(-34.430492f, 381.98334f, -31.318977f, 378.4455f, -28.632576f, 374.8213f);
generalPath.curveTo(-11.816116f, 389.1909f, 5.7356186f, 405.6877f, 21.71447f, 419.74612f);
generalPath.curveTo(18.28639f, 424.27548f, 17.08702f, 426.46112f, 12.20214f, 430.82944f);
generalPath.curveTo(-4.4081793f, 414.8627f, -21.69749f, 400.2854f, -37.65858f, 384.95584f);
generalPath.closePath();
shape = generalPath;
paint = new RadialGradientPaint(new Point2D.Double(49.15742874145508, 62.38064193725586), 8.333237f, new Point2D.Double(45.900455474853516, 62.298255920410156), new float[] {0.0f,1.0f}, new Color[] {new Color(255, 255, 255, 255),new Color(255, 255, 255, 0)}, MultipleGradientPaint.CycleMethod.NO_CYCLE, MultipleGradientPaint.ColorSpaceType.SRGB, new AffineTransform(0.6268460154533386f, -0.7038319706916809f, 7.605719089508057f, 6.891554832458496f, -534.4470825195312f, -18.266569137573242f));
g.setPaint(paint);
g.fill(shape);
g.setTransform(transformsStack.pop());
g.setComposite(AlphaComposite.getInstance(3, 0.74418604f * origAlpha));
transformsStack.push(g.getTransform());
g.transform(new AffineTransform(1.0f, 0.0f, 0.0f, 1.0f, 0.0f, 0.0f));
// _0_0_2_5
if (generalPath == null) {
   generalPath = new GeneralPath();
} else {
   generalPath.reset();
}
generalPath.moveTo(-36.59702f, 385.39948f);
generalPath.lineTo(-28.7268f, 381.386f);
generalPath.curveTo(-11.910339f, 395.7556f, 2.7850418f, 407.30753f, 20.05102f, 420.7474f);
generalPath.curveTo(17.50045f, 425.96844f, 15.79105f, 426.24246f, 11.36409f, 430.5501f);
generalPath.curveTo(-4.985319f, 414.7262f, -20.63593f, 400.72903f, -36.59702f, 385.39948f);
generalPath.closePath();
shape = generalPath;
paint = new RadialGradientPaint(new Point2D.Double(39.03649139404297, 69.15291595458984), 8.333237f, new Point2D.Double(36.28557586669922, 69.15291595458984), new float[] {0.0f,1.0f}, new Color[] {new Color(255, 255, 255, 255),new Color(255, 255, 255, 0)}, MultipleGradientPaint.CycleMethod.NO_CYCLE, MultipleGradientPaint.ColorSpaceType.SRGB, new AffineTransform(0.6268460154533386f, -0.7038319706916809f, 7.605719089508057f, 6.891554832458496f, -535.28515625f, -18.54591941833496f));
g.setPaint(paint);
g.fill(shape);
g.setTransform(transformsStack.pop());
g.setComposite(AlphaComposite.getInstance(3, 1.0f * origAlpha));
transformsStack.push(g.getTransform());
g.transform(new AffineTransform(1.0f, 0.0f, 0.0f, 1.0f, 0.0f, 0.0f));
// _0_0_2_6
if (generalPath == null) {
   generalPath = new GeneralPath();
} else {
   generalPath.reset();
}
generalPath.moveTo(-28.665571f, 374.1309f);
generalPath.curveTo(-32.603905f, 377.42825f, -35.833332f, 381.05786f, -38.444496f, 385.11084f);
generalPath.lineTo(-38.268547f, 385.27026f);
generalPath.curveTo(-34.33021f, 381.9729f, -31.100784f, 378.3433f, -28.489622f, 374.2903f);
generalPath.lineTo(-28.665571f, 374.1309f);
generalPath.closePath();
shape = generalPath;
paint = new Color(92, 92, 92, 255);
g.setPaint(paint);
g.fill(shape);
g.setTransform(transformsStack.pop());
g.setComposite(AlphaComposite.getInstance(3, 1.0f * origAlpha));
transformsStack.push(g.getTransform());
g.transform(new AffineTransform(0.6836779713630676f, -0.7920539975166321f, 0.18895800411701202f, 0.16406099498271942f, -78.2137222290039f, 412.6910400390625f));
// _0_0_2_7
if (generalPath == null) {
   generalPath = new GeneralPath();
} else {
   generalPath.reset();
}
generalPath.moveTo(59.107132f, 51.796238f);
generalPath.curveTo(59.107132f, 52.81994f, 56.74122f, 53.64981f, 53.82272f, 53.64981f);
generalPath.curveTo(50.90422f, 53.64981f, 48.538307f, 52.81994f, 48.538307f, 51.796238f);
generalPath.curveTo(48.538307f, 50.772537f, 50.90422f, 49.942665f, 53.82272f, 49.942665f);
generalPath.curveTo(56.74122f, 49.942665f, 59.107132f, 50.772537f, 59.107132f, 51.796238f);
generalPath.closePath();
shape = generalPath;
paint = new RadialGradientPaint(new Point2D.Double(53.82271957397461, 51.79623794555664), 5.284413f, new Point2D.Double(53.363365173339844, 53.70447540283203), new float[] {0.0f,1.0f}, new Color[] {new Color(255, 255, 255, 255),new Color(255, 255, 255, 0)}, MultipleGradientPaint.CycleMethod.NO_CYCLE, MultipleGradientPaint.ColorSpaceType.SRGB, new AffineTransform(1.0f, 0.0f, 0.0f, 0.3507629930973053f, 0.0f, 33.62805938720703f));
g.setPaint(paint);
g.fill(shape);
g.setTransform(transformsStack.pop());
g.setComposite(AlphaComposite.getInstance(3, 0.6511628f * origAlpha));
transformsStack.push(g.getTransform());
g.transform(new AffineTransform(0.672249972820282f, -0.8017820119857788f, 0.1921350061893463f, 0.1603280007839203f, -27.103639602661133f, 458.2549743652344f));
// _0_0_2_8
if (generalPath == null) {
   generalPath = new GeneralPath();
} else {
   generalPath.reset();
}
generalPath.moveTo(59.107132f, 51.796238f);
generalPath.curveTo(59.107132f, 52.81994f, 56.74122f, 53.64981f, 53.82272f, 53.64981f);
generalPath.curveTo(50.90422f, 53.64981f, 48.538307f, 52.81994f, 48.538307f, 51.796238f);
generalPath.curveTo(48.538307f, 50.772537f, 50.90422f, 49.942665f, 53.82272f, 49.942665f);
generalPath.curveTo(56.74122f, 49.942665f, 59.107132f, 50.772537f, 59.107132f, 51.796238f);
generalPath.closePath();
shape = generalPath;
paint = new RadialGradientPaint(new Point2D.Double(53.82271957397461, 51.79623794555664), 5.284413f, new Point2D.Double(53.363365173339844, 53.70447540283203), new float[] {0.0f,1.0f}, new Color[] {new Color(255, 255, 255, 255),new Color(255, 255, 255, 0)}, MultipleGradientPaint.CycleMethod.NO_CYCLE, MultipleGradientPaint.ColorSpaceType.SRGB, new AffineTransform(1.0f, 0.0f, 0.0f, 0.3507629930973053f, 0.0f, 33.62805938720703f));
g.setPaint(paint);
g.fill(shape);
g.setTransform(transformsStack.pop());
g.setComposite(AlphaComposite.getInstance(3, 1.0f * origAlpha));
transformsStack.push(g.getTransform());
g.transform(new AffineTransform(1.0f, 0.0f, 0.0f, 1.0f, 0.0f, 0.0f));
// _0_0_2_9
if (generalPath == null) {
   generalPath = new GeneralPath();
} else {
   generalPath.reset();
}
generalPath.moveTo(-37.010513f, 370.06705f);
generalPath.curveTo(-39.16476f, 372.68866f, -41.147564f, 374.93372f, -43.091423f, 376.93008f);
generalPath.lineTo(-36.558304f, 382.94043f);
generalPath.curveTo(-34.13988f, 380.69055f, -31.928997f, 378.5423f, -30.2915f, 376.19675f);
generalPath.lineTo(-37.01051f, 370.06705f);
generalPath.closePath();
shape = generalPath;
paint = new LinearGradientPaint(new Point2D.Double(28.07171058654785, 20.204627990722656), new Point2D.Double(40.19868850708008, 20.20462989807129), new float[] {0.0f,1.0f}, new Color[] {new Color(255, 255, 255, 255),new Color(174, 174, 174, 255)}, MultipleGradientPaint.CycleMethod.REFLECT, MultipleGradientPaint.ColorSpaceType.SRGB, new AffineTransform(-0.3581880033016205f, 0.4021790027618408f, 0.39682498574256897f, 0.35956498980522156f, -33.88959884643555f, 356.59320068359375f));
g.setPaint(paint);
g.fill(shape);
g.setTransform(transformsStack.pop());
g.setComposite(AlphaComposite.getInstance(3, 1.0f * origAlpha));
transformsStack.push(g.getTransform());
g.transform(new AffineTransform(1.0f, 0.0f, 0.0f, 1.0f, 0.0f, 0.0f));
// _0_0_2_10
if (generalPath == null) {
   generalPath = new GeneralPath();
} else {
   generalPath.reset();
}
generalPath.moveTo(-36.767323f, 371.21866f);
generalPath.curveTo(-38.921574f, 373.84027f, -40.773865f, 375.363f, -42.717728f, 377.35938f);
generalPath.lineTo(-36.558308f, 382.94043f);
generalPath.curveTo(-34.139885f, 380.69055f, -31.929f, 378.5423f, -30.291504f, 376.19675f);
generalPath.lineTo(-36.767326f, 371.21866f);
generalPath.closePath();
shape = generalPath;
paint = new LinearGradientPaint(new Point2D.Double(67.51517486572266, 86.70606231689453), new Point2D.Double(63.40166473388672, 61.357200622558594), new float[] {0.0f,1.0f}, new Color[] {new Color(0, 0, 0, 255),new Color(0, 0, 0, 0)}, MultipleGradientPaint.CycleMethod.NO_CYCLE, MultipleGradientPaint.ColorSpaceType.SRGB, new AffineTransform(1.0052039623260498f, 0.037066441029310226f, -0.03709647059440613f, 1.006018042564392f, -101.08016204833984f, 311.4317626953125f));
g.setPaint(paint);
g.fill(shape);
g.setTransform(transformsStack.pop());
g.setComposite(AlphaComposite.getInstance(3, 1.0f * origAlpha));
transformsStack.push(g.getTransform());
g.transform(new AffineTransform(1.0f, 0.0f, 0.0f, 1.0f, 0.0f, 0.0f));
// _0_0_2_11
if (generalPath == null) {
   generalPath = new GeneralPath();
} else {
   generalPath.reset();
}
generalPath.moveTo(22.39697f, 419.8477f);
generalPath.curveTo(16.29105f, 414.10757f, 6.445571f, 405.9943f, -4.982708f, 395.66214f);
generalPath.curveTo(-13.81944f, 387.67297f, -22.22175f, 380.30264f, -28.65713f, 375.54318f);
generalPath.lineTo(-33.42672f, 380.1455f);
generalPath.curveTo(-28.044659f, 386.07004f, -19.90372f, 394.40274f, -11.06699f, 402.3919f);
generalPath.curveTo(0.3612814f, 412.72406f, 10.994041f, 421.21906f, 17.705801f, 425.63583f);
generalPath.lineTo(22.39697f, 419.8477f);
generalPath.closePath();
shape = generalPath;
paint = new RadialGradientPaint(new Point2D.Double(-22.1875, 69.921875), 3.3125f, new Point2D.Double(-24.22588539123535, 69.91436767578125), new float[] {0.0f,1.0f}, new Color[] {new Color(255, 255, 255, 255),new Color(255, 255, 255, 0)}, MultipleGradientPaint.CycleMethod.NO_CYCLE, MultipleGradientPaint.ColorSpaceType.SRGB, new AffineTransform(-0.8920683860778809f, 1.0389972925186157f, -21.233230590820312f, -18.230581283569336f, 1459.1827392578125f, 1698.9056396484375f));
g.setPaint(paint);
g.fill(shape);
g.setTransform(transformsStack.pop());
g.setComposite(AlphaComposite.getInstance(3, 0.8f * origAlpha));
transformsStack.push(g.getTransform());
g.transform(new AffineTransform(1.0f, 0.0f, 0.0f, 1.0f, 0.0f, 0.0f));
// _0_0_2_12
if (generalPath == null) {
   generalPath = new GeneralPath();
} else {
   generalPath.reset();
}
generalPath.moveTo(-36.872658f, 370.16544f);
generalPath.curveTo(-37.842094f, 371.45654f, -38.902435f, 372.69522f, -40.060158f, 373.85294f);
generalPath.curveTo(-40.47283f, 374.26562f, -40.90709f, 374.67908f, -41.341408f, 375.0717f);
generalPath.curveTo(-41.36311f, 375.09128f, -41.38215f, 375.1146f, -41.403908f, 375.1342f);
generalPath.curveTo(-41.97167f, 375.7515f, -42.533207f, 376.34216f, -43.091408f, 376.91544f);
generalPath.lineTo(-40.810158f, 379.04044f);
generalPath.curveTo(-38.665886f, 377.68497f, -36.813198f, 375.8738f, -35.435158f, 373.6342f);
generalPath.curveTo(-35.143433f, 373.16006f, -34.888844f, 372.68515f, -34.653908f, 372.1967f);
generalPath.lineTo(-36.872658f, 370.16544f);
generalPath.closePath();
shape = generalPath;
paint = new RadialGradientPaint(new Point2D.Double(56.256771087646484, 56.998897552490234), 9.725522f, new Point2D.Double(56.256771087646484, 56.998897552490234), new float[] {0.0f,0.6637168f,1.0f}, new Color[] {new Color(0, 0, 0, 255),new Color(0, 0, 0, 61),new Color(0, 0, 0, 0)}, MultipleGradientPaint.CycleMethod.NO_CYCLE, MultipleGradientPaint.ColorSpaceType.SRGB, new AffineTransform(1.0f, 0.0f, 0.0f, 0.9252870082855225f, -99.0914077758789f, 320.14276123046875f));
g.setPaint(paint);
g.fill(shape);
g.setTransform(transformsStack.pop());
g.setComposite(AlphaComposite.getInstance(3, 0.1875f * origAlpha));
transformsStack.push(g.getTransform());
g.transform(new AffineTransform(0.6643393039703369f, -0.7474310994148254f, 0.7474311590194702f, 0.6643393039703369f, 0.0f, 0.0f));
// _0_0_2_13
shape = new Rectangle2D.Double(-305.6112060546875, 218.8498992919922, 1.6520304679870605, 8.381975173950195);
paint = new LinearGradientPaint(new Point2D.Double(113.91755676269531, 47.035709381103516), new Point2D.Double(108.60655975341797, 69.3776626586914), new float[] {0.0f,1.0f}, new Color[] {new Color(86, 228, 253, 175),new Color(255, 255, 255, 181)}, MultipleGradientPaint.CycleMethod.NO_CYCLE, MultipleGradientPaint.ColorSpaceType.SRGB, new AffineTransform(1.0f, 0.0f, 0.0f, 1.0f, -420.2874755859375f, 160.38697814941406f));
g.setPaint(paint);
g.fill(shape);
g.setTransform(transformsStack.pop());
g.setComposite(AlphaComposite.getInstance(3, 1.0f * origAlpha));
transformsStack.push(g.getTransform());
g.transform(new AffineTransform(-5.327775001525879f, 0.0f, 0.0f, 7.786747932434082f, 87.0138931274414f, 392.53424072265625f));
// _0_0_2_14
paint = new LinearGradientPaint(new Point2D.Double(28.549489974975586, -10.100502967834473), new Point2D.Double(28.549489974975586, -0.8540247082710266), new float[] {0.0f,1.0f}, new Color[] {new Color(201, 202, 204, 255),new Color(172, 174, 177, 255)}, MultipleGradientPaint.CycleMethod.NO_CYCLE, MultipleGradientPaint.ColorSpaceType.SRGB, new AffineTransform(1.0f, 0.0f, 0.0f, 1.0f, 0.0f, 0.0f));
stroke = new BasicStroke(0.62102485f,1,1,4.0f,null,0.0f);
if (generalPath == null) {
   generalPath = new GeneralPath();
} else {
   generalPath.reset();
}
generalPath.moveTo(34.93114f, -5.477264f);
generalPath.curveTo(34.93114f, -3.0657718f, 32.07398f, -1.1108713f, 28.54949f, -1.1108713f);
generalPath.curveTo(25.025002f, -1.1108713f, 22.16784f, -3.065772f, 22.16784f, -5.477264f);
generalPath.curveTo(22.16784f, -7.888756f, 25.025002f, -9.843657f, 28.54949f, -9.843657f);
generalPath.curveTo(32.07398f, -9.843657f, 34.93114f, -7.888756f, 34.93114f, -5.477264f);
generalPath.closePath();
shape = generalPath;
g.setPaint(paint);
g.setStroke(stroke);
g.draw(shape);
g.setTransform(transformsStack.pop());
g.setComposite(AlphaComposite.getInstance(3, 1.0f * origAlpha));
transformsStack.push(g.getTransform());
g.transform(new AffineTransform(1.0f, 0.0f, 0.0f, 1.0f, 0.0f, 0.0f));
// _0_0_2_15
paint = new RadialGradientPaint(new Point2D.Double(28.549489974975586, -5.477263927459717), 6.6921635f, new Point2D.Double(28.549489974975586, -5.477263927459717), new float[] {0.0f,1.0f}, new Color[] {new Color(255, 255, 255, 0),new Color(129, 129, 129, 255)}, MultipleGradientPaint.CycleMethod.NO_CYCLE, MultipleGradientPaint.ColorSpaceType.SRGB, new AffineTransform(-5.379427909851074f, -1.0975300028803758E-6f, -5.982265975035261E-6f, 29.321460723876953f, 88.48848724365234f, 510.4855651855469f));
stroke = new BasicStroke(3.9999998f,1,1,4.0f,null,0.0f);
if (generalPath == null) {
   generalPath = new GeneralPath();
} else {
   generalPath.reset();
}
generalPath.moveTo(-99.09137f, 349.8842f);
generalPath.curveTo(-99.09137f, 368.6522f, -83.85937f, 383.8842f, -65.09137f, 383.8842f);
generalPath.curveTo(-46.32337f, 383.8842f, -31.09137f, 368.6522f, -31.09137f, 349.8842f);
generalPath.curveTo(-31.09137f, 331.11618f, -46.32337f, 315.8842f, -65.09137f, 315.8842f);
generalPath.curveTo(-83.85937f, 315.8842f, -99.09137f, 331.11618f, -99.09137f, 349.8842f);
generalPath.closePath();
shape = generalPath;
g.setPaint(paint);
g.setStroke(stroke);
g.draw(shape);
g.setTransform(transformsStack.pop());
g.setComposite(AlphaComposite.getInstance(3, 0.71f * origAlpha));
transformsStack.push(g.getTransform());
g.transform(new AffineTransform(1.0f, 0.0f, 0.0f, 1.0f, 0.0f, 0.0f));
// _0_0_2_16
if (generalPath == null) {
   generalPath = new GeneralPath();
} else {
   generalPath.reset();
}
generalPath.moveTo(-65.24766f, 317.8842f);
generalPath.curveTo(-65.79348f, 317.87518f, -66.35233f, 317.89627f, -66.90391f, 317.91537f);
generalPath.curveTo(-84.554214f, 318.5297f, -98.31232f, 333.35602f, -97.62266f, 351.00912f);
generalPath.curveTo(-97.39854f, 356.74594f, -95.671486f, 362.06955f, -92.84141f, 366.63412f);
generalPath.curveTo(-92.85905f, 366.3605f, -92.8619f, 366.09717f, -92.87266f, 365.82162f);
generalPath.curveTo(-93.56232f, 348.16852f, -79.80421f, 333.3422f, -62.153908f, 332.72787f);
generalPath.curveTo(-50.239502f, 332.3132f, -39.594955f, 338.4652f, -33.716408f, 347.94662f);
generalPath.curveTo(-34.793434f, 331.23694f, -48.599804f, 318.1491f, -65.24766f, 317.88412f);
generalPath.closePath();
shape = generalPath;
paint = new RadialGradientPaint(new Point2D.Double(39.40945816040039, 9.579120635986328), 31.965544f, new Point2D.Double(33.4835319519043, 10.615250587463379), new float[] {0.0f,1.0f}, new Color[] {new Color(255, 255, 255, 255),new Color(255, 255, 255, 0)}, MultipleGradientPaint.CycleMethod.NO_CYCLE, MultipleGradientPaint.ColorSpaceType.SRGB, new AffineTransform(1.0f, 0.0f, 0.0f, 0.7625716924667358f, -105.0914077758789f, 317.5706787109375f));
g.setPaint(paint);
g.fill(shape);
g.setTransform(transformsStack.pop());
g.setComposite(AlphaComposite.getInstance(3, 1.0f * origAlpha));
transformsStack.push(g.getTransform());
g.transform(new AffineTransform(0.0384724885225296f, 1.105376958847046f, 1.1382620334625244f, -0.04446890950202942f, -110.40129089355469f, 304.54638671875f));
// _0_0_2_17
paint = new LinearGradientPaint(new Point2D.Double(13.644913673400879, 38.367759704589844), new Point2D.Double(71.47347259521484, 38.367759704589844), new float[] {0.0f,1.0f}, new Color[] {new Color(163, 165, 168, 255),new Color(255, 255, 255, 255)}, MultipleGradientPaint.CycleMethod.NO_CYCLE, MultipleGradientPaint.ColorSpaceType.SRGB, new AffineTransform(1.0f, 0.0f, 0.0f, 1.0f, 0.0f, 0.0f));
stroke = new BasicStroke(1.7278044f,1,1,4.0f,null,0.0f);
if (generalPath == null) {
   generalPath = new GeneralPath();
} else {
   generalPath.reset();
}
generalPath.moveTo(70.60957f, 38.36776f);
generalPath.curveTo(70.60957f, 53.41439f, 58.05099f, 65.61209f, 42.559196f, 65.61209f);
generalPath.curveTo(27.067402f, 65.61209f, 14.50882f, 53.414387f, 14.50882f, 38.36776f);
generalPath.curveTo(14.50882f, 23.321129f, 27.067402f, 11.123426f, 42.559196f, 11.123426f);
generalPath.curveTo(58.05099f, 11.123426f, 70.60957f, 23.32113f, 70.60957f, 38.36776f);
generalPath.closePath();
shape = generalPath;
g.setPaint(paint);
g.setStroke(stroke);
g.draw(shape);
g.setTransform(transformsStack.pop());
g.setComposite(AlphaComposite.getInstance(3, 1.0f * origAlpha));
transformsStack.push(g.getTransform());
g.transform(new AffineTransform(1.272465467453003f, 0.0f, 0.0f, 1.272465467453003f, -100.71121215820312f, 321.2789611816406f));
// _0_0_2_18
g.setComposite(AlphaComposite.getInstance(3, 0.40625f * origAlpha));
transformsStack.push(g.getTransform());
g.transform(new AffineTransform(0.9136751294136047f, 0.0f, 0.0f, 0.6306344866752625f, -393.9872741699219f, 40.72113037109375f));
// _0_0_2_18_0
if (generalPath == null) {
   generalPath = new GeneralPath();
} else {
   generalPath.reset();
}
generalPath.moveTo(483.3296f, -50.078033f);
generalPath.curveTo(483.3296f, -38.99479f, 473.77277f, -30.01004f, 461.98383f, -30.01004f);
generalPath.curveTo(450.19485f, -30.01004f, 440.63803f, -38.99479f, 440.63803f, -50.078033f);
generalPath.curveTo(440.63803f, -61.16128f, 450.19485f, -70.14603f, 461.98383f, -70.14603f);
generalPath.curveTo(473.77277f, -70.14603f, 483.3296f, -61.161278f, 483.3296f, -50.078033f);
generalPath.closePath();
shape = generalPath;
paint = new RadialGradientPaint(new Point2D.Double(461.9837951660156, -50.078033447265625), 21.345785f, new Point2D.Double(461.5453186035156, -62.78385925292969), new float[] {0.0f,1.0f}, new Color[] {new Color(255, 255, 255, 255),new Color(255, 255, 255, 0)}, MultipleGradientPaint.CycleMethod.NO_CYCLE, MultipleGradientPaint.ColorSpaceType.SRGB, new AffineTransform(1.9245078563690186f, 8.883228588274505E-7f, -2.1962546270515304E-7f, 0.9889928102493286f, -427.1076965332031f, -0.5516313910484314f));
g.setPaint(paint);
g.fill(shape);
g.setTransform(transformsStack.pop());
g.setComposite(AlphaComposite.getInstance(3, 1.0f * origAlpha));
transformsStack.push(g.getTransform());
g.transform(new AffineTransform(1.0f, 0.0f, 0.0f, 1.0f, 0.0f, 0.0f));
// _0_0_2_18_1
if (generalPath == null) {
   generalPath = new GeneralPath();
} else {
   generalPath.reset();
}
generalPath.moveTo(28.332724f, -1.7688984f);
generalPath.curveTo(14.895174f, -1.7688984f, 3.9821777f, 9.144091f, 3.9821777f, 22.581644f);
generalPath.curveTo(3.9821777f, 36.019196f, 14.895174f, 46.910767f, 28.332724f, 46.910767f);
generalPath.curveTo(41.770275f, 46.910767f, 52.661846f, 36.019196f, 52.661846f, 22.581644f);
generalPath.curveTo(52.661846f, 9.144091f, 41.770256f, -1.768898f, 28.332724f, -1.768898f);
generalPath.closePath();
shape = generalPath;
paint = new RadialGradientPaint(new Point2D.Double(654.5357055664062, -20.356201171875), 38.29028f, new Point2D.Double(653.7733764648438, 3.2766332626342773), new float[] {0.0f,0.57963896f,0.8822989f,1.0f}, new Color[] {new Color(162, 243, 255, 79),new Color(81, 210, 244, 119),new Color(56, 139, 201, 169),new Color(31, 68, 158, 220)}, MultipleGradientPaint.CycleMethod.NO_CYCLE, MultipleGradientPaint.ColorSpaceType.SRGB, new AffineTransform(0.6356658935546875f, 0.0f, 0.0f, 0.6356658935546875f, -387.74407958984375f, 35.51068115234375f));
g.setPaint(paint);
g.fill(shape);
g.setTransform(transformsStack.pop());
g.setComposite(AlphaComposite.getInstance(3, 0.390625f * origAlpha));
transformsStack.push(g.getTransform());
g.transform(new AffineTransform(0.7026383876800537f, 0.0f, 0.0f, 0.7026383876800537f, -333.2755126953125f, 26.424467086791992f));
// _0_0_2_18_2
if (generalPath == null) {
   generalPath = new GeneralPath();
} else {
   generalPath.reset();
}
generalPath.moveTo(514.84375f, -41.875f);
generalPath.curveTo(495.23627f, -41.875f, 479.3125f, -25.95124f, 479.3125f, -6.34375f);
generalPath.curveTo(479.3125f, -2.9406471f, 479.79214f, 0.35313177f, 480.6875f, 3.46875f);
generalPath.curveTo(480.00345f, 0.73960924f, 479.625f, -2.122239f, 479.625f, -5.0625f);
generalPath.curveTo(479.625f, -24.377249f, 495.31024f, -40.0625f, 514.625f, -40.0625f);
generalPath.curveTo(533.93976f, -40.0625f, 549.625f, -24.377247f, 549.625f, -5.0625f);
generalPath.curveTo(549.625f, 1.5769448f, 547.7782f, 7.7719746f, 544.5625f, 13.0625f);
generalPath.curveTo(548.2146f, 7.482852f, 550.34375f, 0.82337f, 550.34375f, -6.34375f);
generalPath.curveTo(550.34375f, -25.95124f, 534.45123f, -41.875f, 514.84375f, -41.875f);
generalPath.closePath();
shape = generalPath;
paint = new LinearGradientPaint(new Point2D.Double(529.51708984375, -49.40803527832031), new Point2D.Double(529.1305541992188, -2.031881332397461), new float[] {0.0f,1.0f}, new Color[] {new Color(0, 0, 0, 255),new Color(0, 0, 0, 0)}, MultipleGradientPaint.CycleMethod.NO_CYCLE, MultipleGradientPaint.ColorSpaceType.SRGB, new AffineTransform(1.0f, 0.0f, 0.0f, 1.0f, 0.0f, 0.0f));
g.setPaint(paint);
g.fill(shape);
g.setTransform(transformsStack.pop());
g.setComposite(AlphaComposite.getInstance(3, 0.5703125f * origAlpha));
transformsStack.push(g.getTransform());
g.transform(new AffineTransform(0.7026383876800537f, 0.0f, 0.0f, 0.7026383876800537f, -266.5909729003906f, 26.424467086791992f));
// _0_0_2_18_3
if (generalPath == null) {
   generalPath = new GeneralPath();
} else {
   generalPath.reset();
}
generalPath.moveTo(385.9375f, -16.09375f);
generalPath.curveTo(384.79688f, -12.592159f, 384.1875f, -8.880613f, 384.1875f, -5.0f);
generalPath.curveTo(384.1875f, 14.819393f, 400.27435f, 30.90625f, 420.09375f, 30.90625f);
generalPath.curveTo(439.91315f, 30.90625f, 455.96875f, 14.819393f, 455.96875f, -5.0f);
generalPath.curveTo(455.96875f, -8.880612f, 455.35938f, -12.592159f, 454.21875f, -16.09375f);
generalPath.curveTo(455.10294f, -12.994237f, 455.59375f, -9.725784f, 455.59375f, -6.34375f);
generalPath.curveTo(455.59375f, 13.263741f, 439.70123f, 29.15625f, 420.09375f, 29.15625f);
generalPath.curveTo(400.48627f, 29.156248f, 384.5625f, 13.263741f, 384.5625f, -6.34375f);
generalPath.curveTo(384.5625f, -9.725784f, 385.0533f, -12.994237f, 385.9375f, -16.09375f);
generalPath.closePath();
shape = generalPath;
paint = new LinearGradientPaint(new Point2D.Double(425.90679931640625, 7.40625), new Point2D.Double(426.270263671875, -21.585128784179688), new float[] {0.0f,1.0f}, new Color[] {new Color(255, 255, 255, 255),new Color(255, 255, 255, 0)}, MultipleGradientPaint.CycleMethod.NO_CYCLE, MultipleGradientPaint.ColorSpaceType.SRGB, new AffineTransform(1.0f, 0.0f, 0.0f, 1.0f, 0.0f, 0.0f));
g.setPaint(paint);
g.fill(shape);
g.setTransform(transformsStack.pop());
g.setComposite(AlphaComposite.getInstance(3, 1.0f * origAlpha));
transformsStack.push(g.getTransform());
g.transform(new AffineTransform(0.7026383876800537f, 0.0f, 0.0f, 0.7026383876800537f, -266.5909729003906f, 26.424467086791992f));
// _0_0_2_18_4
if (generalPath == null) {
   generalPath = new GeneralPath();
} else {
   generalPath.reset();
}
generalPath.moveTo(385.9375f, -16.09375f);
generalPath.curveTo(384.79688f, -12.592159f, 384.1875f, -8.880613f, 384.1875f, -5.0f);
generalPath.curveTo(384.1875f, 14.819393f, 400.27435f, 29.90625f, 420.09375f, 29.90625f);
generalPath.curveTo(439.91315f, 29.90625f, 455.96875f, 14.819394f, 455.96875f, -5.0f);
generalPath.curveTo(455.96875f, -8.880612f, 455.35938f, -12.592159f, 454.21875f, -16.09375f);
generalPath.curveTo(455.10294f, -12.994237f, 455.59375f, -9.725784f, 455.59375f, -6.34375f);
generalPath.curveTo(455.59375f, 13.263741f, 439.70123f, 29.15625f, 420.09375f, 29.15625f);
generalPath.curveTo(400.48627f, 29.156248f, 384.5625f, 13.263741f, 384.5625f, -6.34375f);
generalPath.curveTo(384.5625f, -9.725784f, 385.0533f, -12.994237f, 385.9375f, -16.09375f);
generalPath.closePath();
shape = generalPath;
paint = new LinearGradientPaint(new Point2D.Double(425.19970703125, 35.690521240234375), new Point2D.Double(424.8560485839844, 12.002443313598633), new float[] {0.0f,1.0f}, new Color[] {new Color(255, 255, 255, 255),new Color(255, 255, 255, 0)}, MultipleGradientPaint.CycleMethod.NO_CYCLE, MultipleGradientPaint.ColorSpaceType.SRGB, new AffineTransform(1.0f, 0.0f, 0.0f, 1.0f, 0.0f, 0.0f));
g.setPaint(paint);
g.fill(shape);
g.setTransform(transformsStack.pop());
g.setComposite(AlphaComposite.getInstance(3, 1.0f * origAlpha));
transformsStack.push(g.getTransform());
g.transform(new AffineTransform(0.7026383876800537f, 0.0f, 0.0f, 0.7026383876800537f, -333.2755126953125f, 26.424467086791992f));
// _0_0_2_18_5
if (generalPath == null) {
   generalPath = new GeneralPath();
} else {
   generalPath.reset();
}
generalPath.moveTo(514.84375f, -40.875f);
generalPath.curveTo(495.23627f, -40.875f, 479.3125f, -25.95124f, 479.3125f, -6.34375f);
generalPath.curveTo(479.3125f, -2.9406471f, 479.79214f, 0.35313177f, 480.6875f, 3.46875f);
generalPath.curveTo(480.00345f, 0.73960924f, 479.625f, -2.122239f, 479.625f, -5.0625f);
generalPath.curveTo(479.625f, -24.377249f, 495.31024f, -40.0625f, 514.625f, -40.0625f);
generalPath.curveTo(533.93976f, -40.0625f, 549.625f, -24.377247f, 549.625f, -5.0625f);
generalPath.curveTo(549.625f, 1.5769448f, 547.7782f, 7.7719746f, 544.5625f, 13.0625f);
generalPath.curveTo(548.2146f, 7.482852f, 550.34375f, 0.82337f, 550.34375f, -6.34375f);
generalPath.curveTo(550.34375f, -25.95124f, 534.45123f, -40.875f, 514.84375f, -40.875f);
generalPath.closePath();
shape = generalPath;
paint = new LinearGradientPaint(new Point2D.Double(529.51708984375, -49.40803527832031), new Point2D.Double(529.6305541992188, -22.28188133239746), new float[] {0.0f,1.0f}, new Color[] {new Color(0, 0, 0, 255),new Color(0, 0, 0, 0)}, MultipleGradientPaint.CycleMethod.NO_CYCLE, MultipleGradientPaint.ColorSpaceType.SRGB, new AffineTransform(1.0f, 0.0f, 0.0f, 1.0f, 0.0f, 0.0f));
g.setPaint(paint);
g.fill(shape);
g.setTransform(transformsStack.pop());
g.setComposite(AlphaComposite.getInstance(3, 1.0f * origAlpha));
transformsStack.push(g.getTransform());
g.transform(new AffineTransform(1.0f, 0.0f, 0.0f, 1.0f, 0.0f, 0.0f));
// _0_0_2_18_6
if (generalPath == null) {
   generalPath = new GeneralPath();
} else {
   generalPath.reset();
}
generalPath.moveTo(28.429342f, -3.5254953f);
generalPath.curveTo(14.458402f, -3.5254953f, 3.112383f, 7.70249f, 3.112402f, 21.527956f);
generalPath.curveTo(3.112402f, 26.886229f, 4.822624f, 31.838602f, 7.7234535f, 35.910084f);
generalPath.curveTo(5.030179f, 31.929077f, 3.4637074f, 27.133469f, 3.4637074f, 21.967102f);
generalPath.curveTo(3.4637074f, 8.190124f, 14.652351f, -2.998518f, 28.429342f, -2.998518f);
generalPath.curveTo(42.206295f, -2.998518f, 53.373024f, 8.1901245f, 53.37299f, 21.967102f);
generalPath.curveTo(53.37299f, 27.133467f, 51.80267f, 31.929077f, 49.113243f, 35.910084f);
generalPath.curveTo(52.009983f, 31.8386f, 53.724304f, 26.886227f, 53.724304f, 21.527954f);
generalPath.curveTo(53.72432f, 7.70249f, 42.400246f, -3.5254953f, 28.429342f, -3.5254953f);
generalPath.closePath();
shape = generalPath;
paint = new LinearGradientPaint(new Point2D.Double(455.33935546875, -91.4619140625), new Point2D.Double(452.660888671875, -34.0517578125), new float[] {0.0f,1.0f}, new Color[] {new Color(255, 255, 255, 255),new Color(255, 255, 255, 0)}, MultipleGradientPaint.CycleMethod.NO_CYCLE, MultipleGradientPaint.ColorSpaceType.SRGB, new AffineTransform(0.6517223119735718f, 0.0f, 0.0f, 0.6517223119735718f, -266.5909729003906f, 35.222721099853516f));
g.setPaint(paint);
g.fill(shape);
g.setTransform(transformsStack.pop());
g.setComposite(AlphaComposite.getInstance(3, 1.0f * origAlpha));
transformsStack.push(g.getTransform());
g.transform(new AffineTransform(0.7026383876800537f, 0.0f, 0.0f, 0.7026383876800537f, -357.7611389160156f, 26.424467086791992f));
// _0_0_2_18_7
if (generalPath == null) {
   generalPath = new GeneralPath();
} else {
   generalPath.reset();
}
generalPath.moveTo(549.125f, -40.125f);
generalPath.curveTo(530.00055f, -40.125f, 514.46875f, -24.593172f, 514.46875f, -5.46875f);
generalPath.curveTo(514.46875f, 12.079336f, 527.5698f, 26.541828f, 544.5f, 28.8125f);
generalPath.curveTo(529.9104f, 26.584162f, 518.71875f, 13.990063f, 518.71875f, -1.21875f);
generalPath.curveTo(518.71875f, -18.000893f, 532.3429f, -31.625002f, 549.125f, -31.625f);
generalPath.curveTo(565.9071f, -31.625f, 579.53125f, -18.000893f, 579.53125f, -1.21875f);
generalPath.curveTo(579.53125f, 14.514505f, 567.57245f, 27.44413f, 552.25f, 29.0f);
generalPath.curveTo(569.9163f, 27.426971f, 583.75f, 12.606974f, 583.75f, -5.46875f);
generalPath.curveTo(583.75f, -24.593172f, 568.2494f, -40.125f, 549.125f, -40.125f);
generalPath.closePath();
generalPath.moveTo(552.25f, 29.0f);
generalPath.curveTo(551.73926f, 29.05186f, 551.2054f, 29.09875f, 550.6875f, 29.125f);
generalPath.curveTo(551.20624f, 29.10194f, 551.7374f, 29.04564f, 552.25f, 29.0f);
generalPath.closePath();
generalPath.moveTo(544.5f, 28.8125f);
generalPath.curveTo(545.01154f, 28.88111f, 545.51294f, 28.953968f, 546.03125f, 29.0f);
generalPath.curveTo(545.5204f, 28.94814f, 545.0031f, 28.88934f, 544.5f, 28.8125f);
generalPath.closePath();
generalPath.moveTo(546.03125f, 29.0f);
generalPath.curveTo(546.5414f, 29.0453f, 547.04626f, 29.102055f, 547.5625f, 29.125f);
generalPath.curveTo(547.04456f, 29.09875f, 546.5421f, 29.05186f, 546.03125f, 29.0f);
generalPath.closePath();
shape = generalPath;
paint = new RadialGradientPaint(new Point2D.Double(549.109375, -5.5), 34.640625f, new Point2D.Double(549.109375, 15.369064331054688), new float[] {0.0f,0.795f,1.0f}, new Color[] {new Color(22, 54, 122, 0),new Color(22, 54, 122, 0),new Color(22, 54, 122, 255)}, MultipleGradientPaint.CycleMethod.NO_CYCLE, MultipleGradientPaint.ColorSpaceType.SRGB, new AffineTransform(1.0f, 0.0f, 0.0f, 0.9995489120483398f, 0.0f, -0.002480830065906048f));
g.setPaint(paint);
g.fill(shape);
g.setTransform(transformsStack.pop());
g.setComposite(AlphaComposite.getInstance(3, 0.40625f * origAlpha));
transformsStack.push(g.getTransform());
g.transform(new AffineTransform(0.7373059988021851f, 0.0f, 0.0f, 0.6411355137825012f, -307.5618896484375f, 33.860286712646484f));
// _0_0_2_18_8
if (generalPath == null) {
   generalPath = new GeneralPath();
} else {
   generalPath.reset();
}
generalPath.moveTo(469.60727f, -34.831043f);
generalPath.curveTo(469.60727f, -25.147263f, 463.29294f, -17.297005f, 455.50378f, -17.297005f);
generalPath.curveTo(447.71466f, -17.297005f, 441.40033f, -25.14726f, 441.40033f, -34.831043f);
generalPath.curveTo(441.40033f, -44.514824f, 447.71466f, -52.36508f, 455.50378f, -52.36508f);
generalPath.curveTo(463.2929f, -52.36508f, 469.60724f, -44.514824f, 469.60724f, -34.831043f);
generalPath.closePath();
shape = generalPath;
paint = new RadialGradientPaint(new Point2D.Double(455.5038146972656, -40.34979248046875), 14.103466f, new Point2D.Double(455.5038146972656, -32.88325119018555), new float[] {0.0f,1.0f}, new Color[] {new Color(86, 228, 253, 175),new Color(255, 255, 255, 181)}, MultipleGradientPaint.CycleMethod.NO_CYCLE, MultipleGradientPaint.ColorSpaceType.SRGB, new AffineTransform(1.486486554145813f, -8.417273988925444E-7f, 1.0406811270513572E-6f, 1.837837815284729f, -221.59640502929688f, 32.46456527709961f));
g.setPaint(paint);
g.fill(shape);
g.setTransform(transformsStack.pop());
g.setComposite(AlphaComposite.getInstance(3, 0.58984375f * origAlpha));
transformsStack.push(g.getTransform());
g.transform(new AffineTransform(1.0f, 0.0f, 0.0f, 1.0f, 0.0f, 0.0f));
// _0_0_2_18_9
if (generalPath == null) {
   generalPath = new GeneralPath();
} else {
   generalPath.reset();
}
generalPath.moveTo(29.44629f, 0.21256398f);
generalPath.lineTo(29.648642f, 4.439237f);
generalPath.curveTo(31.324497f, 4.469328f, 32.957016f, 4.62683f, 34.52795f, 4.874713f);
generalPath.curveTo(34.201626f, 3.499492f, 33.87911f, 2.1244318f, 33.53858f, 0.75050807f);
generalPath.curveTo(32.228886f, 0.45357358f, 30.86117f, 0.2843541f, 29.44629f, 0.21256398f);
generalPath.closePath();
generalPath.moveTo(26.343327f, 0.23818238f);
generalPath.curveTo(24.984999f, 0.34143147f, 23.662796f, 0.5656826f, 22.4084f, 0.87858707f);
generalPath.curveTo(22.04677f, 2.335656f, 21.6967f, 3.7993238f, 21.351604f, 5.2589564f);
generalPath.curveTo(22.968073f, 4.895446f, 24.65706f, 4.6671686f, 26.41077f, 4.5417023f);
generalPath.lineTo(26.613146f, 0.23818207f);
generalPath.curveTo(26.520786f, 0.24415207f, 26.435284f, 0.23119207f, 26.343328f, 0.23818207f);
generalPath.closePath();
generalPath.moveTo(36.011967f, 1.4677594f);
generalPath.curveTo(36.428314f, 2.779594f, 36.83896f, 4.0950537f, 37.24864f, 5.412652f);
generalPath.curveTo(40.20459f, 6.137951f, 42.88738f, 7.2236633f, 45.14096f, 8.614676f);
generalPath.curveTo(43.389896f, 5.4700694f, 40.122684f, 2.9145107f, 36.01197f, 1.4677593f);
generalPath.closePath();
generalPath.moveTo(19.575256f, 1.7751533f);
generalPath.curveTo(15.17321f, 3.5408685f, 11.842925f, 6.6214757f, 10.513713f, 10.305347f);
generalPath.curveTo(12.572208f, 8.597153f, 15.186f, 7.1941733f, 18.158703f, 6.1811385f);
generalPath.curveTo(18.628277f, 4.7133965f, 19.097061f, 3.2452433f, 19.575256f, 1.7751533f);
generalPath.closePath();
generalPath.moveTo(29.716108f, 5.848128f);
