/*
 *     Orbit, a versatile image analysis software for biological image-based quantification.
 *     Copyright (C) 2009 - 2016 Actelion Pharmaceuticals Ltd., Gewerbestrasse 16, CH-4123 Allschwil, Switzerland.
 *
 *     This program is free software: you can redistribute it and/or modify
 *     it under the terms of the GNU General Public License as published by
 *     the Free Software Foundation, either version 3 of the License, or
 *     (at your option) any later version.
 *
 *     This program is distributed in the hope that it will be useful,
 *     but WITHOUT ANY WARRANTY; without even the implied warranty of
 *     MERCHANTABILITY or FITNESS FOR A PARTICULAR PURPOSE.  See the
 *     GNU General Public License for more details.
 *
 *     You should have received a copy of the GNU General Public License
 *     along with this program.  If not, see <http://www.gnu.org/licenses/>.
 *
 */

package com.actelion.research.orbit.imageAnalysis.components.icons;

import java.awt.*;
import java.awt.geom.AffineTransform;
import java.awt.geom.GeneralPath;
import java.awt.geom.Point2D;

import static java.awt.Color.BLACK;
import static java.awt.Color.WHITE;
import static java.awt.MultipleGradientPaint.ColorSpaceType.SRGB;
import static java.awt.MultipleGradientPaint.CycleMethod.NO_CYCLE;
import static java.awt.MultipleGradientPaint.CycleMethod.REFLECT;

/**
 * This class has been automatically generated using
 * <a href="http://ebourg.github.io/flamingo-svg-transcoder/">Flamingo SVG transcoder</a>.
 */
public class SystemLogOut5 implements org.pushingpixels.flamingo.api.common.icon.ResizableIcon {

    /**
     * Paints the transcoded SVG image on the specified graphics context. You
     * can install a custom transformation on the graphics context to scale the
     * image.
     *
     * @param g Graphics context.
     */
    public static void paint(Graphics2D g) {
        Shape shape = null;

        float origAlpha = 1.0f;
        Composite origComposite = g.getComposite();
        if (origComposite instanceof AlphaComposite) {
            AlphaComposite origAlphaComposite = (AlphaComposite) origComposite;
            if (origAlphaComposite.getRule() == AlphaComposite.SRC_OVER) {
                origAlpha = origAlphaComposite.getAlpha();
            }
        }

        java.util.LinkedList<AffineTransform> transformations = new java.util.LinkedList<AffineTransform>();


        // 

        // _0

        // _0_0

        // _0_0_0
        shape = new GeneralPath();
        ((GeneralPath) shape).moveTo(18.083601, 8.0);
        ((GeneralPath) shape).lineTo(109.9164, 8.0);
        ((GeneralPath) shape).curveTo(115.50271, 8.0, 120.0, 12.497286, 120.0, 18.083601);
        ((GeneralPath) shape).lineTo(120.0, 109.9164);
        ((GeneralPath) shape).curveTo(120.0, 115.50271, 115.50271, 120.0, 109.9164, 120.0);
        ((GeneralPath) shape).lineTo(18.083601, 120.0);
        ((GeneralPath) shape).curveTo(12.497286, 120.0, 8.0, 115.50271, 8.0, 109.9164);
        ((GeneralPath) shape).lineTo(8.0, 18.083601);
        ((GeneralPath) shape).curveTo(8.0, 12.497286, 12.497286, 8.0, 18.083601, 8.0);
        ((GeneralPath) shape).closePath();

        g.setPaint(new LinearGradientPaint(new Point2D.Double(60.40206527709961, 64.0761489868164), new Point2D.Double(60.40206527709961, -20.96221351623535), new float[]{0, 1}, new Color[]{new Color(0x008BBF), new Color(0x11FFFD, true)}, NO_CYCLE, SRGB, new AffineTransform()));
        g.fill(shape);

        // _0_0_1
        shape = new GeneralPath();
        ((GeneralPath) shape).moveTo(18.083601, 8.0);
        ((GeneralPath) shape).lineTo(109.9164, 8.0);
        ((GeneralPath) shape).curveTo(115.50271, 8.0, 120.0, 12.497286, 120.0, 18.083601);
        ((GeneralPath) shape).lineTo(120.0, 109.9164);
        ((GeneralPath) shape).curveTo(120.0, 115.50271, 115.50271, 120.0, 109.9164, 120.0);
        ((GeneralPath) shape).lineTo(18.083601, 120.0);
        ((GeneralPath) shape).curveTo(12.497286, 120.0, 8.0, 115.50271, 8.0, 109.9164);
        ((GeneralPath) shape).lineTo(8.0, 18.083601);
        ((GeneralPath) shape).curveTo(8.0, 12.497286, 12.497286, 8.0, 18.083601, 8.0);
        ((GeneralPath) shape).closePath();

        g.setPaint(new LinearGradientPaint(new Point2D.Double(39.74193572998047, 113.54839324951172), new Point2D.Double(11.458064079284668, 13.006451606750488), new float[]{0, 1}, new Color[]{new Color(0x002277), new Color(0x0077C1)}, NO_CYCLE, SRGB, new AffineTransform()));
        g.fill(shape);
        g.setComposite(AlphaComposite.getInstance(3, 0.08290154f * origAlpha));

        // _0_0_2
        shape = new GeneralPath();
        ((GeneralPath) shape).moveTo(18.083601, 8.0);
        ((GeneralPath) shape).lineTo(109.9164, 8.0);
        ((GeneralPath) shape).curveTo(115.50271, 8.0, 120.0, 12.497286, 120.0, 18.083601);
        ((GeneralPath) shape).lineTo(120.0, 109.9164);
        ((GeneralPath) shape).curveTo(120.0, 115.50271, 115.50271, 120.0, 109.9164, 120.0);
        ((GeneralPath) shape).lineTo(18.083601, 120.0);
        ((GeneralPath) shape).curveTo(12.497286, 120.0, 8.0, 115.50271, 8.0, 109.9164);
        ((GeneralPath) shape).lineTo(8.0, 18.083601);
        ((GeneralPath) shape).curveTo(8.0, 12.497286, 12.497286, 8.0, 18.083601, 8.0);
        ((GeneralPath) shape).closePath();

        g.setPaint(new LinearGradientPaint(new Point2D.Double(19.09677505493164, 50.58064651489258), new Point2D.Double(80.04769897460938, 66.89757537841797), new float[]{0, 1}, new Color[]{new Color(0x008BBF), new Color(0x11FFFD, true)}, NO_CYCLE, SRGB, new AffineTransform()));
        g.fill(shape);
        g.setComposite(AlphaComposite.getInstance(3, 1 * origAlpha));
        transformations.offer(g.getTransform());
        g.transform(new AffineTransform(-1, 0, 0, 1, 0, 0));

        // _0_0_3
        shape = new GeneralPath();
        ((GeneralPath) shape).moveTo(-109.38386, 12.614708);
        ((GeneralPath) shape).lineTo(-19.616138, 12.614708);
        ((GeneralPath) shape).curveTo(-15.737346, 12.614708, -12.614708, 15.737346, -12.614708, 19.616138);
        ((GeneralPath) shape).lineTo(-12.614708, 108.38386);
        ((GeneralPath) shape).curveTo(-12.614708, 112.26265, -15.737346, 115.38529, -19.616138, 115.38529);
        ((GeneralPath) shape).lineTo(-109.38386, 115.38529);
        ((GeneralPath) shape).curveTo(-113.26265, 115.38529, -116.38529, 112.26265, -116.38529, 108.38386);
        ((GeneralPath) shape).lineTo(-116.38529, 19.616138);
        ((GeneralPath) shape).curveTo(-116.38529, 15.737346, -113.26265, 12.614708, -109.38386, 12.614708);
        ((GeneralPath) shape).closePath();

        g.setPaint(new RadialGradientPaint(new Point2D.Double(42.70035171508789, 103.5802993774414), 42.559486f, new Point2D.Double(42.70035171508789, 103.5802993774414), new float[]{0, 1}, new Color[]{new Color(0x00BDE8), new Color(0x0084B0)}, NO_CYCLE, SRGB, new AffineTransform(1.1890799f, 0, 0, 1.1890799f, -114.77413f, -31.375729f)));
        g.fill(shape);

        g.setTransform(transformations.poll()); // _0_0_3
        g.setComposite(AlphaComposite.getInstance(3, 0.8876405f * origAlpha));

        // _0_0_4
        shape = new GeneralPath();
        ((GeneralPath) shape).moveTo(17.906944, 8.299378);
        ((GeneralPath) shape).curveTo(13.216769, 8.299378, 8.509435, 11.867379, 8.509435, 17.698118);
        ((GeneralPath) shape).lineTo(12.77674, 17.639206);
        ((GeneralPath) shape).curveTo(13.229113, 15.50937, 15.628704, 13.368243, 17.303345, 13.03582);
        ((GeneralPath) shape).lineTo(17.906944, 8.299378);
        ((GeneralPath) shape).closePath();

        g.setPaint(new LinearGradientPaint(new Point2D.Double(21.094993591308594, 21.101993560791016), new Point2D.Double(15.189132690429688, 27.007854461669922), new float[]{0, 1}, new Color[]{WHITE, new Color(0xFFFFFF, true)}, REFLECT, SRGB, new AffineTransform(1, 0, 0, 1, -7.5870967f, -7.3806453f)));
        g.fill(shape);
        g.setComposite(AlphaComposite.getInstance(3, 0.8689139f * origAlpha));
        transformations.offer(g.getTransform());
        g.transform(new AffineTransform(-1, 0, 0, 1, 135.86742f, -8));

        // _0_0_5
        shape = new GeneralPath();
        ((GeneralPath) shape).moveTo(25.397509, 16.46919);
        ((GeneralPath) shape).curveTo(20.707335, 16.46919, 16.429602, 20.1239, 16.429602, 25.954638);
        ((GeneralPath) shape).lineTo(20.77674, 25.639206);
        ((GeneralPath) shape).curveTo(21.229113, 23.50937, 23.628704, 21.368242, 25.303345, 21.03582);
        ((GeneralPath) shape).lineTo(25.397509, 16.46919);
        ((GeneralPath) shape).closePath();

        g.setPaint(new LinearGradientPaint(new Point2D.Double(21.094993591308594, 21.101993560791016), new Point2D.Double(15.126888275146484, 27.070098876953125), new float[]{0, 1}, new Color[]{WHITE, new Color(0xFFFFFF, true)}, REFLECT, SRGB, new AffineTransform(1, 0, 0, 1, 0.4129032f, 0.6193548f)));
        g.fill(shape);

        g.setTransform(transformations.poll()); // _0_0_5
        g.setComposite(AlphaComposite.getInstance(3, 0.08290155f * origAlpha));

        // _0_0_6
        shape = new GeneralPath();
        ((GeneralPath) shape).moveTo(8.0, 105.875);
        ((GeneralPath) shape).lineTo(8.0, 109.90625);
        ((GeneralPath) shape).curveTo(8.0, 115.49256, 12.507435, 120.0, 18.09375, 120.0);
        ((GeneralPath) shape).lineTo(109.90625, 120.0);
        ((GeneralPath) shape).curveTo(115.49256, 120.0, 120.0, 115.49257, 120.0, 109.90625);
        ((GeneralPath) shape).lineTo(120.0, 105.875);
        ((GeneralPath) shape).curveTo(120.0, 111.46131, 115.49256, 115.96875, 109.90625, 115.96875);
        ((GeneralPath) shape).lineTo(18.09375, 115.96875);
        ((GeneralPath) shape).curveTo(12.507435, 115.96875, 8.0, 111.46131, 8.0, 105.875);
        ((GeneralPath) shape).closePath();

        g.setPaint(new LinearGradientPaint(new Point2D.Double(55.32903289794922, 112), new Point2D.Double(55.32903289794922, 74.91314697265625), new float[]{0, 1}, new Color[]{new Color(0x002070), new Color(0x72BF, true)}, NO_CYCLE, SRGB, new AffineTransform()));
        g.fill(shape);
        g.setComposite(AlphaComposite.getInstance(3, 0.32642487f * origAlpha));
        transformations.offer(g.getTransform());
        g.transform(new AffineTransform(1, 0, 0, -1, -8, 136.08786f));

        // _0_0_7
        shape = new GeneralPath();
        ((GeneralPath) shape).moveTo(26.246569, 16.978624);
        ((GeneralPath) shape).curveTo(21.556393, 16.978624, 16.769224, 20.633333, 16.769224, 26.464073);
        ((GeneralPath) shape).lineTo(20.77674, 25.639206);
        ((GeneralPath) shape).curveTo(21.229113, 23.50937, 23.628704, 21.368242, 25.303345, 21.03582);
        ((GeneralPath) shape).lineTo(26.246569, 16.978624);
        ((GeneralPath) shape).closePath();

        g.setPaint(new LinearGradientPaint(new Point2D.Double(21.094993591308594, 21.101993560791016), new Point2D.Double(13.961039543151855, 28.235946655273438), new float[]{0, 1}, new Color[]{WHITE, new Color(0xFFFFFF, true)}, REFLECT, SRGB, new AffineTransform(1, 0, 0, 1, 0.4129032f, 0.6193548f)));
        g.fill(shape);

        g.setTransform(transformations.poll()); // _0_0_7
        g.setComposite(AlphaComposite.getInstance(3, 0.17616583f * origAlpha));
        transformations.offer(g.getTransform());
        g.transform(new AffineTransform(-1, 0, 0, -1, 135.86742f, 136.08786f));

        // _0_0_8
        shape = new GeneralPath();
        ((GeneralPath) shape).moveTo(26.246569, 16.978624);
        ((GeneralPath) shape).curveTo(21.556393, 16.978624, 16.769224, 20.633333, 16.769224, 26.464073);
        ((GeneralPath) shape).lineTo(20.77674, 25.639206);
        ((GeneralPath) shape).curveTo(21.229113, 23.50937, 23.628704, 21.368242, 25.303345, 21.03582);
        ((GeneralPath) shape).lineTo(26.246569, 16.978624);
        ((GeneralPath) shape).closePath();

        g.fill(shape);

        g.setTransform(transformations.poll()); // _0_0_8
        g.setComposite(AlphaComposite.getInstance(3, 0.38860103f * origAlpha));

        // _0_0_9
        shape = new GeneralPath();
        ((GeneralPath) shape).moveTo(8.0, 22.03871);
        ((GeneralPath) shape).lineTo(8.0, 18.00746);
        ((GeneralPath) shape).curveTo(8.0, 12.42115, 12.507435, 7.91371, 18.09375, 7.91371);
        ((GeneralPath) shape).lineTo(109.90625, 7.91371);
        ((GeneralPath) shape).curveTo(115.49256, 7.91371, 120.0, 12.42114, 120.0, 18.00746);
        ((GeneralPath) shape).lineTo(120.0, 22.03871);
        ((GeneralPath) shape).curveTo(120.0, 16.4524, 115.49256, 11.94496, 109.90625, 11.94496);
        ((GeneralPath) shape).lineTo(18.09375, 11.94496);
        ((GeneralPath) shape).curveTo(12.507435, 11.94496, 8.0, 16.4524, 8.0, 22.03871);
        ((GeneralPath) shape).closePath();

        g.setPaint(new LinearGradientPaint(new Point2D.Double(62.03871154785156, 15.91370964050293), new Point2D.Double(62.03871154785156, 50.72898483276367), new float[]{0, 1}, new Color[]{new Color(0x65F7FF), new Color(0xBFFFFF, true)}, NO_CYCLE, SRGB, new AffineTransform()));
        g.fill(shape);
        g.setComposite(AlphaComposite.getInstance(3, 1 * origAlpha));
        transformations.offer(g.getTransform());
        g.transform(new AffineTransform(1, 0, 0, 1, 0, -1));

        // _0_0_10

        // _0_0_10_0
        shape = new GeneralPath();
        ((GeneralPath) shape).moveTo(19.441303, 13.28125);
        ((GeneralPath) shape).curveTo(15.451078, 13.28125, 12.253803, 16.478525, 12.253803, 20.46875);
        ((GeneralPath) shape).lineTo(12.253803, 21.46875);
        ((GeneralPath) shape).curveTo(12.253803, 17.478525, 15.451078, 14.28125, 19.441303, 14.28125);
        ((GeneralPath) shape).lineTo(109.0663, 14.28125);
        ((GeneralPath) shape).curveTo(113.05653, 14.28125, 116.2538, 17.478525, 116.2538, 21.46875);
        ((GeneralPath) shape).lineTo(116.2538, 20.46875);
        ((GeneralPath) shape).curveTo(116.2538, 16.478525, 113.05653, 13.28125, 109.0663, 13.28125);
        ((GeneralPath) shape).lineTo(19.441303, 13.28125);
        ((GeneralPath) shape).closePath();

        g.setPaint(new LinearGradientPaint(new Point2D.Double(59.225807189941406, 7.897321701049805), new Point2D.Double(59.225807189941406, 46.228858947753906), new float[]{0, 1}, new Color[]{WHITE, new Color(0xFFFFFF, true)}, NO_CYCLE, SRGB, new AffineTransform(1, 0, 0, 1, 0.2623629f, 1)));
        g.fill(shape);

        // _0_0_10_1
        shape = new GeneralPath();
        ((GeneralPath) shape).moveTo(112.21077, 14.946344);
        ((GeneralPath) shape).curveTo(113.80613, 16.261139, 114.83577, 18.233091, 114.83577, 20.477594);
        ((GeneralPath) shape).lineTo(114.83577, 54.977592);
        ((GeneralPath) shape).curveTo(114.6424, 55.305634, 114.39903, 55.644913, 114.11702, 55.977592);
        ((GeneralPath) shape).curveTo(86.86925, 66.46412, 40.804813, 69.46592, 12.242023, 62.602592);
        ((GeneralPath) shape).lineTo(12.242023, 63.165092);
        ((GeneralPath) shape).curveTo(41.22309, 70.471725, 87.827515, 67.54278, 115.52327, 56.883842);
        ((GeneralPath) shape).curveTo(115.80529, 56.551163, 116.04865, 56.211884, 116.24202, 55.883842);
        ((GeneralPath) shape).lineTo(116.24202, 21.383844);
        ((GeneralPath) shape).curveTo(116.24202, 18.530832, 114.60098, 16.10976, 112.21077, 14.946344);
        ((GeneralPath) shape).closePath();

        g.setPaint(new LinearGradientPaint(new Point2D.Double(115.76677703857422, 71.08490753173828), new Point2D.Double(31.376678466796875, 21.03125), new float[]{0, 1}, new Color[]{WHITE, new Color(0xFFFFFF, true)}, NO_CYCLE, SRGB, new AffineTransform(1, 0, 0, 1, 0.2332229f, 1.9150941f)));
        g.fill(shape);

        g.setTransform(transformations.poll()); // _0_0_10
        transformations.offer(g.getTransform());
        g.transform(new AffineTransform(-1, 0, 0, 1, 0, 0));

        // _0_0_11
        shape = new GeneralPath();
        ((GeneralPath) shape).moveTo(-109.38386, 13.614708);
        ((GeneralPath) shape).lineTo(-19.616138, 13.614708);
        ((GeneralPath) shape).curveTo(-15.737346, 13.614708, -12.614708, 16.737347, -12.614708, 20.616138);
        ((GeneralPath) shape).lineTo(-12.614708, 108.38386);
        ((GeneralPath) shape).curveTo(-12.614708, 112.26265, -15.737346, 115.38529, -19.616138, 115.38529);
        ((GeneralPath) shape).lineTo(-109.38386, 115.38529);
        ((GeneralPath) shape).curveTo(-113.26265, 115.38529, -116.38529, 112.26265, -116.38529, 108.38386);
        ((GeneralPath) shape).lineTo(-116.38529, 20.616138);
        ((GeneralPath) shape).curveTo(-116.38529, 16.737347, -113.26265, 13.614708, -109.38386, 13.614708);
        ((GeneralPath) shape).closePath();

        g.setPaint(new LinearGradientPaint(new Point2D.Double(-60.94525146484375, 105.8305435180664), new Point2D.Double(-59.415245056152344, 45.63120651245117), new float[]{0, 1}, new Color[]{new Color(0x8BF9FF), new Color(0xFFFFFF, true)}, NO_CYCLE, SRGB, new AffineTransform()));
        g.setStroke(new BasicStroke(1, 1, 1, 4));
        g.draw(shape);

        g.setTransform(transformations.poll()); // _0_0_11

        // _0_0_12
        shape = new GeneralPath();
        ((GeneralPath) shape).moveTo(19.1875, 12.28125);
        ((GeneralPath) shape).curveTo(15.197275, 12.28125, 12.0, 15.478525, 12.0, 19.46875);
        ((GeneralPath) shape).lineTo(12.0, 61.25);
        ((GeneralPath) shape).curveTo(40.981075, 68.55663, 87.5855, 65.627686, 115.28125, 54.96875);
        ((GeneralPath) shape).curveTo(115.56327, 54.636066, 115.80663, 54.296787, 116.0, 53.96875);
        ((GeneralPath) shape).lineTo(116.0, 19.46875);
        ((GeneralPath) shape).curveTo(116.0, 15.478525, 112.80273, 12.28125, 108.8125, 12.28125);
        ((GeneralPath) shape).lineTo(19.1875, 12.28125);
        ((GeneralPath) shape).closePath();

        g.setPaint(new LinearGradientPaint(new Point2D.Double(59.225807189941406, -31.712745666503906), new Point2D.Double(59.225807189941406, 98.16717529296875), new float[]{0, 1}, new Color[]{WHITE, new Color(0xFFFFFF, true)}, NO_CYCLE, SRGB, new AffineTransform()));
        g.fill(shape);

        // _0_0_13

        // _0_0_13_0
        shape = new GeneralPath();
        ((GeneralPath) shape).moveTo(64.04654, 20.481585);
        ((GeneralPath) shape).curveTo(61.960968, 20.507065, 59.96946, 21.361374, 58.51529, 22.856585);
        ((GeneralPath) shape).curveTo(57.06112, 24.351805, 56.263958, 26.364864, 56.29654, 28.450335);
        ((GeneralPath) shape).lineTo(56.29654, 79.95034);
        ((GeneralPath) shape).lineTo(36.26529, 59.91909);
        ((GeneralPath) shape).curveTo(34.787827, 58.40047, 32.759037, 57.54387, 30.640287, 57.54409);
        ((GeneralPath) shape).curveTo(27.448488, 57.54626, 24.59106, 59.49302, 23.390291, 62.45034);
        ((GeneralPath) shape).curveTo(22.189522, 65.40766, 22.884722, 68.78618, 25.171541, 71.01284);
        ((GeneralPath) shape).lineTo(58.64029, 104.48159);
        ((GeneralPath) shape).curveTo(61.70427, 107.54377, 66.67006, 107.54377, 69.73404, 104.48159);
        ((GeneralPath) shape).lineTo(103.17154, 71.07534);
        ((GeneralPath) shape).curveTo(106.24362, 68.01189, 106.26624, 63.02243, 103.20279, 59.95034);
        ((GeneralPath) shape).curveTo(100.13934, 56.878258, 95.14987, 56.88689, 92.07779, 59.95034);
        ((GeneralPath) shape).lineTo(71.98404, 80.01284);
        ((GeneralPath) shape).lineTo(71.98404, 28.450335);
        ((GeneralPath) shape).curveTo(72.01711, 26.332363, 71.19766, 24.294844, 69.70279, 22.794085);
        ((GeneralPath) shape).curveTo(68.20792, 21.293333, 66.16463, 20.456844, 64.04654, 20.481585);
        ((GeneralPath) shape).closePath();

        g.setPaint(new RadialGradientPaint(new Point2D.Double(133.43136596679688, -30.769412994384766), 41.339077f, new Point2D.Double(133.43136596679688, -30.769412994384766), new float[]{0, 1}, new Color[]{new Color(0xCCCCCC), new Color(0xF1F1F1)}, NO_CYCLE, SRGB, new AffineTransform(0.6666541f, -0.2880173f, 0.2879365f, 0.6664669f, -15.943975f, 130.71796f)));
        g.fill(shape);
        g.setComposite(AlphaComposite.getInstance(3, 0.84741145f * origAlpha));
        transformations.offer(g.getTransform());
        g.transform(new AffineTransform(1, 0, 0, 1, 129.90218f, 135.44466f));

        // _0_0_13_1
        shape = new GeneralPath();
        ((GeneralPath) shape).moveTo(-65.8553, -115.93629);
        ((GeneralPath) shape).curveTo(-67.940865, -115.91081, -69.93238, -115.0565, -71.38655, -113.56129);
        ((GeneralPath) shape).curveTo(-72.84071, -112.06607, -73.63788, -110.05301, -73.6053, -107.96754);
        ((GeneralPath) shape).lineTo(-73.6053, -59.13827);
        ((GeneralPath) shape).curveTo(-73.633, -60.91176, -73.23047, -95.90461, -73.09827, -107.85662);
        ((GeneralPath) shape).curveTo(-73.07542, -109.89302, -71.604095, -111.33761, -71.38655, -111.56129);
        ((GeneralPath) shape).curveTo(-69.93238, -113.0565, -67.940865, -113.91081, -65.8553, -113.93629);
        ((GeneralPath) shape).curveTo(-63.73721, -113.96103, -61.69392, -113.12454, -60.19905, -111.62379);
        ((GeneralPath) shape).curveTo(-59.95884, -111.38263, -58.646637, -110.35154, -58.59751, -108.04623);
        ((GeneralPath) shape).curveTo(-58.29303, -93.75747, -57.890045, -60.915905, -57.9178, -59.13827);
        ((GeneralPath) shape).lineTo(-57.9178, -107.96754);
        ((GeneralPath) shape).curveTo(-57.88473, -110.08551, -58.70418, -112.12303, -60.19905, -113.62379);
        ((GeneralPath) shape).curveTo(-61.69392, -115.12454, -63.73721, -115.96103, -65.8553, -115.93629);
        ((GeneralPath) shape).closePath();
        ((GeneralPath) shape).moveTo(-99.26155, -78.873795);
        ((GeneralPath) shape).curveTo(-102.45335, -78.87162, -105.31078, -76.924866, -106.51155, -73.967545);
        ((GeneralPath) shape).curveTo(-107.0366, -72.674416, -107.18607, -71.29022, -107.01155, -69.967545);
        ((GeneralPath) shape).curveTo(-106.9276, -70.64168, -106.77553, -71.317406, -106.51155, -71.967545);
        ((GeneralPath) shape).curveTo(-105.31078, -74.924866, -102.45335, -76.87163, -99.26155, -76.873795);
        ((GeneralPath) shape).curveTo(-97.1428, -76.874016, -95.114006, -76.01741, -93.63655, -74.498795);
        ((GeneralPath) shape).lineTo(-73.6053, -54.467545);
        ((GeneralPath) shape).lineTo(-73.6053, -56.467545);
        ((GeneralPath) shape).lineTo(-93.63655, -76.498795);
        ((GeneralPath) shape).curveTo(-95.114006, -78.01741, -97.1428, -78.874016, -99.26155, -78.873795);
        ((GeneralPath) shape).closePath();
        ((GeneralPath) shape).moveTo(-32.26155, -78.748795);
        ((GeneralPath) shape).curveTo(-34.27586, -78.74771, -36.28801, -77.99927, -37.82405, -76.467545);
        ((GeneralPath) shape).lineTo(-57.9178, -56.405045);
        ((GeneralPath) shape).lineTo(-57.9178, -54.405045);
        ((GeneralPath) shape).lineTo(-37.82405, -74.467545);
        ((GeneralPath) shape).curveTo(-34.75197, -77.53099, -29.762499, -77.53963, -26.69905, -74.467545);
        ((GeneralPath) shape).curveTo(-25.422611, -73.18751, -24.687834, -71.572815, -24.4803, -69.905045);
        ((GeneralPath) shape).curveTo(-24.174337, -72.23908, -24.912039, -74.67549, -26.69905, -76.467545);
        ((GeneralPath) shape).curveTo(-28.230776, -78.003586, -30.24724, -78.74987, -32.26155, -78.748795);
        ((GeneralPath) shape).closePath();

        g.setPaint(BLACK);
        g.fill(shape);

        g.setTransform(transformations.poll()); // _0_0_13_1
        g.setComposite(AlphaComposite.getInstance(3, 0.46866485f * origAlpha));
        transformations.offer(g.getTransform());
        g.transform(new AffineTransform(1, 0, 0, 1, 129.90218f, 135.44466f));

        // _0_0_13_2
        shape = new GeneralPath();
        ((GeneralPath) shape).moveTo(-65.8553, -115.93629);
        ((GeneralPath) shape).curveTo(-67.940865, -115.91081, -69.93238, -115.0565, -71.38655, -113.56129);
        ((GeneralPath) shape).curveTo(-72.84071, -112.06607, -73.63788, -110.05301, -73.6053, -107.96754);
        ((GeneralPath) shape).lineTo(-73.6053, -59.13827);
        ((GeneralPath) shape).curveTo(-73.633, -60.91176, -73.23047, -95.90461, -73.09827, -107.85662);
        ((GeneralPath) shape).curveTo(-73.07542, -109.89302, -71.604095, -111.33761, -71.38655, -111.56129);
        ((GeneralPath) shape).curveTo(-69.93238, -113.0565, -67.940865, -113.91081, -65.8553, -113.93629);
        ((GeneralPath) shape).curveTo(-63.73721, -113.96103, -61.69392, -113.12454, -60.19905, -111.62379);
        ((GeneralPath) shape).curveTo(-59.95884, -111.38263, -58.646637, -110.35154, -58.59751, -108.04623);
        ((GeneralPath) shape).curveTo(-58.29303, -93.75747, -57.890045, -60.915905, -57.9178, -59.13827);
        ((GeneralPath) shape).lineTo(-57.9178, -107.96754);
        ((GeneralPath) shape).curveTo(-57.88473, -110.08551, -58.70418, -112.12303, -60.19905, -113.62379);
        ((GeneralPath) shape).curveTo(-61.69392, -115.12454, -63.73721, -115.96103, -65.8553, -115.93629);
        ((GeneralPath) shape).closePath();
        ((GeneralPath) shape).moveTo(-99.26155, -78.873795);
        ((GeneralPath) shape).curveTo(-102.45335, -78.87162, -105.31078, -76.924866, -106.51155, -73.967545);
        ((GeneralPath) shape).curveTo(-107.0366, -72.674416, -107.18607, -71.29022, -107.01155, -69.967545);
        ((GeneralPath) shape).curveTo(-106.9276, -70.64168, -106.77553, -71.317406, -106.51155, -71.967545);
        ((GeneralPath) shape).curveTo(-105.31078, -74.924866, -102.45335, -76.87163, -99.26155, -76.873795);
        ((GeneralPath) shape).curveTo(-97.1428, -76.874016, -95.114006, -76.01741, -93.63655, -74.498795);
        ((GeneralPath) shape).lineTo(-73.6053, -54.467545);
        ((GeneralPath) shape).lineTo(-73.6053, -56.467545);
        ((GeneralPath) shape).lineTo(-93.63655, -76.498795);
        ((GeneralPath) shape).curveTo(-95.114006, -78.01741, -97.1428, -78.874016, -99.26155, -78.873795);
        ((GeneralPath) shape).closePath();
        ((GeneralPath) shape).moveTo(-32.26155, -78.748795);
        ((GeneralPath) shape).curveTo(-34.27586, -78.74771, -36.28801, -77.99927, -37.82405, -76.467545);
        ((GeneralPath) shape).lineTo(-57.9178, -56.405045);
        ((GeneralPath) shape).lineTo(-57.9178, -54.405045);
        ((GeneralPath) shape).lineTo(-37.82405, -74.467545);
        ((GeneralPath) shape).curveTo(-34.75197, -77.53099, -29.762499, -77.53963, -26.69905, -74.467545);
        ((GeneralPath) shape).curveTo(-25.422611, -73.18751, -24.687834, -71.572815, -24.4803, -69.905045);
        ((GeneralPath) shape).curveTo(-24.174337, -72.23908, -24.912039, -74.67549, -26.69905, -76.467545);
        ((GeneralPath) shape).curveTo(-28.230776, -78.003586, -30.24724, -78.74987, -32.26155, -78.748795);
        ((GeneralPath) shape).closePath();

        g.fill(shape);

        g.setTransform(transformations.poll()); // _0_0_13_2
        g.setComposite(AlphaComposite.getInstance(3, 1 * origAlpha));
        transformations.offer(g.getTransform());
        g.transform(new AffineTransform(1, 0, 0, 1, 228.99617f, 135.44466f));

        // _0_0_13_3
        shape = new GeneralPath();
        ((GeneralPath) shape).moveTo(-206.02975, -69.97739);
        ((GeneralPath) shape).curveTo(-206.3509, -67.56412, -205.54887, -65.105385, -203.7485, -63.352386);
        ((GeneralPath) shape).lineTo(-170.27975, -29.883636);
        ((GeneralPath) shape).curveTo(-167.21577, -26.821457, -162.24998, -26.821457, -159.186, -29.883636);
        ((GeneralPath) shape).lineTo(-125.74851, -63.289886);
        ((GeneralPath) shape).curveTo(-123.94859, -65.084755, -123.19746, -67.53946, -123.49851, -69.88364);
        ((GeneralPath) shape).curveTo(-123.71158, -68.20505, -124.46026, -66.57452, -125.74851, -65.28989);
        ((GeneralPath) shape).lineTo(-159.186, -31.883636);
        ((GeneralPath) shape).curveTo(-162.24998, -28.821457, -167.21577, -28.821457, -170.27975, -31.883636);
        ((GeneralPath) shape).lineTo(-203.7485, -65.35239);
        ((GeneralPath) shape).curveTo(-205.0463, -66.616035, -205.8128, -68.2593, -206.02975, -69.97739);
        ((GeneralPath) shape).closePath();

        g.setPaint(WHITE);
        g.fill(shape);

        g.setTransform(transformations.poll()); // _0_0_13_3
        transformations.offer(g.getTransform());
        g.transform(new AffineTransform(1, 0, 0, 1, 228.99617f, 135.44466f));

        // _0_0_13_4
        shape = new GeneralPath();
        ((GeneralPath) shape).moveTo(-206.02975, -69.97739);
        ((GeneralPath) shape).curveTo(-206.3509, -67.56412, -205.54887, -65.105385, -203.7485, -63.352386);
        ((GeneralPath) shape).lineTo(-170.27975, -29.883636);
        ((GeneralPath) shape).curveTo(-167.21577, -26.821457, -162.24998, -26.821457, -159.186, -29.883636);
        ((GeneralPath) shape).lineTo(-125.74851, -63.289886);
        ((GeneralPath) shape).curveTo(-123.94859, -65.084755, -123.19746, -67.53946, -123.49851, -69.88364);
        ((GeneralPath) shape).curveTo(-123.71158, -68.20505, -124.46026, -66.57452, -125.74851, -65.28989);
        ((GeneralPath) shape).lineTo(-159.186, -31.883636);
        ((GeneralPath) shape).curveTo(-162.24998, -28.821457, -167.21577, -28.821457, -170.27975, -31.883636);
        ((GeneralPath) shape).lineTo(-203.7485, -65.35239);
        ((GeneralPath) shape).curveTo(-205.0463, -66.616035, -205.8128, -68.2593, -206.02975, -69.97739);
        ((GeneralPath) shape).closePath();

        g.fill(shape);

        g.setTransform(transformations.poll()); // _0_0_13_4

    }

    /**
     * Returns the X of the bounding box of the original SVG image.
     *
     * @return The X of the bounding box of the original SVG image.
     */
    public static int getOrigX() {
        return 0;
    }

    /**
     * Returns the Y of the bounding box of the original SVG image.
     *
     * @return The Y of the bounding box of the original SVG image.
     */
    public static int getOrigY() {
        return 0;
    }

    /**
     * Returns the width of the bounding box of the original SVG image.
     *
     * @return The width of the bounding box of the original SVG image.
     */
    public static int getOrigWidth() {
        return 128;
    }

    /**
     * Returns the height of the bounding box of the original SVG image.
     *
     * @return The height of the bounding box of the original SVG image.
     */
    public static int getOrigHeight() {
        return 128;
    }

    /**
     * The current width of this resizable icon.
     */
    int width;

    /**
     * The current height of this resizable icon.
     */
    int height;

    /**
     * Creates a new transcoded SVG image.
     */
    public SystemLogOut5() {
        this.width = getOrigWidth();
        this.height = getOrigHeight();
    }

    @Override
    public int getIconHeight() {
        return height;
    }

    @Override
    public int getIconWidth() {
        return width;
    }

    /*
     * (non-Javadoc)
     * 
     * @see org.pushingpixels.flamingo.api.common.icon.ResizableIcon#setDimension(java.awt.Dimension)
     */
    @Override
    public void setDimension(Dimension dimension) {
        this.width = dimension.width;
        this.height = dimension.height;
    }

    @Override
    public void paintIcon(Component c, Graphics g, int x, int y) {
        Graphics2D g2d = (Graphics2D) g.create();
        g2d.setRenderingHint(RenderingHints.KEY_ANTIALIASING, RenderingHints.VALUE_ANTIALIAS_ON);
        g2d.translate(x, y);

        double coef1 = (double) this.width / (double) getOrigWidth();
        double coef2 = (double) this.height / (double) getOrigHeight();
        double coef = Math.min(coef1, coef2);
        g2d.scale(coef, coef);
        paint(g2d);
        g2d.dispose();
    }
}

